~o
<STREAMINFO> 1 39
<VECSIZE> 39<NULLD><MFCC_E_D_A><DIAGC>
~v "varFloor1"
<VARIANCE> 39
 9.857469e-03 5.546750e-03 7.227151e-03 7.634672e-03 7.804320e-03 6.913838e-03 7.343364e-03 6.157733e-03 6.080312e-03 4.222516e-03 4.611216e-03 3.340509e-03 1.125261e-03 4.615124e-04 3.291483e-04 3.045427e-04 4.137188e-04 4.288039e-04 3.993323e-04 4.290919e-04 4.150005e-04 3.785724e-04 3.096795e-04 2.945840e-04 2.399993e-04 4.639273e-05 6.651254e-05 6.107638e-05 5.636400e-05 8.277006e-05 8.862553e-05 9.320126e-05 1.011802e-04 1.035967e-04 9.807252e-05 8.817509e-05 8.367682e-05 7.139950e-05 7.005768e-06
~h "b"
<BEGINHMM>
<NUMSTATES> 5
<STATE> 2
<MEAN> 39
 -5.227395e+00 4.076604e+00 -1.261693e+00 -4.391866e-01 -2.220176e+00 -2.419802e+00 -7.356752e+00 -8.010332e+00 -8.502760e+00 -5.382314e+00 -3.669894e+00 -4.716324e+00 -6.842331e+00 -1.195243e+00 3.927969e-01 5.910320e-01 8.598181e-01 5.588399e-01 4.663694e-03 4.684450e-01 2.127268e-01 2.067007e-01 -2.544384e-01 -3.743249e-01 1.568258e-01 -3.259730e-01 2.393457e-02 -1.131956e+00 -3.451474e-01 -1.013711e+00 -7.015337e-01 -3.253950e-01 -1.818160e-01 4.626723e-01 4.524079e-01 4.559142e-01 3.212927e-01 1.942997e-01 4.046241e-01
<VARIANCE> 39
 2.139266e+01 1.917217e+01 1.734838e+01 3.220736e+01 2.263631e+01 3.195388e+01 3.319090e+01 2.517548e+01 2.615775e+01 2.788785e+01 3.223524e+01 2.462735e+01 2.719257e+00 2.103029e+00 5.110603e+00 2.374514e+00 5.189568e+00 2.982170e+00 2.928722e+00 3.228442e+00 3.399505e+00 3.655371e+00 3.417100e+00 3.068686e+00 2.367768e+00 5.555380e-01 4.261955e-01 4.936923e-01 6.529067e-01 6.820015e-01 6.923851e-01 6.539397e-01 8.003265e-01 7.116086e-01 6.941805e-01 6.683809e-01 6.129205e-01 5.258820e-01 5.367110e-02
<GCONST> 1.164223e+02
<STATE> 3
<MEAN> 39
 -1.101222e+01 -1.609145e+00 -2.999668e+00 -2.606679e+00 -2.838085e+00 -3.146030e+00 -4.754375e+00 -4.045871e+00 -4.344388e+00 -3.209013e+00 -2.791637e+00 -2.407789e+00 -6.617054e+00 4.935023e-01 -2.523124e+00 -7.458750e-01 -2.309390e+00 -1.747647e+00 -1.228064e+00 -5.857649e-01 1.083991e+00 1.018553e+00 7.543235e-01 8.743610e-01 7.232627e-01 1.121299e+00 9.133164e-01 -2.828666e-01 -1.192169e-01 -7.490942e-01 -7.170615e-01 -2.430038e-01 -5.829256e-01 -1.380783e-03 -2.701458e-01 4.621852e-02 1.795586e-01 -9.597757e-02 3.822085e-01
<VARIANCE> 39
 3.903029e+01 2.779170e+01 2.141794e+01 3.303897e+01 2.138323e+01 2.710385e+01 2.885419e+01 2.773654e+01 3.082604e+01 2.543356e+01 2.485721e+01 1.897973e+01 5.035018e+00 5.175015e+00 3.549737e+00 5.262556e+00 5.129508e+00 4.449816e+00 4.102302e+00 4.896107e+00 4.485957e+00 4.817914e+00 4.222346e+00 3.196174e+00 2.775032e+00 5.625775e-01 6.715259e-01 8.229440e-01 9.334103e-01 8.484439e-01 8.422717e-01 8.809163e-01 8.938342e-01 9.174148e-01 9.773519e-01 7.941542e-01 8.022088e-01 5.423865e-01 6.425855e-02
<GCONST> 1.243796e+02
<STATE> 4
<MEAN> 39
 -5.710433e+00 -5.624541e+00 -4.282539e+00 -7.887531e+00 -8.317616e+00 -7.396514e+00 -8.635120e+00 -3.731761e+00 -3.722796e+00 -2.277647e+00 -5.213284e-01 -1.647210e+00 -3.241398e+00 1.463934e+00 -2.144053e+00 -1.586291e-01 -2.598799e+00 -2.544822e+00 -1.201147e+00 -1.372375e+00 9.551673e-01 7.957605e-02 3.816074e-01 7.249654e-01 2.782350e-01 1.257829e+00 5.204107e-02 4.173601e-01 1.723044e-01 1.167114e-01 1.076871e-01 4.038939e-01 1.543543e-03 -9.299608e-02 -3.628284e-01 -1.487586e-01 -1.629338e-01 -2.177730e-01 -1.300387e-01
<VARIANCE> 39
 3.267466e+01 2.455911e+01 5.801603e+01 5.678988e+01 3.722909e+01 5.395356e+01 4.716316e+01 4.070293e+01 4.170538e+01 3.486257e+01 3.271485e+01 2.405356e+01 2.301574e+00 6.468165e+00 5.240794e+00 9.501355e+00 7.691550e+00 7.380980e+00 6.112954e+00 7.158679e+00 6.973609e+00 7.263635e+00 5.771787e+00 4.621008e+00 3.414138e+00 4.900939e-01 4.248749e-01 5.069397e-01 4.600816e-01 6.925445e-01 5.838730e-01 7.163770e-01 8.105822e-01 7.408786e-01 7.499825e-01 6.621005e-01 5.910298e-01 4.297485e-01 5.325165e-02
<GCONST> 1.286660e+02
<TRANSP> 5
 0.000000e+00 1.000000e+00 0.000000e+00 0.000000e+00 0.000000e+00
 0.000000e+00 6.602377e-01 3.397623e-01 0.000000e+00 0.000000e+00
 0.000000e+00 0.000000e+00 3.516486e-01 6.483514e-01 0.000000e+00
 0.000000e+00 0.000000e+00 0.000000e+00 2.203328e-01 7.796673e-01
 0.000000e+00 0.000000e+00 0.000000e+00 0.000000e+00 0.000000e+00
<ENDHMM>
~h "d"
<BEGINHMM>
<NUMSTATES> 5
<STATE> 2
<MEAN> 39
 -1.018989e+01 3.072631e+00 1.973287e+00 1.635196e+00 -4.682134e+00 -5.432043e+00 -6.455022e+00 -4.634174e+00 -5.219710e+00 -4.770407e+00 -6.130255e+00 -4.833262e+00 -7.638693e+00 -9.671462e-01 -6.899202e-01 -3.114333e-01 -8.473287e-01 7.567693e-01 4.987180e-01 2.306582e-01 2.772993e-01 2.940547e-01 1.707623e-01 3.593644e-01 3.791906e-01 5.415894e-02 -2.736383e-02 -9.616632e-01 -1.805692e-01 -1.060924e+00 -6.822661e-01 -3.423867e-01 -1.881574e-01 2.718313e-01 1.464439e-01 2.457370e-01 4.110245e-01 3.633040e-01 4.598797e-01
<VARIANCE> 39
 3.722367e+01 2.854970e+01 2.779736e+01 2.966644e+01 3.110472e+01 3.203077e+01 2.965407e+01 3.012454e+01 3.362823e+01 2.540115e+01 2.526810e+01 2.188848e+01 4.048642e+00 3.400967e+00 6.882785e+00 3.322653e+00 6.668838e+00 4.521262e+00 4.147521e+00 4.070161e+00 3.925101e+00 3.757665e+00 3.005244e+00 3.283828e+00 2.788379e+00 8.232720e-01 5.036983e-01 7.877997e-01 5.407447e-01 7.700245e-01 8.659156e-01 7.981238e-01 8.285189e-01 7.625105e-01 7.198741e-01 6.222378e-01 5.853330e-01 4.914623e-01 8.204620e-02
<GCONST> 1.227429e+02
<STATE> 3
<MEAN> 39
 -1.662359e+01 -6.504476e+00 -3.069638e+00 -8.532265e+00 -4.048935e+00 -3.481070e+00 -3.699621e+00 -1.757168e+00 -2.987154e+00 -1.953105e+00 -1.549495e+00 -6.447574e-01 -5.247385e+00 3.779059e-01 -1.825664e+00 1.050068e-01 -2.769337e+00 -1.863169e+00 -1.869131e+00 -7.775133e-01 4.570369e-01 2.873988e-01 3.092031e-01 6.794777e-01 8.061733e-01 1.445583e+00 1.004812e+00 3.742571e-01 5.121137e-01 3.538358e-01 -9.734122e-01 -7.171051e-01 -6.170911e-01 -9.812482e-02 -1.799735e-01 -8.380185e-02 -2.725587e-01 -2.555288e-01 1.503651e-01
<VARIANCE> 39
 3.417126e+01 2.922534e+01 3.583036e+01 3.999223e+01 3.173735e+01 3.240165e+01 3.049910e+01 2.807691e+01 2.328137e+01 2.230857e+01 1.863749e+01 1.580660e+01 5.525053e+00 3.643249e+00 4.011220e+00 3.404083e+00 3.696950e+00 3.992976e+00 3.873183e+00 4.387754e+00 4.480805e+00 4.190925e+00 3.262835e+00 3.149789e+00 2.424756e+00 3.986604e-01 4.657043e-01 6.312362e-01 7.858486e-01 9.790540e-01 9.229402e-01 8.780519e-01 8.262246e-01 8.749700e-01 8.931411e-01 7.142675e-01 6.879387e-01 5.280564e-01 1.025174e-01
<GCONST> 1.220866e+02
<STATE> 4
<MEAN> 39
 -1.123338e+01 -4.945189e+00 7.836616e-01 -9.655467e+00 -1.136624e+01 -1.164592e+01 -8.195309e+00 -2.804353e+00 -3.738829e+00 -2.672199e+00 -2.415076e+00 -4.561015e-01 -2.597118e+00 2.619611e+00 -1.052894e+00 1.184451e+00 -6.875228e-01 -3.220881e+00 -2.175276e+00 -2.010358e+00 5.271899e-01 1.092333e-01 1.238090e-01 -7.491182e-02 -1.744701e-01 1.002258e+00 1.978574e-01 1.496891e-01 -1.624271e-01 6.169793e-01 2.473712e-01 6.074536e-01 1.117086e-01 1.200915e-01 -7.687299e-03 6.269113e-02 -1.473753e-01 -3.608410e-01 -2.868718e-01
<VARIANCE> 39
 3.663563e+01 3.321415e+01 3.907984e+01 3.785506e+01 4.873644e+01 3.661957e+01 4.180043e+01 3.662078e+01 3.857521e+01 2.341639e+01 2.198312e+01 1.942225e+01 1.978282e+00 3.143650e+00 4.076560e+00 4.947825e+00 5.506446e+00 5.178103e+00 4.923709e+00 5.713905e+00 6.009912e+00 6.141574e+00 4.268447e+00 4.420359e+00 3.543828e+00 2.798883e-01 5.872998e-01 5.992112e-01 5.333769e-01 6.334996e-01 8.132527e-01 7.080199e-01 7.355508e-01 6.816909e-01 6.194473e-01 4.982963e-01 5.156183e-01 4.385463e-01 3.825215e-02
<GCONST> 1.225234e+02
<TRANSP> 5
 0.000000e+00 1.000000e+00 0.000000e+00 0.000000e+00 0.000000e+00
 0.000000e+00 5.893381e-01 4.106620e-01 0.000000e+00 0.000000e+00
 0.000000e+00 0.000000e+00 4.058507e-01 5.941493e-01 0.000000e+00
 0.000000e+00 0.000000e+00 0.000000e+00 4.094627e-01 5.905373e-01
 0.000000e+00 0.000000e+00 0.000000e+00 0.000000e+00 0.000000e+00
<ENDHMM>
~h "f"
<BEGINHMM>
<NUMSTATES> 5
<STATE> 2
<MEAN> 39
 -1.956248e+01 -5.365417e+00 -5.781803e+00 -4.231151e+00 -3.426209e+00 -2.717293e+00 -2.097999e+00 -4.068176e-01 -1.797200e+00 -1.403860e+00 -2.295056e+00 -1.037412e+00 -6.152839e+00 -3.254539e+00 -7.855553e-01 -7.452304e-01 4.716833e-01 3.391842e-01 4.607624e-01 5.228758e-01 5.704629e-01 8.262144e-01 3.691902e-01 3.317583e-01 4.785055e-01 -5.227116e-01 5.903772e-01 -2.304170e-01 -7.344210e-02 -5.095663e-01 -4.947689e-01 -2.624308e-01 -3.623966e-01 -1.356783e-01 -1.791066e-01 9.677234e-02 1.565357e-02 -1.095238e-01 2.212176e-01
<VARIANCE> 39
 3.005522e+01 1.653622e+01 1.695129e+01 1.761913e+01 1.571890e+01 1.811271e+01 1.786238e+01 1.787009e+01 1.916012e+01 1.725644e+01 1.480600e+01 1.276159e+01 3.213240e+00 5.648427e+00 2.398796e+00 3.930118e+00 4.399424e+00 3.396939e+00 3.694298e+00 3.412311e+00 3.352076e+00 3.698957e+00 2.738826e+00 2.879365e+00 2.092923e+00 3.914914e-01 7.514572e-01 5.604215e-01 5.548499e-01 7.030135e-01 6.293204e-01 6.008990e-01 6.067848e-01 6.223360e-01 6.167787e-01 5.120389e-01 4.893984e-01 3.954940e-01 4.613715e-02
<GCONST> 1.111858e+02
<STATE> 3
<MEAN> 39
 -2.399888e+01 -8.254146e+00 -8.793141e+00 -5.629505e+00 -5.134952e+00 -3.483534e+00 -2.972324e+00 -3.833130e-01 -1.017917e+00 -1.834593e-01 -1.431779e+00 -4.359432e-01 -6.114898e+00 1.921248e-01 -1.675613e-01 -1.683363e-01 -1.044924e-01 -5.625884e-02 -4.338536e-02 -5.688774e-02 -9.349363e-02 2.551596e-02 1.139558e-01 6.880914e-02 -9.068932e-03 5.908019e-02 7.713746e-01 1.744241e-01 1.520801e-01 -1.018121e-01 8.886776e-03 -5.748930e-02 -9.836912e-02 -8.255552e-02 -1.175210e-01 -7.040759e-02 -4.214897e-02 -7.488175e-02 1.088211e-01
<VARIANCE> 39
 7.951318e+00 1.060762e+01 1.209493e+01 1.191593e+01 1.273028e+01 1.317295e+01 1.359665e+01 1.291899e+01 1.327310e+01 1.246538e+01 1.113288e+01 1.006339e+01 2.279798e+00 1.609195e+00 8.921108e-01 1.168285e+00 1.183903e+00 1.274623e+00 1.346669e+00 1.369755e+00 1.431769e+00 1.436159e+00 1.358391e+00 1.237723e+00 1.106508e+00 1.208488e-01 4.782514e-01 2.309146e-01 2.800213e-01 3.318489e-01 3.223692e-01 3.470329e-01 3.690572e-01 3.539609e-01 3.688690e-01 3.199811e-01 3.105226e-01 2.617594e-01 3.003523e-02
<GCONST> 8.583725e+01
<STATE> 4
<MEAN> 39
 -1.678898e+01 -6.934175e+00 -7.836358e+00 -6.463990e+00 -4.584171e+00 -3.533530e+00 -3.019471e+00 -1.186308e+00 -1.315795e+00 -7.611535e-02 -1.440810e+00 -1.097939e+00 -5.347167e+00 5.218825e+00 4.948636e-01 -9.159974e-02 -1.624691e+00 -1.020606e+00 -6.322541e-01 -1.295160e+00 -5.868666e-01 -8.375525e-01 -4.648430e-01 -1.176689e-01 -4.534160e-01 9.492933e-01 6.548585e-01 -2.155915e-01 -1.774389e-01 -5.081598e-01 -4.752233e-01 -1.450083e-01 -4.974976e-01 4.706959e-02 -2.002205e-01 -1.272546e-01 4.633729e-02 -4.620450e-02 2.184955e-01
<VARIANCE> 39
 4.598138e+01 1.656167e+01 2.249860e+01 2.043028e+01 1.938153e+01 2.026361e+01 1.942952e+01 1.813545e+01 1.740102e+01 1.578877e+01 1.500139e+01 1.179796e+01 2.888204e+00 3.932514e+00 3.363747e+00 4.545472e+00 5.124545e+00 4.674193e+00 4.799910e+00 4.797321e+00 3.867093e+00 3.659463e+00 2.950226e+00 3.506081e+00 2.311014e+00 3.596063e-01 9.623117e-01 5.157074e-01 4.748991e-01 6.010908e-01 6.256537e-01 6.526690e-01 7.076518e-01 6.665782e-01 6.060513e-01 5.540461e-01 5.087835e-01 3.843290e-01 4.602740e-02
<GCONST> 1.139406e+02
<TRANSP> 5
 0.000000e+00 1.000000e+00 0.000000e+00 0.000000e+00 0.000000e+00
 0.000000e+00 5.129144e-01 4.870856e-01 0.000000e+00 0.000000e+00
 0.000000e+00 0.000000e+00 8.250161e-01 1.749839e-01 0.000000e+00
 0.000000e+00 0.000000e+00 0.000000e+00 5.789537e-01 4.210463e-01
 0.000000e+00 0.000000e+00 0.000000e+00 0.000000e+00 0.000000e+00
<ENDHMM>
~h "g"
<BEGINHMM>
<NUMSTATES> 5
<STATE> 2
<MEAN> 39
 -1.055985e+01 2.136277e+00 8.912852e-01 8.124700e-01 -5.389398e+00 -6.503588e+00 -5.911843e+00 -4.410841e+00 -8.438024e+00 -4.171391e+00 -3.145390e+00 -4.579002e+00 -7.787089e+00 -9.004543e-01 -1.062565e+00 -7.915496e-01 -5.816609e-01 8.934291e-01 7.672197e-01 6.724066e-03 -1.037866e-01 7.952995e-01 5.943876e-01 -3.229029e-01 3.813753e-01 6.302214e-02 1.576588e-01 -1.169727e+00 -4.002135e-01 -9.953562e-01 -4.225388e-01 -2.227426e-01 -2.800567e-01 4.040591e-01 1.280273e-01 4.034995e-01 2.442405e-01 2.733997e-01 4.756853e-01
<VARIANCE> 39
 3.547138e+01 2.845459e+01 3.824575e+01 3.117406e+01 4.118016e+01 4.293242e+01 3.537595e+01 4.269308e+01 4.109240e+01 3.525205e+01 3.761750e+01 2.528100e+01 4.003578e+00 2.853478e+00 9.095250e+00 5.461015e+00 6.406333e+00 5.975050e+00 4.842394e+00 4.488488e+00 5.785969e+00 4.610074e+00 4.863500e+00 3.660733e+00 2.752898e+00 1.003657e+00 5.822024e-01 9.867193e-01 7.748225e-01 7.380953e-01 8.960707e-01 8.860810e-01 9.459055e-01 8.844871e-01 8.118194e-01 8.220728e-01 6.651580e-01 5.147477e-01 7.887732e-02
<GCONST> 1.293175e+02
<STATE> 3
<MEAN> 39
 -1.387344e+01 -1.069894e+01 -7.018043e+00 -7.316553e+00 -2.981270e+00 -4.166960e+00 -6.096442e+00 -1.582890e+00 -4.432660e+00 9.471287e-01 -2.546695e+00 -1.199197e+00 -5.124852e+00 8.306158e-01 -1.967244e+00 -6.555135e-01 -2.598888e+00 -9.876766e-01 -9.068731e-01 -1.063555e+00 9.234027e-02 1.278003e-01 9.917301e-01 1.897202e-01 5.236667e-01 1.295201e+00 8.172017e-01 9.193212e-01 7.975132e-01 1.852560e-01 -9.033038e-01 -5.898029e-01 -3.108191e-01 -1.331611e-01 -4.292032e-01 -3.564525e-01 1.969048e-01 -2.247343e-01 9.190589e-02
<VARIANCE> 39
 4.199305e+01 3.693856e+01 7.526343e+01 5.314814e+01 5.757264e+01 5.276661e+01 4.854631e+01 3.753707e+01 4.326025e+01 3.507230e+01 3.011068e+01 2.224288e+01 4.319802e+00 3.064430e+00 5.586046e+00 6.835737e+00 4.527239e+00 5.101871e+00 4.413529e+00 4.117191e+00 4.816188e+00 4.362385e+00 4.041299e+00 3.375821e+00 2.434767e+00 3.951820e-01 4.620818e-01 1.136368e+00 8.484921e-01 1.295022e+00 1.062943e+00 9.569069e-01 9.665052e-01 1.101190e+00 9.793559e-01 9.834599e-01 9.619203e-01 5.909386e-01 1.011833e-01
<GCONST> 1.311972e+02
<STATE> 4
<MEAN> 39
 -1.041746e+01 -5.640470e+00 -1.722325e-01 -9.244755e+00 -9.927358e+00 -8.275354e+00 -8.634016e+00 -3.957561e+00 -7.234373e+00 -4.117652e-01 -1.711545e+00 -1.389716e+00 -3.060006e+00 2.372597e+00 4.182961e-01 1.616751e+00 -6.619710e-01 -2.789014e+00 -1.727654e+00 -1.432093e+00 2.458177e-01 -8.540005e-01 -4.970544e-01 8.628955e-01 -1.626251e-01 9.361011e-01 1.550488e-01 -1.377235e-01 -2.350610e-01 3.248991e-01 -4.095545e-02 1.480661e-01 1.157072e-01 4.441710e-01 1.708911e-01 -1.228132e-01 1.319866e-01 -1.125211e-01 -1.514019e-01
<VARIANCE> 39
 4.129778e+01 3.284139e+01 9.486312e+01 5.053480e+01 7.375333e+01 5.091563e+01 4.225659e+01 4.523859e+01 4.662671e+01 4.468808e+01 4.685407e+01 2.269153e+01 1.844714e+00 1.840676e+00 4.307489e+00 3.701222e+00 5.459399e+00 4.550688e+00 4.620772e+00 5.166078e+00 5.626012e+00 5.744103e+00 6.029175e+00 5.939122e+00 3.144179e+00 1.989962e-01 3.896885e-01 9.430343e-01 8.960170e-01 7.229149e-01 8.204219e-01 7.799296e-01 8.026097e-01 8.281457e-01 8.222127e-01 9.221807e-01 6.481562e-01 4.425514e-01 3.664468e-02
<GCONST> 1.276016e+02
<TRANSP> 5
 0.000000e+00 1.000000e+00 0.000000e+00 0.000000e+00 0.000000e+00
 0.000000e+00 5.766703e-01 4.233297e-01 0.000000e+00 0.000000e+00
 0.000000e+00 0.000000e+00 4.651195e-01 5.348805e-01 0.000000e+00
 0.000000e+00 0.000000e+00 0.000000e+00 5.127757e-01 4.872243e-01
 0.000000e+00 0.000000e+00 0.000000e+00 0.000000e+00 0.000000e+00
<ENDHMM>
~h "k"
<BEGINHMM>
<NUMSTATES> 5
<STATE> 2
<MEAN> 39
 -1.851756e+01 -2.418600e+00 -4.734937e+00 1.629355e-01 -2.078182e+00 -2.582605e+00 -3.035722e+00 -4.602182e-01 -3.298200e+00 -8.630104e-01 -1.138450e+00 -9.154103e-01 -9.602852e+00 -1.190297e+00 -1.284344e+00 -1.018744e+00 -3.691497e-01 5.642809e-01 8.460309e-01 3.033223e-01 2.577521e-01 9.360596e-01 5.967286e-01 -5.324037e-02 3.588845e-01 -1.175673e-01 6.801196e-01 -7.860932e-01 -1.698244e-01 -9.790609e-01 -5.553461e-01 -5.825742e-01 -2.519641e-01 1.286194e-01 -2.192474e-01 1.381867e-01 -4.499337e-02 -9.374662e-02 6.722479e-01
<VARIANCE> 39
 1.647407e+01 1.792185e+01 2.089502e+01 1.740649e+01 2.417089e+01 2.899187e+01 2.705144e+01 3.172255e+01 3.070447e+01 2.214238e+01 1.941219e+01 1.605348e+01 2.069211e+00 5.574871e+00 6.066655e+00 5.441830e+00 6.324452e+00 6.475185e+00 6.422875e+00 5.307071e+00 5.861620e+00 5.649086e+00 3.756230e+00 3.569606e+00 2.612418e+00 1.674030e+00 6.380045e-01 7.830751e-01 7.439532e-01 7.273908e-01 8.287405e-01 8.954934e-01 8.659829e-01 9.262319e-01 8.648387e-01 6.911976e-01 6.463640e-01 4.510593e-01 9.597165e-02
<GCONST> 1.236694e+02
<STATE> 3
<MEAN> 39
 -1.534314e+01 -1.361116e+01 -1.071462e+01 -7.744075e+00 -3.011476e+00 -4.824069e+00 -5.195006e+00 1.139793e+00 -3.501451e+00 2.209815e+00 -2.001333e+00 -6.473733e-01 -4.798781e+00 2.365441e-01 -1.105426e+00 -6.103392e-01 -1.995918e+00 -5.871891e-01 -8.577722e-01 -1.517365e-01 1.752951e-01 2.837614e-01 7.174125e-01 -7.201181e-02 1.326075e-01 1.116239e+00 -1.179648e-01 1.214648e+00 8.389931e-01 4.708290e-01 -1.709631e-01 -2.280258e-02 2.436141e-01 -2.229129e-01 -2.341312e-02 -3.625311e-01 9.630159e-02 -8.564951e-02 -2.051458e-01
<VARIANCE> 39
 2.577763e+01 3.064034e+01 6.327930e+01 4.823204e+01 5.305355e+01 4.672332e+01 4.842352e+01 3.963873e+01 3.567924e+01 3.038414e+01 2.341549e+01 1.978740e+01 3.303897e+00 3.836174e+00 5.018425e+00 4.652032e+00 4.345738e+00 4.288849e+00 4.084444e+00 4.041890e+00 3.899130e+00 3.892372e+00 2.981587e+00 2.584932e+00 2.045795e+00 6.305733e-01 7.564425e-01 7.145519e-01 7.934700e-01 1.041928e+00 9.899832e-01 9.278693e-01 9.223816e-01 8.928764e-01 8.979222e-01 6.951322e-01 5.877582e-01 5.154585e-01 1.441633e-01
<GCONST> 1.266238e+02
<STATE> 4
<MEAN> 39
 -1.646585e+01 -8.197686e+00 -5.496387e+00 -8.532859e+00 -5.165798e+00 -4.913229e+00 -2.087345e+00 -7.954952e-01 -2.174926e+00 1.206387e+00 -1.808656e+00 -8.156018e-01 -4.480937e+00 1.245447e+00 8.674498e-01 9.301803e-01 1.457975e-01 -8.067589e-01 -4.370300e-01 -7.138046e-03 -2.839040e-01 -3.573577e-01 -9.222639e-01 -8.620440e-02 -3.805997e-01 2.868536e-01 5.408581e-01 -1.074674e-01 -9.358114e-02 5.379623e-02 -2.120302e-01 -5.820312e-02 -3.588847e-01 3.460447e-02 -2.448300e-01 -1.812627e-01 2.558193e-02 -1.044961e-01 3.913015e-02
<VARIANCE> 39
 2.915760e+01 2.403922e+01 5.619841e+01 3.869345e+01 4.780933e+01 4.359368e+01 4.538087e+01 3.894520e+01 3.403382e+01 2.892068e+01 2.589772e+01 1.905609e+01 2.381860e+00 5.764190e+00 3.257740e+00 2.906253e+00 3.485634e+00 3.990344e+00 3.980974e+00 4.564668e+00 3.962011e+00 4.479099e+00 3.222333e+00 3.414915e+00 2.372266e+00 3.470250e-01 4.981219e-01 7.038044e-01 5.586197e-01 7.853701e-01 6.629617e-01 7.327965e-01 7.639167e-01 7.575538e-01 7.787257e-01 6.860669e-01 5.949097e-01 4.357039e-01 9.325974e-02
<GCONST> 1.221164e+02
<TRANSP> 5
 0.000000e+00 1.000000e+00 0.000000e+00 0.000000e+00 0.000000e+00
 0.000000e+00 6.988524e-01 3.011477e-01 0.000000e+00 0.000000e+00
 0.000000e+00 0.000000e+00 5.705357e-01 4.294643e-01 0.000000e+00
 0.000000e+00 0.000000e+00 0.000000e+00 7.043188e-01 2.956812e-01
 0.000000e+00 0.000000e+00 0.000000e+00 0.000000e+00 0.000000e+00
<ENDHMM>
~h "l"
<BEGINHMM>
<NUMSTATES> 5
<STATE> 2
<MEAN> 39
 -3.078802e+00 -2.359843e+00 -8.167588e+00 -1.934521e+01 -8.376426e+00 -1.260082e+00 -8.658510e+00 -8.462058e+00 -5.763862e+00 -7.532805e-01 -8.865885e-01 -2.831619e+00 -2.193830e+00 1.590927e+00 4.205747e-01 -4.692705e-01 -2.233393e+00 -3.944710e-01 8.360427e-01 -6.931645e-01 -7.850219e-01 -7.368236e-01 -6.562050e-02 4.673465e-01 9.067760e-02 4.577033e-01 -5.553509e-01 -4.290818e-01 -1.308248e-02 5.008225e-01 1.249362e-01 -1.756900e-01 1.113176e-01 5.822514e-01 3.832423e-01 6.697729e-02 -2.394278e-02 1.947295e-02 -7.632250e-02
<VARIANCE> 39
 1.672593e+01 4.008164e+01 4.166963e+01 7.723479e+01 5.756791e+01 6.289882e+01 7.078788e+01 6.238414e+01 5.235831e+01 5.196025e+01 5.908912e+01 3.261305e+01 2.595080e+00 3.757879e+00 3.238898e+00 2.852246e+00 6.140625e+00 4.676713e+00 5.099762e+00 5.938779e+00 5.341508e+00 4.601007e+00 4.260272e+00 4.064885e+00 3.297449e+00 4.798743e-01 5.582920e-01 5.108389e-01 4.337776e-01 9.021428e-01 8.623191e-01 7.317395e-01 8.496603e-01 8.651161e-01 9.193161e-01 8.940511e-01 6.436896e-01 5.490549e-01 4.059807e-02
<GCONST> 1.287017e+02
<STATE> 3
<MEAN> 39
 -1.250892e+00 -1.848986e+00 -9.567233e+00 -2.386734e+01 -9.498670e+00 1.270414e+00 -7.672393e+00 -7.302584e+00 -6.507665e+00 -1.589566e+00 6.798984e-01 -1.473913e+00 -1.566293e+00 -7.159201e-02 -4.287983e-01 -2.584189e-01 4.753456e-02 2.735406e-01 6.531561e-02 -1.694346e-01 2.492990e-01 3.821544e-01 2.625356e-01 3.957079e-02 -1.818120e-01 7.181054e-02 -2.661517e-01 -4.227141e-01 1.785501e-02 5.582770e-01 1.365791e-01 -2.203376e-01 -7.749716e-02 2.565628e-01 4.123289e-01 1.960917e-01 -1.960707e-01 -2.388243e-01 -2.512596e-02
<VARIANCE> 39
 1.052660e+01 3.499221e+01 4.100694e+01 6.752554e+01 5.965879e+01 6.096077e+01 6.953123e+01 6.605081e+01 4.853491e+01 5.160700e+01 5.832912e+01 3.491235e+01 1.458475e+00 6.867744e-01 3.342156e+00 1.533674e+00 3.537559e+00 2.725355e+00 2.753964e+00 3.068782e+00 2.892856e+00 3.823185e+00 4.139633e+00 2.588353e+00 2.493589e+00 1.667970e-01 2.439099e-01 3.208668e-01 2.780297e-01 5.675246e-01 4.910910e-01 5.696999e-01 5.607506e-01 6.706788e-01 6.511142e-01 6.402455e-01 5.952551e-01 4.475905e-01 2.483861e-02
<GCONST> 1.149836e+02
<STATE> 4
<MEAN> 39
 -3.116987e+00 -8.300807e+00 -1.036928e+01 -1.877460e+01 -7.009836e+00 -2.079249e+00 -1.133861e+01 -4.635980e+00 -1.646181e-01 2.161633e+00 -2.109416e+00 -6.094683e+00 -9.674438e-01 -6.985661e-01 -1.539442e+00 5.265634e-01 1.816760e+00 -2.988515e-01 -1.388981e+00 -8.169227e-02 2.002726e+00 1.403591e+00 -3.566077e-01 -1.245903e+00 -3.535841e-01 2.779604e-02 -1.694537e-01 2.564025e-01 4.127252e-01 1.887749e-01 -3.335263e-01 -1.844350e-01 4.048403e-01 1.925707e-01 -5.293565e-01 -5.459131e-01 8.536742e-02 4.709079e-01 -9.590661e-02
<VARIANCE> 39
 1.150792e+01 3.985159e+01 4.430550e+01 5.789522e+01 5.066565e+01 7.526593e+01 7.168894e+01 6.599075e+01 6.651777e+01 5.712161e+01 7.254140e+01 4.628140e+01 2.122622e+00 1.690528e+00 2.609840e+00 2.749217e+00 4.624763e+00 4.569737e+00 4.664021e+00 4.597734e+00 4.258313e+00 5.488734e+00 4.677833e+00 3.680272e+00 4.310105e+00 3.328904e-01 2.363545e-01 3.714079e-01 3.186516e-01 5.102571e-01 5.717130e-01 6.612556e-01 6.306503e-01 7.651209e-01 9.882487e-01 7.754261e-01 7.820604e-01 5.640143e-01 1.738251e-02
<GCONST> 1.233601e+02
<TRANSP> 5
 0.000000e+00 1.000000e+00 0.000000e+00 0.000000e+00 0.000000e+00
 0.000000e+00 4.446661e-01 5.553339e-01 0.000000e+00 0.000000e+00
 0.000000e+00 0.000000e+00 7.061697e-01 2.938302e-01 0.000000e+00
 0.000000e+00 0.000000e+00 0.000000e+00 5.450914e-01 4.549086e-01
 0.000000e+00 0.000000e+00 0.000000e+00 0.000000e+00 0.000000e+00
<ENDHMM>
~h "m"
<BEGINHMM>
<NUMSTATES> 5
<STATE> 2
<MEAN> 39
 -3.392018e+00 -4.127789e+00 -4.360029e+00 -3.629487e+00 -6.641037e+00 -7.159554e+00 -8.080352e+00 -8.886555e+00 -1.188063e+01 -2.883910e+00 -5.909984e-01 -6.680473e+00 -3.684806e+00 4.505483e-02 9.601821e-01 9.883221e-01 1.774789e+00 2.870031e-01 -9.378313e-01 2.163876e-02 -1.730134e+00 -2.191535e+00 1.724198e-01 3.286772e-01 -7.777278e-01 -1.638506e-01 -2.150140e-01 -3.890768e-01 -1.334062e-01 -5.809938e-01 -2.362343e-01 2.724279e-01 1.469738e-02 5.666776e-01 6.817268e-01 -3.973268e-02 -2.224811e-01 2.202389e-01 1.096520e-01
<VARIANCE> 39
 9.279496e+00 2.734109e+01 2.555211e+01 4.646513e+01 5.139640e+01 6.522668e+01 6.102264e+01 6.104551e+01 5.522314e+01 5.322227e+01 7.371841e+01 4.302386e+01 1.778767e+00 2.741751e+00 2.773372e+00 3.071805e+00 4.058525e+00 4.199164e+00 3.780098e+00 4.679028e+00 4.714268e+00 5.320677e+00 4.340847e+00 4.703303e+00 3.231171e+00 3.766555e-01 3.324998e-01 2.928885e-01 4.722114e-01 5.686542e-01 5.634505e-01 5.417249e-01 6.269491e-01 7.011124e-01 8.249682e-01 6.742800e-01 7.654855e-01 5.300927e-01 2.345760e-02
<GCONST> 1.216578e+02
<STATE> 3
<MEAN> 39
 -3.803737e+00 -3.702616e+00 -2.941048e+00 -2.916799e+00 -7.444775e+00 -7.683770e+00 -7.863429e+00 -1.004362e+01 -1.265845e+01 -2.410524e+00 -1.460666e+00 -7.383476e+00 -3.686803e+00 -2.520660e-02 7.555021e-02 -2.899446e-02 -1.465844e-01 -1.151610e-01 1.133018e-01 5.812040e-02 7.948013e-02 2.454014e-01 -1.635977e-01 -2.504137e-01 1.010579e-01 2.537620e-02 -5.340120e-02 -2.915137e-01 -2.821944e-01 -6.549802e-01 -1.400643e-01 2.761041e-01 2.423015e-03 6.158866e-01 7.166090e-01 -9.114718e-02 -1.093342e-01 2.864469e-01 6.580509e-02
<VARIANCE> 39
 6.951210e+00 2.382615e+01 2.379272e+01 4.909246e+01 5.685516e+01 7.495928e+01 6.787349e+01 6.301890e+01 5.790670e+01 5.805966e+01 8.259003e+01 4.848298e+01 1.309215e+00 5.279656e-01 1.439931e+00 1.039303e+00 1.683244e+00 1.627550e+00 1.771680e+00 1.933477e+00 2.139442e+00 2.502118e+00 2.010481e+00 2.117491e+00 1.829212e+00 1.008353e-01 2.242806e-01 2.762061e-01 3.726754e-01 4.922036e-01 5.597636e-01 5.063164e-01 5.640386e-01 6.519590e-01 8.076944e-01 6.130456e-01 6.918163e-01 5.352790e-01 2.054016e-02
<GCONST> 1.083724e+02
<STATE> 4
<MEAN> 39
 -4.283115e+00 -4.072521e+00 -4.861794e+00 -5.327103e+00 -7.251881e+00 -6.279182e+00 -7.406500e+00 -7.992158e+00 -9.488881e+00 -3.415288e+00 -2.455124e+00 -5.854629e+00 -3.676196e+00 -4.934973e-01 -1.068623e+00 -6.903848e-01 -2.187053e+00 -5.533976e-01 7.735038e-01 -4.043879e-02 2.200861e+00 2.346568e+00 -3.495410e-01 -4.151423e-01 9.087415e-01 2.005503e-01 -2.579681e-01 -2.989312e-01 -1.455612e-02 -3.478604e-01 -1.280206e-01 1.489967e-01 5.522705e-02 4.609075e-01 2.700930e-01 1.034378e-01 7.006317e-02 1.635465e-01 4.868673e-02
<VARIANCE> 39
 1.371007e+01 3.230472e+01 3.026991e+01 5.235595e+01 4.902702e+01 5.755566e+01 5.988754e+01 5.714476e+01 6.555269e+01 4.785313e+01 6.339755e+01 3.912011e+01 3.175588e+00 3.007362e+00 3.349354e+00 4.137569e+00 5.300540e+00 5.918283e+00 4.313397e+00 4.798265e+00 5.075738e+00 5.682651e+00 4.536961e+00 5.143142e+00 3.759924e+00 4.165292e-01 3.859535e-01 4.355144e-01 5.132591e-01 7.243693e-01 6.818799e-01 5.426149e-01 6.575236e-01 7.504755e-01 9.958175e-01 6.330469e-01 6.660550e-01 5.248043e-01 3.238057e-02
<GCONST> 1.259947e+02
<TRANSP> 5
 0.000000e+00 1.000000e+00 0.000000e+00 0.000000e+00 0.000000e+00
 0.000000e+00 3.744110e-01 6.255890e-01 0.000000e+00 0.000000e+00
 0.000000e+00 0.000000e+00 6.697309e-01 3.302691e-01 0.000000e+00
 0.000000e+00 0.000000e+00 0.000000e+00 4.847889e-01 5.152111e-01
 0.000000e+00 0.000000e+00 0.000000e+00 0.000000e+00 0.000000e+00
<ENDHMM>
~h "n"
<BEGINHMM>
<NUMSTATES> 5
<STATE> 2
<MEAN> 39
 -4.011926e+00 -3.742878e+00 -2.171276e+00 -5.151583e+00 -1.212345e+01 -7.978398e+00 -4.706840e+00 -8.160970e+00 -9.002728e+00 -1.442654e+00 -5.727497e+00 -4.863424e+00 -3.810161e+00 7.328271e-02 1.289460e+00 8.426806e-02 1.044825e+00 1.417925e-01 -8.015549e-02 8.089228e-01 -1.764573e+00 -8.215235e-01 4.858426e-01 -3.431015e-01 -1.955984e-01 -2.906466e-01 -1.808121e-01 -1.898113e-01 4.593592e-03 -3.459543e-01 5.688548e-02 1.384607e-01 -2.031769e-01 5.137157e-01 2.720304e-01 -2.224731e-01 1.119174e-01 1.039718e-01 4.516916e-02
<VARIANCE> 39
 7.750020e+00 2.548028e+01 2.911819e+01 4.610333e+01 5.104955e+01 4.948093e+01 5.242123e+01 7.290782e+01 5.733342e+01 5.214781e+01 5.269083e+01 4.779771e+01 1.568017e+00 6.547682e-01 1.907198e+00 2.581507e+00 2.767295e+00 3.127634e+00 3.196517e+00 3.528121e+00 5.886630e+00 4.238178e+00 3.184238e+00 2.782568e+00 2.337705e+00 9.070433e-02 1.475599e-01 2.560403e-01 3.524829e-01 4.149688e-01 5.252861e-01 5.274100e-01 5.107744e-01 7.928584e-01 6.204391e-01 5.090681e-01 4.676281e-01 4.143136e-01 1.167199e-02
<GCONST> 1.115010e+02
<STATE> 3
<MEAN> 39
 -3.909236e+00 -1.300864e+00 -2.296814e+00 -3.848597e+00 -1.195709e+01 -8.352528e+00 -3.603308e+00 -1.078426e+01 -1.066190e+01 -7.620900e-01 -6.373487e+00 -5.267056e+00 -4.183201e+00 -7.396017e-01 5.667659e-01 2.303853e-01 2.383516e-02 8.429767e-01 2.780578e-01 -2.002953e-01 4.340831e-01 1.213453e-01 -6.198490e-01 1.343274e-01 1.970284e-01 -2.489748e-01 -5.777543e-01 -6.956679e-01 -1.847365e-02 -6.802378e-01 1.972078e-01 3.153157e-01 -4.171655e-01 1.178519e+00 6.946532e-01 -3.058619e-01 3.102835e-01 2.360159e-01 7.420099e-02
<VARIANCE> 39
 7.968976e+00 2.914372e+01 2.516714e+01 4.563350e+01 5.373318e+01 4.753934e+01 5.786560e+01 6.743678e+01 5.265088e+01 5.643808e+01 5.794018e+01 4.975098e+01 1.780262e+00 1.400466e+00 2.879701e+00 2.228964e+00 3.044632e+00 3.506477e+00 2.965658e+00 3.377317e+00 5.065698e+00 3.816466e+00 3.098371e+00 2.746912e+00 2.603584e+00 1.633690e-01 4.202445e-01 5.254318e-01 6.944314e-01 7.505773e-01 1.046343e+00 8.285919e-01 9.470168e-01 1.078389e+00 9.650453e-01 8.834800e-01 7.572837e-01 6.950540e-01 3.319319e-02
<GCONST> 1.214522e+02
<STATE> 4
<MEAN> 39
 -8.202938e+00 -2.526060e+00 -1.834565e+00 -5.486640e+00 -8.571015e+00 -6.788795e+00 -5.354451e+00 -5.324248e+00 -7.201386e+00 -3.461547e+00 -4.955896e+00 -3.793254e+00 -5.141016e+00 -1.753616e+00 -8.062388e-01 -2.241547e-01 -9.439099e-01 7.849154e-01 7.973642e-01 -2.548150e-01 1.874195e+00 1.301496e+00 -3.307680e-01 6.477543e-01 5.682747e-01 -1.126136e-01 -1.287975e-01 -3.576608e-01 -2.015869e-01 -2.622209e-01 -2.033073e-01 8.248682e-02 8.589081e-02 2.157071e-01 2.077026e-01 2.233454e-01 1.351994e-01 7.515178e-02 1.319440e-01
<VARIANCE> 39
 2.932752e+01 4.435075e+01 3.443554e+01 5.210104e+01 5.627970e+01 4.417144e+01 4.913233e+01 5.918307e+01 5.582856e+01 4.521290e+01 4.008575e+01 3.516140e+01 4.826083e+00 4.846609e+00 3.947213e+00 4.063466e+00 5.175799e+00 6.146008e+00 4.604462e+00 5.323252e+00 6.195415e+00 5.447430e+00 4.488619e+00 4.162143e+00 3.694493e+00 4.738047e-01 5.870026e-01 7.101655e-01 5.491420e-01 7.644151e-01 7.920536e-01 7.495345e-01 7.875694e-01 9.909545e-01 8.912436e-01 7.022982e-01 6.011938e-01 5.519119e-01 5.637106e-02
<GCONST> 1.298511e+02
<TRANSP> 5
 0.000000e+00 1.000000e+00 0.000000e+00 0.000000e+00 0.000000e+00
 0.000000e+00 6.336201e-01 3.663799e-01 0.000000e+00 0.000000e+00
 0.000000e+00 0.000000e+00 4.088126e-01 5.911874e-01 0.000000e+00
 0.000000e+00 0.000000e+00 0.000000e+00 4.524910e-01 5.475090e-01
 0.000000e+00 0.000000e+00 0.000000e+00 0.000000e+00 0.000000e+00
<ENDHMM>
~h "p"
<BEGINHMM>
<NUMSTATES> 5
<STATE> 2
<MEAN> 39
 -1.837292e+01 -2.817921e-01 -4.347870e+00 -2.767487e-01 -2.261905e+00 -7.593818e-01 -2.458834e+00 -1.551748e+00 -2.218940e+00 -9.678733e-01 -1.112695e+00 -7.033656e-01 -1.008572e+01 -1.142556e+00 -8.008070e-01 -4.725824e-01 -2.094702e-01 9.390131e-03 2.573719e-01 6.805313e-01 6.907380e-01 7.739447e-01 4.584075e-01 2.521857e-01 3.731050e-01 -1.283153e-01 6.861602e-01 -5.754188e-01 -6.673136e-03 -7.571088e-01 -3.128996e-01 -4.051521e-01 -2.885633e-01 3.146415e-02 9.927307e-03 1.917934e-02 5.737348e-02 -4.695364e-02 6.139749e-01
<VARIANCE> 39
 1.191694e+01 9.733350e+00 9.451114e+00 8.758739e+00 8.853447e+00 1.080806e+01 1.319969e+01 1.618758e+01 1.740306e+01 1.526167e+01 1.339909e+01 1.205337e+01 8.137479e-01 5.417151e+00 2.586701e+00 1.977955e+00 3.390399e+00 2.140785e+00 2.905521e+00 2.808713e+00 2.681999e+00 2.887371e+00 2.319725e+00 2.136913e+00 1.808160e+00 1.306611e+00 7.114637e-01 6.224379e-01 5.225210e-01 5.611527e-01 5.192338e-01 5.242037e-01 5.531011e-01 5.925252e-01 5.606258e-01 4.889701e-01 4.639293e-01 3.461187e-01 6.833318e-02
<GCONST> 1.028790e+02
<STATE> 3
<MEAN> 39
 -1.610010e+01 -7.242274e+00 -6.024449e+00 -5.425673e+00 -2.954153e+00 -2.415722e+00 -1.684073e+00 2.497897e-01 7.193344e-01 7.939420e-01 1.101200e-01 1.367223e-01 -6.019425e+00 1.296548e+00 -1.539393e+00 -4.580218e-01 -1.579578e+00 -1.947332e-01 -3.137761e-01 -2.110233e-02 2.236466e-01 1.687092e-01 -5.195142e-03 -1.576691e-02 -1.021374e-01 1.136812e+00 4.434482e-01 4.408088e-01 -4.173002e-02 -1.526880e-01 -2.108917e-01 -2.123566e-02 -3.199278e-01 -2.973991e-01 -5.601506e-01 -3.353193e-01 -2.472564e-01 -2.387130e-01 -4.632302e-02
<VARIANCE> 39
 1.473414e+01 1.791493e+01 1.932711e+01 1.876669e+01 1.783813e+01 1.837442e+01 1.961224e+01 1.928693e+01 1.846150e+01 1.675231e+01 1.518872e+01 1.282816e+01 3.261448e+00 3.715727e+00 2.001642e+00 2.904227e+00 2.986724e+00 2.606503e+00 2.877095e+00 2.977065e+00 2.801814e+00 2.888012e+00 2.305465e+00 2.118134e+00 1.742524e+00 5.473073e-01 5.495672e-01 5.088024e-01 5.025964e-01 6.133191e-01 6.465209e-01 5.841069e-01 6.333410e-01 6.472983e-01 6.348744e-01 5.252652e-01 5.286915e-01 3.941375e-01 1.053599e-01
<GCONST> 1.087313e+02
<STATE> 4
<MEAN> 39
 -1.244340e+01 -7.571890e+00 -7.249972e+00 -9.497060e+00 -4.145306e+00 -2.026826e+00 -1.675774e+00 -6.887475e-01 -1.988618e+00 -1.351380e+00 -1.796074e+00 -1.495042e+00 -4.743468e+00 2.401713e+00 5.962423e-01 -1.076274e-01 -2.030897e+00 -1.473638e+00 -4.681200e-01 -1.123510e+00 -6.568777e-01 -1.293017e+00 -8.683887e-01 -5.232072e-01 -5.347085e-01 8.908647e-01 2.273653e-01 3.613774e-01 5.119814e-02 -4.473557e-02 -3.563164e-01 -7.600508e-02 -3.569381e-01 -9.097916e-02 -1.370527e-01 -6.983067e-03 1.120590e-01 1.353345e-02 2.715682e-03
<VARIANCE> 39
 3.711978e+01 2.561707e+01 4.652235e+01 4.021029e+01 3.288249e+01 3.755776e+01 3.767113e+01 3.528941e+01 3.108879e+01 2.585913e+01 2.585181e+01 1.829591e+01 2.442839e+00 5.511051e+00 3.854178e+00 4.875216e+00 5.300020e+00 5.480964e+00 4.666634e+00 5.163191e+00 5.223473e+00 4.476891e+00 3.505399e+00 4.079782e+00 2.417323e+00 5.421962e-01 4.984112e-01 5.935187e-01 5.150044e-01 6.971473e-01 6.997404e-01 6.761505e-01 7.363438e-01 7.662337e-01 6.791505e-01 6.057154e-01 5.746613e-01 4.450534e-01 9.039005e-02
<GCONST> 1.231772e+02
<TRANSP> 5
 0.000000e+00 1.000000e+00 0.000000e+00 0.000000e+00 0.000000e+00
 0.000000e+00 7.549016e-01 2.450984e-01 0.000000e+00 0.000000e+00
 0.000000e+00 0.000000e+00 5.792375e-01 4.207625e-01 0.000000e+00
 0.000000e+00 0.000000e+00 0.000000e+00 5.364226e-01 4.635774e-01
 0.000000e+00 0.000000e+00 0.000000e+00 0.000000e+00 0.000000e+00
<ENDHMM>
~h "r"
<BEGINHMM>
<NUMSTATES> 5
<STATE> 2
<MEAN> 39
 2.654791e+00 -9.344955e+00 -1.547356e+01 -6.997549e+00 -3.704839e+00 -9.232341e+00 -1.698440e+01 -1.770624e+00 -1.598865e+00 -2.723805e+00 -1.132828e+00 -1.859416e-01 -1.935213e+00 1.271109e+00 -6.525934e-01 -5.744007e-01 1.481159e-01 -1.577654e-01 -8.939497e-01 -1.639851e+00 6.298431e-01 5.519927e-01 -1.824095e-01 -5.633866e-02 1.887443e-01 3.560257e-01 -7.335554e-01 -2.446993e-01 6.516540e-01 9.890587e-02 -4.892958e-01 -2.638541e-02 6.443244e-01 3.954633e-01 -7.176960e-02 -3.044503e-02 6.269671e-02 -6.810067e-02 -7.043441e-02
<VARIANCE> 39
 1.355508e+01 3.516870e+01 5.133439e+01 3.799487e+01 4.771158e+01 7.031284e+01 7.499468e+01 8.815752e+01 7.421214e+01 3.949536e+01 3.512812e+01 2.880969e+01 2.257329e+00 4.045265e+00 2.675291e+00 3.766120e+00 3.266642e+00 4.007826e+00 4.632231e+00 5.426944e+00 5.612391e+00 4.312125e+00 3.446287e+00 2.926250e+00 2.231069e+00 3.257310e-01 5.351639e-01 3.682663e-01 4.518115e-01 4.055870e-01 5.214660e-01 6.590095e-01 9.292772e-01 8.445409e-01 6.410532e-01 5.686791e-01 4.415330e-01 4.213867e-01 2.443379e-02
<GCONST> 1.216998e+02
<STATE> 3
<MEAN> 39
 2.146944e+00 -1.440711e+01 -1.328452e+01 -5.220788e+00 -7.302479e+00 -1.387880e+01 -1.883603e+01 5.866540e+00 1.022846e+00 -3.854219e+00 -1.019421e+00 -3.713860e-01 -9.831381e-01 -6.934394e-01 -6.301070e-01 1.953363e+00 4.403612e-01 -1.750228e+00 -9.088212e-01 1.080795e+00 1.130998e+00 -5.602637e-01 -6.270183e-01 1.304418e-01 -9.114513e-03 -7.646979e-03 -5.014579e-01 3.321115e-01 6.047800e-01 -2.469628e-01 -2.605253e-01 4.716740e-01 8.683887e-01 -4.401165e-01 -5.562218e-01 4.847481e-02 1.544825e-01 -1.112732e-01 -1.153312e-01
<VARIANCE> 39
 8.980608e+00 2.380797e+01 5.665488e+01 3.958193e+01 5.983363e+01 7.940425e+01 9.985110e+01 8.297154e+01 8.579088e+01 4.878545e+01 4.153807e+01 2.974299e+01 1.078987e+00 7.745553e-01 1.956987e+00 2.972483e+00 2.612817e+00 3.411561e+00 3.460749e+00 4.172027e+00 5.464566e+00 3.730919e+00 3.063385e+00 2.913066e+00 2.274735e+00 1.548555e-01 3.110995e-01 2.256642e-01 3.166920e-01 3.844502e-01 5.344930e-01 5.356101e-01 7.272909e-01 6.828744e-01 5.752631e-01 5.176681e-01 4.022176e-01 3.877448e-01 1.687058e-02
<GCONST> 1.144391e+02
<STATE> 4
<MEAN> 39
 -1.181190e+00 -1.323044e+01 -7.902064e+00 -5.441588e+00 -1.121235e+01 -1.459717e+01 -1.250180e+01 4.897320e+00 -2.684335e+00 -3.713397e+00 -1.283561e+00 -7.779667e-01 -1.849141e+00 -1.774088e+00 1.073920e+00 2.632945e+00 -9.605711e-04 -1.106803e+00 8.143102e-01 2.186215e+00 -1.121562e+00 -1.297695e+00 -2.667624e-02 1.461774e-01 -3.845677e-01 -4.733461e-01 -3.665823e-01 3.990962e-01 -7.547283e-02 -3.469770e-01 4.207048e-01 7.335473e-01 1.626892e-01 -4.625466e-01 -9.989929e-02 2.279656e-01 1.077851e-02 -1.879798e-01 -8.801544e-02
<VARIANCE> 39
 1.501230e+01 3.560530e+01 6.188172e+01 5.487643e+01 6.781914e+01 8.493696e+01 9.901131e+01 8.126047e+01 9.064679e+01 5.918464e+01 5.090993e+01 3.425702e+01 3.173329e+00 2.541944e+00 3.670298e+00 3.434259e+00 5.223632e+00 5.914277e+00 4.525978e+00 5.763165e+00 6.244889e+00 5.111645e+00 4.026207e+00 3.788326e+00 3.025129e+00 4.748562e-01 4.060291e-01 4.477194e-01 4.415763e-01 7.050054e-01 7.118671e-01 7.723191e-01 9.681152e-01 1.079339e+00 7.932943e-01 7.047219e-01 6.736997e-01 5.276273e-01 3.665233e-02
<GCONST> 1.293077e+02
<TRANSP> 5
 0.000000e+00 1.000000e+00 0.000000e+00 0.000000e+00 0.000000e+00
 0.000000e+00 5.534263e-01 4.465737e-01 0.000000e+00 0.000000e+00
 0.000000e+00 0.000000e+00 5.309813e-01 4.690187e-01 0.000000e+00
 0.000000e+00 0.000000e+00 0.000000e+00 3.961660e-01 6.038340e-01
 0.000000e+00 0.000000e+00 0.000000e+00 0.000000e+00 0.000000e+00
<ENDHMM>
~h "s"
<BEGINHMM>
<NUMSTATES> 5
<STATE> 2
<MEAN> 39
 -2.442698e+01 7.224405e-01 -5.240408e+00 -7.944445e+00 -9.914078e-01 -5.277200e+00 -1.933486e+00 9.078159e-01 -1.769637e+00 -1.554140e+00 -2.096478e+00 -5.083480e-01 -3.421396e+00 -4.290167e+00 9.776957e-01 -8.203132e-01 -3.341565e-02 1.642090e+00 1.168173e+00 1.110826e+00 9.964382e-01 3.505882e-01 3.270917e-01 9.130841e-01 6.210262e-01 1.917089e-01 8.563111e-01 -4.714005e-01 -9.144456e-02 -6.972147e-02 -5.041976e-01 -1.268021e-01 -3.773041e-01 -1.544867e-01 -8.135192e-02 8.928697e-02 -1.043735e-01 -1.334289e-01 8.010510e-02
<VARIANCE> 39
 3.911431e+01 2.322744e+01 3.744720e+01 3.285740e+01 3.308634e+01 3.495480e+01 3.177744e+01 2.931585e+01 2.465363e+01 2.346012e+01 1.863537e+01 1.533578e+01 1.830451e+00 4.449548e+00 2.930676e+00 3.385208e+00 4.073780e+00 3.529514e+00 4.097927e+00 3.925241e+00 3.538916e+00 3.585491e+00 3.505374e+00 2.960426e+00 2.223934e+00 2.173300e-01 7.635515e-01 5.170212e-01 5.719011e-01 6.644894e-01 6.153296e-01 7.128261e-01 7.188210e-01 6.662623e-01 5.466300e-01 5.434925e-01 5.123504e-01 4.464686e-01 4.708850e-02
<GCONST> 1.162967e+02
<STATE> 3
<MEAN> 39
 -3.004965e+01 1.833970e+00 -8.567039e+00 -7.276955e+00 4.749598e-01 -3.758239e+00 -7.038499e-01 1.825914e+00 -1.262359e+00 -3.900888e-01 -8.516912e-01 3.723671e-01 -2.656596e+00 -5.188010e-02 -9.479819e-02 -1.618308e-02 -6.803847e-02 -5.169791e-02 7.662726e-03 -3.326842e-02 1.732963e-02 6.798109e-02 4.362112e-02 3.005331e-03 2.297738e-03 -2.054800e-02 6.311024e-01 -1.938729e-01 2.349552e-01 -2.747967e-02 -2.365050e-01 -1.695566e-01 -1.778328e-01 -1.459505e-01 -2.469822e-02 -6.415574e-02 -1.142387e-01 -9.332662e-02 -9.720753e-02
<VARIANCE> 39
 6.922185e+00 1.838083e+01 3.047241e+01 3.718314e+01 3.174289e+01 2.709314e+01 2.399207e+01 2.075999e+01 1.599638e+01 1.481376e+01 1.319091e+01 1.110077e+01 1.757237e+00 8.222244e-01 1.126893e+00 1.179394e+00 1.247052e+00 1.365853e+00 1.517610e+00 1.401504e+00 1.410215e+00 1.359537e+00 1.269946e+00 1.151346e+00 1.030739e+00 7.503693e-02 3.607598e-01 2.151758e-01 2.543847e-01 3.025363e-01 3.130336e-01 3.488412e-01 3.391567e-01 3.324889e-01 3.089842e-01 2.929229e-01 2.662885e-01 2.295022e-01 1.735308e-02
<GCONST> 8.862044e+01
<STATE> 4
<MEAN> 39
 -2.422998e+01 -1.372237e+00 -5.228083e+00 -8.273723e+00 -1.780656e+00 -5.034512e+00 -3.090168e+00 8.405570e-01 -8.153939e-01 -6.386091e-01 -1.619298e+00 -5.708442e-01 -4.021028e+00 3.616612e+00 -1.052089e+00 8.285634e-01 1.814920e-01 -1.452706e+00 -5.864843e-01 -1.210995e+00 -9.456547e-01 -2.387207e-01 -4.893791e-02 -3.266352e-01 -4.949328e-01 -4.473480e-01 5.674677e-01 -1.890786e-01 -8.292367e-02 -6.737241e-03 -3.123936e-01 -9.859045e-03 -1.970816e-01 -9.831018e-02 -1.415333e-01 2.173702e-02 1.926129e-02 -6.403898e-02 5.301217e-02
<VARIANCE> 39
 4.539399e+01 2.713661e+01 3.684905e+01 3.141547e+01 3.683179e+01 4.001464e+01 3.642554e+01 2.949499e+01 2.452763e+01 2.221078e+01 1.871901e+01 1.649081e+01 3.633041e+00 5.314758e+00 2.910238e+00 3.735742e+00 4.839215e+00 4.534759e+00 5.172650e+00 5.028206e+00 3.595592e+00 3.348385e+00 2.802006e+00 2.872391e+00 2.228934e+00 7.190782e-01 9.000041e-01 5.462469e-01 5.974928e-01 6.914811e-01 7.013294e-01 7.717968e-01 8.634440e-01 6.898148e-01 5.770908e-01 5.044493e-01 5.149171e-01 4.036139e-01 1.040860e-01
<GCONST> 1.211010e+02
<TRANSP> 5
 0.000000e+00 1.000000e+00 0.000000e+00 0.000000e+00 0.000000e+00
 0.000000e+00 6.239234e-01 3.760766e-01 0.000000e+00 0.000000e+00
 0.000000e+00 0.000000e+00 8.259516e-01 1.740484e-01 0.000000e+00
 0.000000e+00 0.000000e+00 0.000000e+00 6.906071e-01 3.093929e-01
 0.000000e+00 0.000000e+00 0.000000e+00 0.000000e+00 0.000000e+00
<ENDHMM>
~h "t"
<BEGINHMM>
<NUMSTATES> 5
<STATE> 2
<MEAN> 39
 -1.952103e+01 -9.544613e-01 -4.211946e+00 -9.164482e-01 -2.421092e+00 -1.042715e+00 -2.504008e+00 -1.357661e+00 -2.243534e+00 -1.143717e+00 -1.339242e+00 -8.944488e-01 -9.730446e+00 -7.564709e-01 -1.482965e+00 -6.019148e-01 -1.095744e+00 6.379037e-02 4.049542e-01 4.374243e-01 6.109352e-01 6.023969e-01 5.056878e-01 6.190779e-01 4.781909e-01 2.656882e-01 2.668293e-01 -3.365262e-01 1.317259e-01 -8.682923e-01 -4.161170e-01 -5.348279e-01 -2.094487e-01 4.433695e-02 -6.766839e-02 -2.515199e-02 -1.526600e-02 3.166584e-02 6.294378e-01
<VARIANCE> 39
 1.656826e+01 1.540321e+01 1.660780e+01 1.622180e+01 1.400266e+01 1.506914e+01 1.713121e+01 1.738403e+01 1.778929e+01 1.658848e+01 1.516847e+01 1.269906e+01 2.390455e+00 4.022061e+00 3.581111e+00 3.385162e+00 5.402359e+00 3.314955e+00 3.454299e+00 3.170797e+00 3.182485e+00 3.177537e+00 2.596840e+00 2.277836e+00 1.957281e+00 1.459181e+00 5.023606e-01 7.074192e-01 5.743347e-01 7.180158e-01 5.608507e-01 5.371442e-01 5.548828e-01 5.582244e-01 5.270334e-01 4.804890e-01 4.390903e-01 3.643966e-01 1.000954e-01
<GCONST> 1.101900e+02
<STATE> 3
<MEAN> 39
 -2.116250e+01 -7.646391e+00 -5.076508e+00 -1.120901e+01 -4.003510e+00 -3.114632e+00 -2.262822e+00 6.751306e-01 -1.043519e+00 9.035122e-02 7.181398e-01 9.144449e-01 -4.077120e+00 -4.887820e-01 -2.437118e-01 6.932153e-02 -1.587303e+00 -6.477614e-01 -1.278874e+00 2.407811e-01 5.307076e-01 8.080413e-02 4.490233e-02 7.282367e-02 3.005799e-01 1.157308e+00 6.131268e-01 5.162268e-01 2.891701e-01 8.179290e-01 -1.680546e-01 -1.931635e-01 -1.063436e-01 -2.243165e-01 -2.925184e-01 -2.390306e-01 -4.129488e-01 -3.023553e-01 -3.011865e-01
<VARIANCE> 39
 2.330494e+01 3.459838e+01 3.101429e+01 2.673094e+01 2.820065e+01 2.951355e+01 2.795850e+01 2.444401e+01 2.209185e+01 2.069402e+01 1.744251e+01 1.545451e+01 2.227797e+00 3.079839e+00 2.996581e+00 2.763336e+00 4.109808e+00 2.648167e+00 2.933280e+00 3.094026e+00 2.673249e+00 2.807092e+00 2.337651e+00 2.094713e+00 1.876497e+00 7.382991e-01 6.161762e-01 6.663730e-01 7.347455e-01 7.534360e-01 7.252429e-01 7.626101e-01 6.992419e-01 6.464343e-01 6.428916e-01 5.781911e-01 5.052671e-01 4.430919e-01 1.213801e-01
<GCONST> 1.151629e+02
<STATE> 4
<MEAN> 39
 -1.857974e+01 -6.031536e+00 -3.254135e+00 -8.672997e+00 -5.422440e+00 -6.056722e+00 -1.269912e+00 3.805718e-01 -2.448667e+00 -1.175888e+00 -2.146566e+00 -3.410192e-01 -4.065359e+00 3.120008e+00 -3.706018e-01 8.202467e-01 4.221752e-01 -1.274152e+00 -7.340369e-01 -1.048645e+00 -6.291440e-01 -8.889195e-01 -6.229056e-01 -8.626471e-01 -8.301058e-01 1.759699e-01 6.848012e-01 -1.248208e-01 4.039008e-03 -8.801059e-02 -3.262997e-01 1.270000e-01 -5.143729e-01 -1.693531e-01 -1.972165e-01 -3.506980e-02 9.473413e-02 -1.734064e-01 2.741962e-02
<VARIANCE> 39
 4.058839e+01 2.643466e+01 3.275606e+01 2.423981e+01 2.676910e+01 2.806593e+01 3.606622e+01 3.327802e+01 2.796915e+01 2.527486e+01 2.303293e+01 1.823295e+01 1.864016e+00 3.858933e+00 2.729731e+00 4.369913e+00 4.021359e+00 4.491426e+00 4.571147e+00 5.221127e+00 3.902676e+00 3.860789e+00 3.185597e+00 3.433249e+00 2.445504e+00 3.508826e-01 7.168278e-01 4.935736e-01 5.336947e-01 6.904098e-01 5.971906e-01 7.222698e-01 8.007944e-01 7.385520e-01 6.233744e-01 5.858228e-01 5.827280e-01 4.606005e-01 9.468257e-02
<GCONST> 1.190322e+02
<TRANSP> 5
 0.000000e+00 1.000000e+00 0.000000e+00 0.000000e+00 0.000000e+00
 0.000000e+00 6.682088e-01 3.317912e-01 0.000000e+00 0.000000e+00
 0.000000e+00 0.000000e+00 5.998564e-01 4.001436e-01 0.000000e+00
 0.000000e+00 0.000000e+00 0.000000e+00 6.997159e-01 3.002841e-01
 0.000000e+00 0.000000e+00 0.000000e+00 0.000000e+00 0.000000e+00
<ENDHMM>
~h "v"
<BEGINHMM>
<NUMSTATES> 5
<STATE> 2
<MEAN> 39
 -6.235273e+00 -2.906696e+00 -6.503252e+00 -6.162910e+00 -5.207921e+00 -5.681411e+00 -9.222791e+00 -6.827954e+00 -5.335963e+00 -1.294015e+00 -1.425643e+00 -3.623921e+00 -4.636044e+00 -2.446212e+00 1.779073e+00 6.625413e-01 1.819524e+00 1.467790e+00 8.993350e-01 9.570983e-01 -3.638631e-01 -5.119051e-01 -8.983636e-01 -5.774289e-01 2.383188e-01 -9.291427e-01 -1.830291e-01 -6.247281e-01 7.485953e-02 -3.928101e-01 -4.110375e-01 -9.544365e-03 1.638525e-01 6.202452e-01 3.328071e-01 1.024999e-01 -9.763177e-02 -2.556861e-02 1.793665e-01
<VARIANCE> 39
 2.036535e+01 1.912626e+01 2.087974e+01 2.517244e+01 1.838596e+01 3.489676e+01 2.813593e+01 2.750533e+01 2.451294e+01 2.722153e+01 3.340616e+01 2.060406e+01 2.162298e+00 3.376460e+00 2.634032e+00 2.435188e+00 3.239665e+00 2.650508e+00 3.887950e+00 3.703334e+00 4.401985e+00 3.240092e+00 2.992107e+00 3.140456e+00 2.327673e+00 2.115863e-01 3.651436e-01 4.026983e-01 3.597243e-01 4.510272e-01 4.171136e-01 5.089763e-01 5.597612e-01 5.668381e-01 5.422879e-01 5.001066e-01 4.642929e-01 4.058124e-01 3.401079e-02
<GCONST> 1.101247e+02
<STATE> 3
<MEAN> 39
 -1.299546e+01 -1.163433e+00 -3.888722e+00 -2.731643e+00 -2.937916e+00 -3.446073e+00 -5.927183e+00 -5.056872e+00 -5.664833e+00 -3.559766e+00 -3.646713e+00 -3.389889e+00 -6.254977e+00 -1.667496e+00 -2.984234e-01 5.426142e-02 2.687677e-01 1.780109e-01 2.832651e-01 7.636950e-01 7.336632e-01 4.375601e-01 -5.750979e-02 -1.022242e-01 2.865713e-01 -1.867744e-01 9.205624e-01 -7.819229e-01 -3.941098e-01 -8.869466e-01 -7.010614e-01 -4.425735e-01 -3.257495e-01 2.481573e-01 2.876281e-01 4.146659e-01 2.754230e-01 4.737817e-02 4.082966e-01
<VARIANCE> 39
 3.869936e+01 1.958784e+01 2.048858e+01 2.493419e+01 1.941676e+01 2.510107e+01 2.714743e+01 2.528548e+01 2.400772e+01 2.386615e+01 2.364384e+01 1.822034e+01 2.674002e+00 4.699268e+00 2.118052e+00 1.917745e+00 2.711584e+00 2.032777e+00 2.791926e+00 2.567817e+00 2.613802e+00 2.271253e+00 2.276600e+00 2.212126e+00 1.702408e+00 3.398722e-01 6.400698e-01 5.593643e-01 5.404773e-01 6.188468e-01 5.242712e-01 6.767684e-01 6.827223e-01 8.355412e-01 6.538968e-01 5.751831e-01 5.141531e-01 4.325800e-01 4.558794e-02
<GCONST> 1.108520e+02
<STATE> 4
<MEAN> 39
 -1.298462e+01 -4.308311e+00 -6.563495e+00 -5.905035e+00 -5.137097e+00 -4.936578e+00 -5.423431e+00 -3.263224e+00 -3.425993e+00 -1.541643e+00 -2.049039e+00 -2.153609e+00 -5.383884e+00 1.024760e+00 -9.864134e-01 -4.506990e-01 -1.139938e+00 -9.350159e-01 -6.189401e-01 -3.203804e-01 4.822684e-01 4.779367e-01 4.510152e-01 3.905244e-01 1.857206e-01 5.143538e-01 6.696574e-01 -1.660517e-01 5.961827e-02 -2.893143e-01 -2.704213e-01 -1.298414e-01 -3.140459e-01 2.515280e-02 -5.567203e-02 3.406835e-02 6.197075e-03 -9.221319e-02 1.745978e-01
<VARIANCE> 39
 6.044597e+01 2.274839e+01 2.829067e+01 3.330455e+01 2.891270e+01 3.396587e+01 3.320035e+01 3.085664e+01 2.990584e+01 2.405797e+01 2.398143e+01 1.967269e+01 4.003025e+00 6.668400e+00 3.287579e+00 3.357460e+00 4.361918e+00 3.726151e+00 4.364262e+00 4.172794e+00 4.296788e+00 3.767955e+00 3.015656e+00 2.766449e+00 2.286018e+00 6.096891e-01 7.748446e-01 5.981558e-01 4.603951e-01 6.703568e-01 6.076987e-01 7.031539e-01 6.498457e-01 7.540635e-01 6.144771e-01 5.672117e-01 5.265995e-01 4.015536e-01 6.857456e-02
<GCONST> 1.201264e+02
<TRANSP> 5
 0.000000e+00 1.000000e+00 0.000000e+00 0.000000e+00 0.000000e+00
 0.000000e+00 4.265601e-01 5.734399e-01 0.000000e+00 0.000000e+00
 0.000000e+00 0.000000e+00 4.518079e-01 5.481921e-01 0.000000e+00
 0.000000e+00 0.000000e+00 0.000000e+00 4.375275e-01 5.624724e-01
 0.000000e+00 0.000000e+00 0.000000e+00 0.000000e+00 0.000000e+00
<ENDHMM>
~h "w"
<BEGINHMM>
<NUMSTATES> 5
<STATE> 2
<MEAN> 39
 -2.149644e+00 1.323812e+00 -7.728305e+00 -1.259306e+01 -1.153691e+01 -3.277201e+00 -4.277801e+00 -3.060045e+00 -7.169353e+00 -3.548726e+00 -2.497287e+00 -3.584526e+00 -4.691193e+00 2.556484e+00 4.953009e-01 -6.858834e-02 -2.349634e+00 -1.917841e+00 1.523193e-01 -4.120987e-01 -1.111826e-01 -9.955894e-01 -4.714306e-01 2.533756e-01 -2.502102e-01 9.859264e-01 -4.388351e-01 -7.321265e-01 -1.656051e-01 -7.983141e-02 1.653794e-01 1.885239e-01 -2.540374e-01 8.480019e-02 1.684884e-01 3.375640e-01 3.092985e-01 1.218837e-01 5.226927e-02
<VARIANCE> 39
 2.767982e+01 3.426114e+01 2.562171e+01 4.226079e+01 4.751274e+01 3.688289e+01 3.563914e+01 3.672243e+01 3.834572e+01 2.815516e+01 3.377379e+01 2.348219e+01 4.478113e+00 4.584041e+00 3.440606e+00 2.783637e+00 4.959802e+00 4.369447e+00 4.013597e+00 4.895950e+00 4.659627e+00 4.898932e+00 4.271468e+00 4.152609e+00 2.712879e+00 7.761195e-01 5.502405e-01 5.890104e-01 4.959923e-01 7.177080e-01 8.433641e-01 7.851868e-01 7.828361e-01 7.448009e-01 7.814091e-01 7.572430e-01 6.036044e-01 5.013446e-01 6.085619e-02
<GCONST> 1.242781e+02
<STATE> 3
<MEAN> 39
 1.826825e+00 -1.539935e+00 -9.330508e+00 -2.095705e+01 -1.622294e+01 6.262769e-01 -4.954730e+00 -1.860881e+00 -9.398842e+00 -4.355689e+00 2.694908e-01 -2.535494e+00 -1.843024e+00 2.055140e-01 -1.803942e+00 -8.935720e-01 -9.859619e-01 6.083001e-01 1.229450e+00 -9.366492e-01 -5.079302e-01 -3.470207e-01 7.869239e-01 1.272354e+00 4.638996e-01 5.581743e-01 -5.848085e-01 -4.874670e-01 1.916847e-02 8.805690e-01 7.318500e-01 -3.258946e-01 -3.952519e-01 -9.257326e-02 5.699077e-01 5.587083e-01 -5.018673e-02 -2.144236e-01 -1.421233e-01
<VARIANCE> 39
 6.285937e+00 2.720187e+01 3.114159e+01 4.476563e+01 5.008060e+01 5.753315e+01 5.214625e+01 5.984074e+01 5.870348e+01 4.781273e+01 5.697361e+01 3.652639e+01 1.340296e+00 9.293284e-01 2.611988e+00 1.835653e+00 3.138900e+00 4.480310e+00 3.923935e+00 4.884870e+00 4.025804e+00 3.440303e+00 4.888416e+00 3.903347e+00 2.783847e+00 1.854004e-01 3.752971e-01 3.033314e-01 3.471296e-01 6.145223e-01 5.941941e-01 8.062236e-01 6.939529e-01 7.766880e-01 9.409494e-01 7.308201e-01 6.998587e-01 6.225447e-01 4.006711e-02
<GCONST> 1.184560e+02
<STATE> 4
<MEAN> 39
 2.123273e-01 -9.252319e+00 -1.159844e+01 -1.783124e+01 -9.750024e+00 6.409352e-01 -1.194688e+01 -5.329054e+00 -7.665657e+00 3.124651e+00 3.877443e+00 -4.041495e+00 -8.184787e-01 -8.150193e-01 -2.232024e+00 3.479314e-01 1.735296e+00 9.584548e-01 -1.877805e+00 -2.059341e+00 8.137645e-01 2.488279e+00 1.562966e+00 -7.464404e-01 -1.339869e+00 2.509158e-01 -3.096480e-01 4.113767e-01 5.504421e-01 5.171331e-01 -4.225096e-01 -7.635111e-01 5.741606e-01 6.979911e-01 3.827093e-01 -7.510459e-01 -8.796935e-01 1.039585e-02 -1.841794e-01
<VARIANCE> 39
 8.964513e+00 2.628985e+01 3.484367e+01 5.726601e+01 5.390896e+01 7.664942e+01 7.625475e+01 6.399085e+01 6.928742e+01 6.771828e+01 9.359809e+01 4.471599e+01 1.295940e+00 5.350983e-01 1.430143e+00 2.162545e+00 2.440730e+00 3.506532e+00 4.094697e+00 4.270987e+00 4.982964e+00 3.421957e+00 4.625315e+00 4.363633e+00 2.908527e+00 5.762942e-02 2.450085e-01 2.926972e-01 3.135158e-01 6.366032e-01 7.650656e-01 8.282728e-01 9.842260e-01 7.042723e-01 1.036052e+00 9.877361e-01 8.622727e-01 7.887398e-01 2.372911e-02
<GCONST> 1.190042e+02
<TRANSP> 5
 0.000000e+00 1.000000e+00 0.000000e+00 0.000000e+00 0.000000e+00
 0.000000e+00 6.420912e-01 3.579088e-01 0.000000e+00 0.000000e+00
 0.000000e+00 0.000000e+00 6.389996e-01 3.610004e-01 0.000000e+00
 0.000000e+00 0.000000e+00 0.000000e+00 5.390926e-01 4.609074e-01
 0.000000e+00 0.000000e+00 0.000000e+00 0.000000e+00 0.000000e+00
<ENDHMM>
~h "y"
<BEGINHMM>
<NUMSTATES> 5
<STATE> 2
<MEAN> 39
 -1.036582e+01 -3.650614e+00 1.187634e+01 -9.137348e+00 -1.494220e+01 -7.036143e+00 -8.893754e+00 -5.275591e+00 -1.144957e+01 -5.395903e+00 -2.541133e+00 -3.304681e+00 -3.526857e+00 1.144652e+00 -2.926832e-01 2.220970e+00 -6.875264e-01 -1.959881e+00 -9.961496e-02 -1.229717e+00 4.383316e-02 -1.459005e+00 -7.003436e-01 3.201878e-01 -3.590825e-01 4.206799e-01 -1.782706e-01 -1.976189e-01 -8.645965e-01 1.570673e-01 3.297995e-01 -5.404438e-02 1.079932e-01 2.920853e-01 3.915367e-01 2.805071e-01 1.061775e-01 8.670085e-02 -2.599801e-02
<VARIANCE> 39
 2.209242e+01 3.338323e+01 3.272215e+01 8.439095e+01 3.900921e+01 4.758812e+01 3.932637e+01 5.121949e+01 3.938962e+01 4.384465e+01 5.194237e+01 2.501371e+01 1.894329e+00 5.061177e+00 2.613510e+00 3.417560e+00 5.046661e+00 4.553143e+00 5.701692e+00 5.337505e+00 4.000213e+00 4.469656e+00 5.363406e+00 3.707293e+00 2.546613e+00 1.996521e-01 4.480412e-01 4.329190e-01 4.568767e-01 7.036492e-01 7.211528e-01 8.056284e-01 7.314951e-01 6.796614e-01 5.823026e-01 5.721771e-01 4.597652e-01 3.411415e-01 2.503501e-02
<GCONST> 1.215036e+02
<STATE> 3
<MEAN> 39
 -9.580933e+00 -5.221099e+00 1.382645e+01 -1.090970e+01 -1.868764e+01 -7.120878e+00 -9.799861e+00 -5.096140e+00 -1.349616e+01 -4.020686e+00 -2.012428e+00 -3.865041e+00 -2.659673e+00 4.090990e-01 -6.622852e-01 -5.833791e-01 4.603528e-01 -6.389068e-01 -8.979834e-01 1.511064e-01 6.112243e-01 -2.092215e-01 1.169678e-01 5.067748e-01 1.110137e-01 1.765160e-01 3.867528e-02 -5.166780e-02 -5.613313e-01 2.011644e-01 3.407936e-01 -2.541654e-01 1.202395e-02 1.828565e-01 2.749085e-01 5.013560e-03 -3.865858e-02 1.010423e-01 -3.211043e-02
<VARIANCE> 39
 1.255848e+01 2.684394e+01 3.289042e+01 9.442924e+01 3.916299e+01 5.052760e+01 4.098244e+01 5.388576e+01 4.177424e+01 6.768977e+01 7.137298e+01 3.448393e+01 1.435709e+00 6.051593e-01 9.524115e-01 1.295384e+00 1.303862e+00 1.447066e+00 2.177747e+00 2.332173e+00 2.016993e+00 1.553631e+00 1.643238e+00 1.308849e+00 1.060506e+00 5.062939e-02 1.564425e-01 1.450064e-01 3.124549e-01 2.873099e-01 4.695677e-01 3.706852e-01 3.897648e-01 3.225457e-01 4.127610e-01 4.563411e-01 2.995837e-01 2.327087e-01 8.180804e-03
<GCONST> 9.874021e+01
<STATE> 4
<MEAN> 39
 -6.033740e+00 -9.612714e+00 6.823248e+00 -5.419170e+00 -1.900278e+01 -1.395177e+01 -1.075134e+01 1.630956e+00 -1.150354e+01 -6.452693e+00 1.268223e+00 -1.746741e+00 -1.950134e+00 8.985109e-01 -4.421234e-01 -2.577181e+00 3.905635e-01 1.555835e+00 -9.328333e-01 -1.510704e+00 9.576963e-01 1.779723e+00 1.224886e-01 -6.005632e-01 2.156056e-01 9.139233e-02 -4.914225e-02 3.359242e-01 -2.773181e-01 -3.977465e-01 5.728862e-01 7.968369e-01 -1.683396e-01 -6.799133e-01 3.631477e-01 4.646242e-01 -3.143540e-01 -3.068634e-01 -7.005557e-02
<VARIANCE> 39
 1.131929e+01 2.215228e+01 4.005173e+01 6.403119e+01 3.434125e+01 5.122070e+01 6.548910e+01 4.795858e+01 5.825254e+01 7.008325e+01 5.952694e+01 3.251212e+01 1.229035e+00 4.139065e-01 7.943470e-01 1.762829e+00 1.664349e+00 1.884349e+00 2.535241e+00 2.769576e+00 2.937670e+00 2.437626e+00 2.922185e+00 1.858199e+00 1.715711e+00 4.595713e-02 1.172930e-01 1.339487e-01 3.076397e-01 3.044519e-01 4.087086e-01 4.552874e-01 6.057703e-01 4.887208e-01 5.368793e-01 5.124810e-01 3.731982e-01 2.884913e-01 5.077229e-03
<GCONST> 1.021091e+02
<TRANSP> 5
 0.000000e+00 1.000000e+00 0.000000e+00 0.000000e+00 0.000000e+00
 0.000000e+00 6.104917e-01 3.895083e-01 0.000000e+00 0.000000e+00
 0.000000e+00 0.000000e+00 7.556974e-01 2.443026e-01 0.000000e+00
 0.000000e+00 0.000000e+00 0.000000e+00 5.931451e-01 4.068548e-01
 0.000000e+00 0.000000e+00 0.000000e+00 0.000000e+00 0.000000e+00
<ENDHMM>
~h "z"
<BEGINHMM>
<NUMSTATES> 5
<STATE> 2
<MEAN> 39
 -1.889316e+01 4.194471e+00 -2.358116e+00 -7.623297e+00 -2.897892e+00 -9.356141e+00 -7.858043e+00 -3.738562e+00 -3.715308e+00 -3.191376e+00 -4.272455e+00 -1.786266e+00 -3.660839e+00 -4.306459e+00 1.357528e+00 -6.869671e-01 9.533650e-02 2.302377e+00 1.615155e+00 1.625628e+00 1.278327e+00 6.251747e-01 2.392887e-01 6.107995e-01 4.056367e-01 -8.072685e-02 3.925578e-01 -8.487852e-01 -1.002390e-01 -5.312156e-02 -4.422111e-01 1.833317e-01 8.270010e-02 2.711283e-01 4.040740e-02 1.922079e-01 1.670061e-01 2.490010e-02 1.179225e-01
<VARIANCE> 39
 3.694540e+01 2.588760e+01 3.990406e+01 3.683257e+01 4.363408e+01 4.863445e+01 4.194630e+01 3.483600e+01 3.176215e+01 3.276012e+01 2.064096e+01 2.005090e+01 1.646441e+00 2.768708e+00 4.107544e+00 3.044171e+00 4.676448e+00 3.432216e+00 4.502033e+00 3.924473e+00 3.709186e+00 3.446485e+00 3.130821e+00 2.747465e+00 2.566774e+00 1.848488e-01 7.928196e-01 5.100969e-01 5.288780e-01 6.704707e-01 6.881520e-01 8.284177e-01 7.252616e-01 7.168081e-01 5.789123e-01 5.758423e-01 4.601736e-01 4.698274e-01 1.628419e-02
<GCONST> 1.174928e+02
<STATE> 3
<MEAN> 39
 -2.856296e+01 2.007762e+00 -6.191772e+00 -8.127228e+00 7.487519e-01 -4.191697e+00 -1.939934e+00 1.379649e+00 -1.197961e+00 -9.616254e-01 -1.394488e+00 -1.882580e-01 -3.311893e+00 -1.604697e-01 -6.946162e-01 -2.834457e-01 -1.027733e-01 -1.303737e-01 1.360807e-01 2.068215e-01 2.920454e-01 2.692737e-01 2.081926e-01 1.910816e-01 1.008254e-01 -5.400006e-02 1.095161e+00 -2.361451e-01 2.399485e-01 3.116232e-02 -4.772233e-01 -3.683062e-01 -4.473415e-01 -3.902492e-01 -1.511382e-01 -9.346993e-02 -1.849638e-01 -1.302760e-01 -1.042222e-01
<VARIANCE> 39
 1.219138e+01 2.493058e+01 4.047208e+01 3.778763e+01 3.143914e+01 3.342488e+01 3.597089e+01 2.503002e+01 2.079792e+01 1.847180e+01 1.557335e+01 1.329996e+01 1.761522e+00 3.082308e+00 1.649750e+00 1.927556e+00 1.804088e+00 2.138747e+00 2.699683e+00 2.593187e+00 2.244062e+00 2.009958e+00 1.776327e+00 1.583071e+00 1.332943e+00 1.438281e-01 5.824037e-01 3.447491e-01 3.884752e-01 4.868092e-01 5.100777e-01 5.871804e-01 5.658083e-01 4.784159e-01 4.296875e-01 3.892813e-01 3.567575e-01 3.030458e-01 3.087907e-02
<GCONST> 1.035311e+02
<STATE> 4
<MEAN> 39
 -2.017881e+01 -1.854955e+00 -4.474440e+00 -7.810558e+00 -3.207113e+00 -6.583935e+00 -5.384851e+00 -9.671607e-01 -1.097998e+00 -8.586121e-01 -2.281508e+00 -1.102848e+00 -4.753262e+00 3.118120e+00 -1.259890e+00 8.077771e-02 2.757976e-01 -1.347896e+00 -4.405102e-01 -7.695847e-01 -7.647728e-01 -3.025950e-01 3.969809e-02 -2.511199e-01 -2.736502e-01 -3.727737e-01 2.866350e-01 6.863904e-03 -8.426780e-02 -2.932619e-02 -1.165746e-01 6.338999e-02 -2.415472e-02 -1.852427e-02 -1.720227e-01 -3.134292e-02 3.896128e-03 -4.217329e-02 7.063387e-02
<VARIANCE> 39
 4.735828e+01 3.613256e+01 3.730467e+01 3.546936e+01 4.474627e+01 5.657528e+01 5.048792e+01 3.832059e+01 3.473461e+01 3.276446e+01 2.598424e+01 2.211803e+01 4.239856e+00 4.963472e+00 3.592719e+00 3.476983e+00 4.989230e+00 4.991283e+00 5.738046e+00 5.716275e+00 4.283636e+00 3.996889e+00 3.406301e+00 3.059918e+00 2.606854e+00 6.949651e-01 9.492087e-01 6.628021e-01 5.483453e-01 7.520995e-01 8.369876e-01 1.005149e+00 1.007285e+00 8.034490e-01 7.295916e-01 6.488263e-01 5.705779e-01 4.674857e-01 8.048932e-02
<GCONST> 1.268384e+02
<TRANSP> 5
 0.000000e+00 1.000000e+00 0.000000e+00 0.000000e+00 0.000000e+00
 0.000000e+00 6.465110e-01 3.534890e-01 0.000000e+00 0.000000e+00
 0.000000e+00 0.000000e+00 7.636493e-01 2.363507e-01 0.000000e+00
 0.000000e+00 0.000000e+00 0.000000e+00 6.306885e-01 3.693115e-01
 0.000000e+00 0.000000e+00 0.000000e+00 0.000000e+00 0.000000e+00
<ENDHMM>
~h "aa"
<BEGINHMM>
<NUMSTATES> 5
<STATE> 2
<MEAN> 39
 -1.399837e+00 -1.365533e+01 -1.338672e+01 -1.441179e+01 -7.237704e+00 -1.762253e+00 -7.414542e+00 2.905004e-01 -1.822245e+00 -1.538364e+00 -1.861909e+00 -5.044184e+00 -1.238955e+00 1.299511e+00 -1.225066e+00 -1.451469e+00 -1.178611e+00 4.576744e-01 9.683600e-01 -2.938552e-01 5.399581e-01 9.645335e-02 -1.867597e-01 3.344692e-01 -3.189974e-01 5.756131e-01 -5.729142e-01 3.305380e-01 2.781723e-01 3.545911e-01 2.061336e-01 -5.674399e-02 1.775724e-01 -9.900286e-02 -5.726073e-02 -8.012420e-03 4.648214e-02 1.396555e-01 -1.525010e-01
<VARIANCE> 39
 1.488719e+01 3.495179e+01 3.756077e+01 6.255420e+01 6.473622e+01 8.996172e+01 7.911237e+01 6.976520e+01 7.174529e+01 5.045728e+01 6.077562e+01 3.574459e+01 2.459764e+00 2.882141e+00 2.286778e+00 2.881663e+00 3.770432e+00 4.176586e+00 4.468182e+00 4.894035e+00 4.986302e+00 4.117044e+00 3.440585e+00 3.100783e+00 2.869189e+00 3.048553e-01 4.310006e-01 3.497875e-01 3.784879e-01 5.720494e-01 6.100654e-01 6.807812e-01 7.914516e-01 7.772254e-01 6.888905e-01 5.618410e-01 5.626211e-01 4.379192e-01 3.481110e-02
<GCONST> 1.233035e+02
<STATE> 3
<MEAN> 39
 -2.614987e-01 -1.495732e+01 -1.671368e+01 -1.590789e+01 -4.040194e+00 7.636093e-01 -6.973309e+00 4.682007e-01 -1.594102e+00 -2.713864e+00 -8.649257e-01 -4.965613e+00 -2.256509e-01 4.922318e-02 -2.449677e-02 -1.713201e-01 3.131352e-01 2.600313e-01 -3.834115e-01 -3.635532e-01 1.703972e-01 2.599611e-01 -6.389932e-03 -1.705970e-01 1.160234e-02 -1.233771e-02 -3.806001e-02 1.250717e-01 1.848739e-01 1.332182e-01 -1.711097e-01 -2.587520e-01 -8.660649e-02 7.792580e-03 1.989622e-02 5.044107e-02 -7.741107e-02 2.568843e-02 -5.213543e-02
<VARIANCE> 39
 1.221347e+01 3.206100e+01 3.372882e+01 6.327309e+01 6.180228e+01 1.002083e+02 9.919879e+01 9.071598e+01 8.377441e+01 4.902859e+01 5.707031e+01 4.039037e+01 9.244679e-01 2.193211e-01 6.180065e-01 8.098057e-01 1.126136e+00 1.413222e+00 1.841939e+00 1.854369e+00 1.600082e+00 1.486267e+00 1.361773e+00 1.243178e+00 1.174001e+00 1.621877e-02 4.420446e-02 1.041894e-01 1.260735e-01 1.650462e-01 2.057977e-01 2.330038e-01 2.667911e-01 2.610868e-01 2.557153e-01 2.295041e-01 2.135349e-01 1.977790e-01 3.434581e-03
<GCONST> 8.942074e+01
<STATE> 4
<MEAN> 39
 -1.089436e+00 -1.330568e+01 -1.418564e+01 -1.395218e+01 -5.451327e+00 -2.850382e+00 -8.634764e+00 2.925740e-01 -5.704257e-01 -1.534235e+00 -3.201359e+00 -5.598125e+00 -1.124440e+00 -3.592221e-01 1.448375e+00 1.338876e+00 1.451354e+00 -6.338418e-01 -1.678290e+00 -3.632897e-01 -1.910464e-01 -3.901193e-01 3.020242e-01 -3.443489e-01 3.552656e-01 -5.385280e-01 -2.727882e-01 4.351722e-01 3.936903e-01 4.008061e-01 -9.926814e-04 4.751770e-03 1.843989e-01 -3.887175e-01 -3.389314e-01 -4.929489e-02 2.295450e-02 1.542555e-01 -1.689664e-01
<VARIANCE> 39
 1.340216e+01 3.473705e+01 4.007215e+01 5.995166e+01 5.519065e+01 9.405542e+01 9.616901e+01 8.430708e+01 7.176805e+01 5.426487e+01 6.332541e+01 4.197351e+01 1.803273e+00 1.125969e+00 2.838230e+00 2.267855e+00 3.592235e+00 3.688260e+00 3.528144e+00 4.117535e+00 4.471737e+00 4.151777e+00 3.381572e+00 3.226559e+00 2.830860e+00 2.586989e-01 2.196512e-01 3.519808e-01 3.086101e-01 5.097538e-01 5.628252e-01 6.801357e-01 6.469742e-01 7.120062e-01 5.778368e-01 5.595956e-01 5.256366e-01 4.414225e-01 2.305528e-02
<GCONST> 1.196378e+02
<TRANSP> 5
 0.000000e+00 1.000000e+00 0.000000e+00 0.000000e+00 0.000000e+00
 0.000000e+00 7.060477e-01 2.939523e-01 0.000000e+00 0.000000e+00
 0.000000e+00 0.000000e+00 8.526893e-01 1.473107e-01 0.000000e+00
 0.000000e+00 0.000000e+00 0.000000e+00 5.862626e-01 4.137374e-01
 0.000000e+00 0.000000e+00 0.000000e+00 0.000000e+00 0.000000e+00
<ENDHMM>
~h "ae"
<BEGINHMM>
<NUMSTATES> 5
<STATE> 2
<MEAN> 39
 -5.575235e+00 -1.308639e+01 -4.743494e+00 -1.235057e+01 -1.419195e+01 -9.185085e+00 -4.290555e+00 3.250458e+00 -2.031071e+00 -2.165024e+00 -4.866683e+00 -3.744751e+00 -1.247151e+00 6.094961e-01 -1.609568e+00 -2.204682e-01 -7.452698e-01 -7.115106e-01 1.839966e-01 3.247353e-01 1.093429e+00 2.394406e-01 -4.032928e-01 -3.277431e-01 -2.426509e-01 4.658006e-01 -5.032583e-01 4.004630e-01 -1.259555e-02 3.015156e-01 4.967600e-01 3.558067e-01 1.743233e-01 -2.854082e-01 -8.032902e-02 6.864480e-03 1.279135e-01 6.959147e-02 -1.847817e-01
<VARIANCE> 39
 1.402021e+01 3.391047e+01 4.676052e+01 4.304787e+01 5.074620e+01 5.480760e+01 7.382999e+01 6.466338e+01 7.326649e+01 4.603901e+01 4.715492e+01 3.684962e+01 1.856826e+00 2.018164e+00 1.976930e+00 2.284950e+00 2.424965e+00 3.247422e+00 3.106606e+00 4.027750e+00 3.335849e+00 3.298912e+00 2.434517e+00 2.514491e+00 2.373866e+00 1.950014e-01 3.810528e-01 3.776025e-01 3.356477e-01 4.587855e-01 4.925276e-01 5.336896e-01 6.487705e-01 6.368122e-01 6.307760e-01 4.859514e-01 5.155611e-01 4.144192e-01 2.829000e-02
<GCONST> 1.159728e+02
<STATE> 3
<MEAN> 39
 -5.518506e+00 -1.645130e+01 -6.856449e+00 -1.259514e+01 -1.254916e+01 -6.528636e+00 -1.889821e+00 4.069019e+00 -1.564497e+00 -4.312000e+00 -5.861151e+00 -4.237916e+00 -4.656584e-01 5.317348e-02 -1.804606e-02 -1.505029e-01 1.132156e-01 1.712121e-01 3.715191e-02 -1.988791e-02 -3.246520e-02 -2.166462e-02 -6.201513e-02 -8.233288e-02 -4.865045e-02 -2.589521e-02 3.782921e-02 2.738833e-01 1.637571e-02 1.165731e-01 4.806601e-02 -1.038816e-01 -1.675428e-01 -1.903596e-01 -4.583040e-02 1.264397e-01 7.302982e-02 5.908448e-03 -6.885618e-02
<VARIANCE> 39
 1.250893e+01 3.249343e+01 4.305733e+01 3.563966e+01 5.503941e+01 5.651695e+01 6.395634e+01 6.527814e+01 8.508805e+01 4.273954e+01 4.167796e+01 4.405406e+01 1.137390e+00 2.967004e-01 6.563812e-01 9.195473e-01 8.744251e-01 1.277765e+00 1.347151e+00 1.642986e+00 1.466112e+00 1.305546e+00 1.296396e+00 1.153313e+00 1.029121e+00 2.338413e-02 6.109327e-02 1.372739e-01 1.486672e-01 1.833131e-01 2.239841e-01 2.148506e-01 2.721934e-01 3.088839e-01 2.511169e-01 2.191790e-01 2.161422e-01 1.989863e-01 6.425894e-03
<GCONST> 8.876583e+01
<STATE> 4
<MEAN> 39
 -4.419748e+00 -1.267833e+01 -7.374888e+00 -1.065600e+01 -1.158104e+01 -9.028164e+00 -5.200231e+00 2.713741e+00 -1.353305e+00 -2.119105e+00 -5.219589e+00 -4.398510e+00 -1.578972e+00 -6.223497e-01 2.272017e+00 5.464059e-01 1.415867e+00 7.967668e-01 -2.996232e-02 -3.743019e-01 -1.392776e+00 -6.182929e-01 3.911437e-01 5.525954e-01 2.803565e-01 -7.368841e-01 -5.884315e-01 3.841943e-01 1.792675e-01 2.868579e-01 3.167877e-01 3.215702e-01 2.297867e-01 -2.902745e-01 -1.685135e-01 -4.389761e-02 1.068536e-01 1.252989e-01 -1.578579e-01
<VARIANCE> 39
 1.336130e+01 3.765196e+01 4.462735e+01 4.186341e+01 4.681905e+01 6.042849e+01 8.089346e+01 7.363390e+01 7.771962e+01 5.670221e+01 5.348175e+01 4.402057e+01 2.199283e+00 3.263481e+00 3.160566e+00 2.869002e+00 3.131815e+00 4.027538e+00 4.456422e+00 5.017111e+00 5.550641e+00 4.779191e+00 3.642972e+00 3.624002e+00 3.396921e+00 2.775603e-01 4.657407e-01 5.304197e-01 4.517048e-01 5.110649e-01 6.010629e-01 7.460933e-01 7.705432e-01 9.980584e-01 8.213521e-01 6.786653e-01 6.559083e-01 5.036983e-01 3.874170e-02
<GCONST> 1.249714e+02
<TRANSP> 5
 0.000000e+00 1.000000e+00 0.000000e+00 0.000000e+00 0.000000e+00
 0.000000e+00 5.765114e-01 4.234886e-01 0.000000e+00 0.000000e+00
 0.000000e+00 0.000000e+00 8.376392e-01 1.623608e-01 0.000000e+00
 0.000000e+00 0.000000e+00 0.000000e+00 6.659330e-01 3.340670e-01
 0.000000e+00 0.000000e+00 0.000000e+00 0.000000e+00 0.000000e+00
<ENDHMM>
~h "ah"
<BEGINHMM>
<NUMSTATES> 5
<STATE> 2
<MEAN> 39
 -2.969980e+00 -1.178664e+01 -1.002024e+01 -1.665630e+01 -1.011334e+01 -3.545304e+00 -1.116480e+01 -1.827107e+00 -1.146757e-01 2.440925e+00 -2.274605e+00 -6.302307e+00 -3.626477e-01 8.407617e-01 -1.784419e+00 -3.611828e-01 -5.823207e-01 -4.439715e-01 6.667791e-02 -5.752142e-01 7.645392e-01 1.293191e+00 3.431970e-01 -6.907834e-01 -9.727873e-01 4.220720e-01 -6.664469e-01 5.276871e-01 1.791442e-01 4.197057e-01 3.290426e-01 7.487479e-02 6.555907e-01 9.267276e-02 -3.065215e-01 -3.891388e-01 -5.843899e-02 3.721552e-01 -2.149700e-01
<VARIANCE> 39
 1.123027e+01 2.434026e+01 3.455276e+01 4.640280e+01 5.413369e+01 9.044199e+01 6.828207e+01 6.519030e+01 6.052237e+01 6.262610e+01 9.586565e+01 4.581042e+01 8.353691e-01 3.629539e+00 1.938388e+00 2.629588e+00 7.668346e+00 4.571576e+00 7.411148e+00 5.299472e+00 4.822117e+00 3.641483e+00 4.130006e+00 4.768259e+00 3.401811e+00 1.929494e-01 5.361586e-01 3.647664e-01 4.101129e-01 5.516189e-01 9.126897e-01 1.016620e+00 8.061084e-01 8.283323e-01 6.879357e-01 7.166708e-01 9.388098e-01 6.197789e-01 2.278155e-02
<GCONST> 1.249555e+02
<STATE> 3
<MEAN> 39
 -3.235488e+00 -1.337084e+01 -1.137572e+01 -1.821699e+01 -7.889114e+00 -1.398849e+00 -8.864343e+00 -9.759969e-02 4.922561e-01 1.382070e-01 -3.901809e+00 -6.100280e+00 -1.681744e-01 1.459668e-02 5.445005e-03 2.627982e-01 3.548425e-01 -1.137926e-01 -4.739390e-01 -1.016034e-01 1.022551e-01 -3.083536e-03 -9.773679e-02 -2.121620e-01 1.104993e-01 -8.589807e-02 -1.962427e-02 4.486947e-01 2.409050e-01 2.122571e-01 -6.913536e-02 -1.556446e-01 4.752053e-03 -2.606341e-01 -3.441206e-01 -7.501905e-02 1.415330e-01 2.099730e-01 -1.253873e-01
<VARIANCE> 39
 1.146343e+01 2.658336e+01 2.607270e+01 5.620079e+01 6.057571e+01 8.835593e+01 7.446025e+01 6.754320e+01 6.441027e+01 6.690594e+01 8.715305e+01 5.279484e+01 1.012215e+00 4.258534e-01 8.243871e-01 1.270635e+00 2.388741e+00 2.193562e+00 3.528593e+00 2.282495e+00 2.223560e+00 2.031748e+00 2.173513e+00 2.489470e+00 1.905872e+00 3.884359e-02 8.756380e-02 2.325640e-01 1.722633e-01 3.070309e-01 3.286500e-01 3.675823e-01 4.755324e-01 4.971292e-01 4.426679e-01 4.168630e-01 3.825675e-01 3.847754e-01 1.394971e-02
<GCONST> 1.038704e+02
<STATE> 4
<MEAN> 39
 -2.393504e+00 -1.128560e+01 -7.945752e+00 -1.310794e+01 -1.069752e+01 -6.605762e+00 -1.170227e+01 -1.809153e+00 -1.106828e+00 1.190015e+00 -2.567172e+00 -4.801370e+00 -1.282077e+00 -7.437319e-01 2.524510e+00 1.571246e+00 2.604488e+00 6.722349e-01 -7.377443e-01 3.398308e-01 -1.439403e+00 -1.441103e+00 -1.089567e+00 -1.190179e-01 7.947057e-01 -9.791063e-01 -5.451381e-01 5.528798e-01 1.154151e-01 2.683893e-01 4.274205e-01 4.391457e-01 4.609091e-01 -2.059271e-01 -2.977184e-01 -2.586836e-01 -7.009270e-02 -1.455813e-04 -1.919463e-01
<VARIANCE> 39
 1.361872e+01 3.244110e+01 3.321643e+01 6.999399e+01 5.411940e+01 7.681978e+01 6.440845e+01 6.758890e+01 5.611308e+01 5.713481e+01 7.642410e+01 4.495169e+01 1.843445e+00 2.732441e+00 3.148208e+00 2.301420e+00 4.468804e+00 5.772433e+00 5.301416e+00 5.523021e+00 5.796358e+00 5.051386e+00 5.061755e+00 5.735340e+00 4.261600e+00 3.504051e-01 3.208072e-01 5.368380e-01 4.060071e-01 1.073155e+00 7.484171e-01 9.128084e-01 7.867573e-01 1.053235e+00 8.496784e-01 8.609901e-01 8.750604e-01 6.832078e-01 5.223768e-02
<GCONST> 1.288784e+02
<TRANSP> 5
 0.000000e+00 1.000000e+00 0.000000e+00 0.000000e+00 0.000000e+00
 0.000000e+00 4.136694e-01 5.863307e-01 0.000000e+00 0.000000e+00
 0.000000e+00 0.000000e+00 7.574849e-01 2.425150e-01 0.000000e+00
 0.000000e+00 0.000000e+00 0.000000e+00 5.608438e-01 4.391561e-01
 0.000000e+00 0.000000e+00 0.000000e+00 0.000000e+00 0.000000e+00
<ENDHMM>
~h "ao"
<BEGINHMM>
<NUMSTATES> 5
<STATE> 2
<MEAN> 39
 1.120719e+00 -5.204916e+00 -1.226894e+01 -2.003435e+01 -1.393649e+01 -8.023288e-01 -5.988016e+00 -2.022665e-01 -6.007862e+00 -2.688647e+00 6.117603e-01 -3.175024e+00 -1.216265e+00 1.461836e+00 -2.742091e-01 -7.214815e-01 -2.015425e+00 -1.163803e+00 7.289402e-01 -4.783736e-03 4.169439e-01 -4.290352e-01 -1.929359e-01 5.967547e-01 9.484857e-02 5.938889e-01 -7.917396e-01 -2.138360e-01 2.642694e-02 6.496997e-01 6.873266e-01 -1.747189e-02 1.213622e-01 -1.247248e-02 1.666712e-01 6.013367e-02 -2.543425e-02 1.888152e-01 -1.835694e-01
<VARIANCE> 39
 1.266092e+01 5.605133e+01 3.567854e+01 5.862440e+01 7.670327e+01 6.032274e+01 7.071182e+01 6.586534e+01 6.583733e+01 6.043252e+01 6.738754e+01 3.757630e+01 1.265057e+00 3.600619e+00 2.614024e+00 2.730740e+00 4.173936e+00 6.170580e+00 4.230967e+00 4.644449e+00 4.453718e+00 4.247532e+00 4.068913e+00 3.196013e+00 2.992351e+00 2.350869e-01 4.506922e-01 5.146365e-01 3.905239e-01 5.899820e-01 7.128133e-01 5.475084e-01 6.981836e-01 7.415021e-01 7.543717e-01 6.346579e-01 6.276500e-01 4.562940e-01 2.486695e-02
<GCONST> 1.235516e+02
<STATE> 3
<MEAN> 39
 6.281304e-01 -8.421561e+00 -1.481770e+01 -2.246607e+01 -1.074323e+01 3.080146e+00 -3.863379e+00 -9.597155e-01 -4.730263e+00 -2.886194e+00 9.615660e-01 -3.108111e+00 -2.895248e-01 1.533260e-02 -2.003139e-01 -2.991926e-01 1.258466e-01 4.202292e-01 4.877123e-02 -6.230872e-02 -9.543992e-02 -2.155864e-02 5.115462e-02 1.153592e-01 1.614462e-01 1.029970e-02 -2.390956e-02 -1.961759e-02 2.128410e-02 2.631800e-01 1.080548e-01 -2.063522e-01 -2.010632e-01 -2.456259e-02 3.642796e-02 6.576806e-02 -3.574592e-03 -8.625086e-03 -3.905696e-02
<VARIANCE> 39
 1.271235e+01 5.391801e+01 3.906018e+01 6.018659e+01 1.064175e+02 8.027156e+01 7.493279e+01 7.353757e+01 7.133408e+01 6.611036e+01 7.016485e+01 4.299519e+01 9.115866e-01 2.045771e-01 8.902169e-01 9.197258e-01 1.359048e+00 1.621532e+00 1.639896e+00 1.988847e+00 1.625099e+00 1.587896e+00 1.536424e+00 1.582338e+00 1.462217e+00 1.888550e-02 3.749015e-02 1.082264e-01 1.338833e-01 1.807843e-01 2.622126e-01 2.393665e-01 2.976129e-01 2.720840e-01 2.793582e-01 2.663519e-01 2.442189e-01 2.460599e-01 3.108065e-03
<GCONST> 9.275328e+01
<STATE> 4
<MEAN> 39
 1.633722e+00 -9.434258e+00 -1.714028e+01 -1.722020e+01 -8.026836e+00 -1.329968e+00 -9.200260e+00 3.651541e-01 -5.694978e+00 -1.525804e+00 3.457284e+00 -1.437273e+00 -7.236646e-01 -2.033591e-01 -3.533078e-01 -8.115837e-02 2.024511e+00 1.370044e+00 -1.412937e+00 -1.879920e+00 -1.475986e-01 8.945666e-01 7.167285e-01 -4.050725e-01 -2.175252e-01 -2.486387e-01 -2.173135e-01 2.210887e-01 4.510433e-01 2.938438e-01 -1.734735e-01 -2.382294e-01 1.389259e-02 -4.480727e-04 2.438985e-01 -9.059881e-02 -4.216765e-01 -1.432600e-01 -1.072445e-01
<VARIANCE> 39
 1.386993e+01 3.156369e+01 3.937080e+01 5.453045e+01 6.635767e+01 6.233183e+01 9.802398e+01 8.868397e+01 9.086722e+01 8.484119e+01 8.105508e+01 5.598203e+01 1.125728e+00 6.282885e-01 2.960119e+00 2.881840e+00 2.478269e+00 4.157152e+00 3.159184e+00 4.505018e+00 3.773503e+00 4.571189e+00 4.270162e+00 3.922889e+00 3.651335e+00 1.429649e-01 1.559622e-01 2.414546e-01 2.674013e-01 4.176995e-01 5.588819e-01 5.818142e-01 7.757177e-01 6.378241e-01 7.502079e-01 8.192165e-01 7.015771e-01 6.894422e-01 1.641739e-02
<GCONST> 1.193795e+02
<TRANSP> 5
 0.000000e+00 1.000000e+00 0.000000e+00 0.000000e+00 0.000000e+00
 0.000000e+00 6.829655e-01 3.170345e-01 0.000000e+00 0.000000e+00
 0.000000e+00 0.000000e+00 8.536993e-01 1.463007e-01 0.000000e+00
 0.000000e+00 0.000000e+00 0.000000e+00 6.917137e-01 3.082863e-01
 0.000000e+00 0.000000e+00 0.000000e+00 0.000000e+00 0.000000e+00
<ENDHMM>
~h "aw"
<BEGINHMM>
<NUMSTATES> 5
<STATE> 2
<MEAN> 39
 -4.035906e+00 -1.661108e+01 -1.070042e+01 -1.317400e+01 -7.542932e+00 -3.756855e+00 -4.086052e+00 -1.777800e-01 -2.003984e-01 -3.801708e+00 -6.277993e+00 -5.776131e+00 -5.106239e-01 6.013234e-01 -1.334293e+00 -7.801896e-01 -1.166068e+00 1.789660e-01 1.055969e+00 -2.640967e-01 2.379022e-01 4.450951e-01 -1.003027e-01 -1.068707e-01 -5.325428e-01 4.972245e-01 -5.280952e-01 3.954109e-01 7.694423e-02 3.220208e-01 3.118417e-01 1.928673e-01 1.762632e-01 -1.898667e-01 -1.689666e-01 4.439887e-02 2.050030e-01 2.332788e-01 -2.370203e-01
<VARIANCE> 39
 1.297773e+01 2.869097e+01 3.962219e+01 4.085051e+01 7.273259e+01 7.531785e+01 6.534954e+01 6.911295e+01 7.506870e+01 5.115994e+01 4.382598e+01 4.443657e+01 8.671069e-01 1.439970e+00 1.939516e+00 1.650833e+00 2.488642e+00 3.587363e+00 2.641682e+00 3.612848e+00 3.841245e+00 2.738199e+00 2.405385e+00 2.523475e+00 2.281965e+00 1.545675e-01 3.417085e-01 2.967435e-01 2.995592e-01 3.830910e-01 5.719629e-01 4.993121e-01 5.779305e-01 6.322455e-01 5.442076e-01 4.770411e-01 4.243790e-01 4.100865e-01 2.202260e-02
<GCONST> 1.131568e+02
<STATE> 3
<MEAN> 39
 -2.657561e+00 -1.653696e+01 -1.366422e+01 -1.428242e+01 -5.394662e+00 1.906135e-01 -4.479301e+00 -1.578072e+00 -8.434021e-01 -2.867290e+00 -4.250943e+00 -6.490057e+00 -3.650285e-01 3.407417e-01 4.276996e-01 -4.025834e-01 -4.966425e-01 8.076341e-02 5.489076e-01 -1.916198e-01 -3.306757e-01 -3.423035e-01 2.175610e-01 5.747565e-01 3.127073e-02 -1.794520e-02 1.204587e-02 2.262992e-01 8.007789e-02 6.879353e-02 -1.419820e-01 -1.873246e-01 5.384510e-03 7.925847e-03 -1.059421e-01 9.798002e-03 6.361759e-02 8.959076e-02 -5.328205e-02
<VARIANCE> 39
 1.493878e+01 3.338253e+01 3.879619e+01 4.868624e+01 6.696684e+01 8.333521e+01 7.747401e+01 6.784419e+01 7.493616e+01 4.846210e+01 5.829137e+01 4.504264e+01 1.052650e+00 2.597272e-01 8.226143e-01 7.385190e-01 1.144635e+00 1.674742e+00 1.574283e+00 1.629220e+00 1.592097e+00 1.444240e+00 1.403324e+00 1.455193e+00 1.564350e+00 1.737809e-02 5.046234e-02 1.221392e-01 1.288312e-01 2.004174e-01 2.205415e-01 2.444466e-01 2.689718e-01 2.664035e-01 2.624115e-01 2.352452e-01 2.208897e-01 2.290171e-01 6.628362e-03
<GCONST> 9.134915e+01
<STATE> 4
<MEAN> 39
 -5.178893e-01 -1.013878e+01 -1.458617e+01 -1.841248e+01 -7.238574e+00 1.720286e+00 -5.230910e+00 -3.796758e+00 -4.116754e+00 -1.658939e+00 -3.181562e-01 -4.983899e+00 -9.160034e-01 -4.260061e-01 1.970386e+00 1.031748e+00 1.271235e+00 -4.640457e-01 -1.331841e+00 4.618564e-02 -4.309571e-01 -1.241202e+00 9.130274e-02 2.921823e-01 4.878034e-01 -5.264395e-01 -5.179946e-01 5.546265e-02 4.079227e-01 7.834700e-01 3.278237e-01 -3.666832e-01 -1.444175e-02 -1.182073e-01 -6.784404e-02 -3.770511e-02 -2.385252e-01 -1.962526e-02 -1.296945e-01
<VARIANCE> 39
 1.197244e+01 3.933545e+01 3.002743e+01 4.883974e+01 6.164716e+01 8.000512e+01 7.563876e+01 6.537791e+01 6.280082e+01 5.610857e+01 7.044090e+01 4.229874e+01 1.821983e+00 2.313739e+00 2.004584e+00 2.940189e+00 4.633428e+00 4.201969e+00 3.637716e+00 3.637606e+00 4.720665e+00 4.634096e+00 4.011534e+00 4.045849e+00 3.266614e+00 1.852465e-01 3.142750e-01 3.567306e-01 3.915031e-01 4.935195e-01 5.406471e-01 5.900031e-01 5.952761e-01 7.275018e-01 6.898012e-01 5.836982e-01 5.626019e-01 4.781715e-01 2.431982e-02
<GCONST> 1.206824e+02
<TRANSP> 5
 0.000000e+00 1.000000e+00 0.000000e+00 0.000000e+00 0.000000e+00
 0.000000e+00 6.424820e-01 3.575180e-01 0.000000e+00 0.000000e+00
 0.000000e+00 0.000000e+00 8.630300e-01 1.369700e-01 0.000000e+00
 0.000000e+00 0.000000e+00 0.000000e+00 7.016048e-01 2.983952e-01
 0.000000e+00 0.000000e+00 0.000000e+00 0.000000e+00 0.000000e+00
<ENDHMM>
~h "ax"
<BEGINHMM>
<NUMSTATES> 5
<STATE> 2
<MEAN> 39
 -4.648546e+00 -1.031970e+01 -3.574397e+00 -1.279985e+01 -1.267123e+01 -9.112154e+00 -1.035411e+01 -8.035006e-02 -2.670494e+00 -8.580731e-01 -3.326238e+00 -3.417911e+00 -1.778942e+00 8.195086e-01 -3.728957e-01 -6.046605e-02 -3.492153e-01 -2.597017e-01 -1.035537e-01 -4.631926e-01 1.014019e-01 8.722844e-03 1.285123e-01 -1.584062e-01 -1.409000e-01 1.300899e-01 -5.584245e-01 5.877041e-01 -5.079102e-02 4.932496e-01 5.008783e-01 2.502922e-01 4.127568e-01 -3.209980e-01 -1.888699e-01 -4.301471e-02 4.367850e-02 5.199542e-02 -2.219738e-01
<VARIANCE> 39
 1.651732e+01 3.339000e+01 6.202378e+01 5.719959e+01 5.820913e+01 7.064324e+01 7.115977e+01 6.227971e+01 6.582162e+01 5.481472e+01 6.149899e+01 4.106987e+01 1.609147e+00 2.615819e+00 2.134855e+00 2.394485e+00 2.848766e+00 3.402359e+00 3.194192e+00 3.492066e+00 3.710947e+00 3.511422e+00 2.791154e+00 2.889410e+00 2.277910e+00 1.864662e-01 5.696955e-01 3.986527e-01 4.108371e-01 5.720592e-01 6.309693e-01 7.167413e-01 8.270410e-01 7.693037e-01 7.013643e-01 6.018435e-01 5.962254e-01 4.816049e-01 3.644605e-02
<GCONST> 1.208597e+02
<STATE> 3
<MEAN> 39
 -4.072333e+00 -8.983388e+00 -2.943453e+00 -1.150417e+01 -1.203205e+01 -9.477881e+00 -1.161948e+01 -1.498730e+00 -3.832134e+00 -7.264211e-01 -2.764213e+00 -3.079102e+00 -2.207804e+00 -4.652834e-01 1.798329e+00 -1.856754e-02 1.364626e+00 1.125964e+00 2.779356e-01 8.249195e-01 -1.059402e+00 -6.356359e-01 -3.123215e-01 -1.980898e-01 -1.303296e-02 -5.672063e-01 -9.060377e-01 7.235183e-01 -6.858127e-02 5.885221e-01 6.457348e-01 4.350091e-01 6.526559e-01 -2.285224e-01 -8.244630e-02 -1.472611e-01 -2.543640e-02 3.535241e-02 -2.846678e-01
<VARIANCE> 39
 1.843978e+01 3.043926e+01 5.895451e+01 5.678705e+01 5.309025e+01 7.596793e+01 6.800111e+01 6.577462e+01 6.603693e+01 5.550297e+01 6.397505e+01 4.083323e+01 1.484721e+00 2.027420e+00 2.453089e+00 2.818733e+00 3.766393e+00 3.953708e+00 3.660103e+00 4.215532e+00 4.160862e+00 4.173427e+00 3.674742e+00 3.401233e+00 2.895199e+00 2.307627e-01 6.670794e-01 4.773116e-01 5.696256e-01 7.314643e-01 7.611358e-01 9.881537e-01 9.553232e-01 1.065726e+00 9.628643e-01 8.051804e-01 8.277721e-01 6.370770e-01 4.787945e-02
<GCONST> 1.261354e+02
<STATE> 4
<MEAN> 39
 -6.265563e+00 -3.598554e+00 -3.397896e+00 -7.490322e+00 -8.532027e+00 -8.661370e+00 -8.467914e+00 -3.974575e+00 -4.547503e+00 -2.059748e+00 -3.633633e+00 -3.090020e+00 -3.851180e+00 -1.926077e+00 2.143515e+00 -2.097814e-02 1.817766e+00 1.828509e+00 1.154554e+00 1.447125e+00 -8.260230e-01 -5.251652e-01 -3.513631e-01 -1.866421e-01 -2.541220e-02 -9.020845e-01 -6.075714e-01 -2.619100e-01 -1.136473e-01 -1.554322e-01 5.527888e-02 2.767663e-01 1.960912e-01 2.718593e-01 1.453244e-01 1.245957e-01 1.423160e-01 1.002776e-01 -6.799572e-03
<VARIANCE> 39
 2.562905e+01 3.384106e+01 4.813478e+01 5.225367e+01 5.176535e+01 6.149419e+01 5.198414e+01 5.443137e+01 6.022841e+01 5.165828e+01 4.748625e+01 3.422874e+01 3.314538e+00 4.782609e+00 3.463141e+00 3.666454e+00 5.269105e+00 4.853227e+00 5.460068e+00 5.477332e+00 5.883616e+00 5.162393e+00 4.404863e+00 4.312191e+00 3.683132e+00 5.286142e-01 5.363365e-01 5.577121e-01 4.740114e-01 5.979906e-01 6.188263e-01 7.307965e-01 6.817483e-01 7.992747e-01 7.820172e-01 7.035066e-01 5.915460e-01 4.851156e-01 4.459411e-02
<GCONST> 1.278665e+02
<TRANSP> 5
 0.000000e+00 1.000000e+00 0.000000e+00 0.000000e+00 0.000000e+00
 0.000000e+00 5.845928e-01 4.154072e-01 0.000000e+00 0.000000e+00
 0.000000e+00 0.000000e+00 2.935621e-01 7.064379e-01 0.000000e+00
 0.000000e+00 0.000000e+00 0.000000e+00 2.676181e-01 7.323819e-01
 0.000000e+00 0.000000e+00 0.000000e+00 0.000000e+00 0.000000e+00
<ENDHMM>
~h "ay"
<BEGINHMM>
<NUMSTATES> 5
<STATE> 2
<MEAN> 39
 -2.008797e+00 -1.495714e+01 -1.370995e+01 -1.675168e+01 -6.124969e+00 1.031024e+00 -5.521348e+00 -2.285814e+00 -1.119045e+00 -5.891129e-01 -3.575438e+00 -6.893303e+00 -4.318923e-01 8.214983e-01 -1.781767e+00 -6.602036e-01 -9.399895e-01 3.593409e-01 9.877061e-01 -2.820096e-01 1.064189e-01 4.978266e-01 -1.413900e-01 -4.665161e-01 -7.782464e-01 5.287566e-01 -7.520026e-01 3.815502e-01 4.185398e-01 6.772996e-01 1.815196e-01 -2.866411e-01 9.327956e-02 6.363181e-02 4.243862e-03 -1.481624e-01 -2.464932e-02 3.262611e-01 -2.328198e-01
<VARIANCE> 39
 1.205812e+01 2.928044e+01 3.073285e+01 4.927885e+01 5.265053e+01 7.619460e+01 6.403416e+01 5.874327e+01 6.093846e+01 4.976854e+01 7.321085e+01 4.025866e+01 1.035335e+00 3.646290e+00 2.018555e+00 2.569587e+00 4.228522e+00 3.429049e+00 3.745433e+00 3.704341e+00 3.841857e+00 3.244678e+00 2.722846e+00 3.184456e+00 3.166445e+00 2.798205e-01 6.116087e-01 3.296356e-01 3.441427e-01 5.754672e-01 5.595257e-01 6.008536e-01 6.402047e-01 7.346734e-01 5.843083e-01 4.828726e-01 6.807557e-01 4.454507e-01 3.156075e-02
<GCONST> 1.192634e+02
<STATE> 3
<MEAN> 39
 -3.267823e+00 -1.760007e+01 -1.292821e+01 -1.433124e+01 -4.757649e+00 -1.466335e-01 -5.509094e+00 -5.979881e-01 4.494896e-01 -3.083861e+00 -5.617449e+00 -6.834161e+00 -2.307876e-01 -1.680840e-01 -3.054488e-02 5.780795e-01 4.402877e-01 -5.394118e-01 -8.000479e-01 3.245824e-02 6.218960e-01 4.844150e-02 -2.901292e-01 -2.054814e-01 2.331902e-01 -5.382787e-02 1.499531e-02 1.695127e-01 1.154667e-01 -1.456050e-02 -2.014239e-01 -1.407922e-01 3.128812e-03 2.751818e-02 -1.114005e-01 5.826896e-02 1.100089e-01 7.843316e-02 -2.817955e-02
<VARIANCE> 39
 1.047803e+01 2.984281e+01 3.458716e+01 4.046714e+01 6.322707e+01 8.518723e+01 7.814392e+01 7.161395e+01 6.762039e+01 4.906783e+01 5.138776e+01 5.093633e+01 8.468110e-01 1.866864e-01 5.554743e-01 7.994093e-01 8.929476e-01 1.563506e+00 1.519217e+00 1.535329e+00 1.593306e+00 1.221224e+00 1.062864e+00 1.191801e+00 1.109512e+00 1.115306e-02 3.188160e-02 7.977172e-02 9.518427e-02 1.280617e-01 1.793658e-01 1.916119e-01 2.198503e-01 2.443577e-01 2.040793e-01 1.793053e-01 1.958325e-01 1.853014e-01 2.123929e-03
<GCONST> 8.344443e+01
<STATE> 4
<MEAN> 39
 -4.709459e+00 -1.363604e+01 -3.678626e+00 -1.225928e+01 -1.445244e+01 -8.796766e+00 -5.414045e+00 3.243792e+00 -3.286364e+00 -2.935272e+00 -3.983948e+00 -3.513919e+00 -1.294336e+00 -1.588582e-01 1.925902e+00 1.040834e+00 7.392857e-01 -3.347572e-01 -6.252825e-01 -3.233100e-01 -1.168921e+00 -1.074508e+00 4.121105e-01 6.901003e-01 2.546108e-01 -4.699204e-01 -1.651988e-01 3.739747e-01 -2.707386e-01 2.765365e-01 6.368068e-01 3.555124e-01 4.100149e-02 -4.896452e-01 -6.879191e-02 -3.002878e-02 -8.170278e-02 -1.129765e-01 -1.240777e-01
<VARIANCE> 39
 1.407555e+01 3.585149e+01 5.523312e+01 4.452683e+01 5.261543e+01 6.378619e+01 6.865716e+01 6.741739e+01 7.660310e+01 4.769386e+01 5.364844e+01 3.563741e+01 1.516970e+00 1.122362e+00 1.993347e+00 2.561229e+00 3.572001e+00 5.424368e+00 3.637511e+00 4.047649e+00 4.353984e+00 3.791296e+00 3.113928e+00 3.048140e+00 2.894315e+00 1.707056e-01 3.061312e-01 2.714995e-01 3.750129e-01 5.181540e-01 5.574966e-01 5.837082e-01 7.017003e-01 7.115366e-01 6.541485e-01 5.507582e-01 5.800808e-01 4.223655e-01 1.822925e-02
<GCONST> 1.178165e+02
<TRANSP> 5
 0.000000e+00 1.000000e+00 0.000000e+00 0.000000e+00 0.000000e+00
 0.000000e+00 7.037736e-01 2.962264e-01 0.000000e+00 0.000000e+00
 0.000000e+00 0.000000e+00 8.952332e-01 1.047668e-01 0.000000e+00
 0.000000e+00 0.000000e+00 0.000000e+00 7.853510e-01 2.146490e-01
 0.000000e+00 0.000000e+00 0.000000e+00 0.000000e+00 0.000000e+00
<ENDHMM>
~h "ch"
<BEGINHMM>
<NUMSTATES> 5
<STATE> 2
<MEAN> 39
 -2.812720e+01 -6.976048e+00 4.356783e-01 -1.079067e+01 -4.486343e+00 9.850262e-01 -2.596659e+00 -5.102893e-01 3.037895e-01 -8.605123e-01 5.044916e-01 -1.815423e-01 -3.350530e+00 -1.883046e+00 5.768815e-01 9.902700e-01 -2.936003e-01 -6.660592e-01 -1.207258e-01 8.565880e-01 1.740611e-01 1.458640e-01 7.189301e-02 2.971289e-01 4.251030e-02 9.529638e-01 7.835419e-01 3.015828e-01 4.464764e-04 6.632389e-01 -1.628941e-01 -4.648952e-01 -1.621404e-02 -8.983045e-02 -3.236427e-01 -1.616020e-01 -2.342263e-01 -1.167418e-01 -2.666351e-01
<VARIANCE> 39
 2.301028e+01 3.726112e+01 3.226054e+01 3.128498e+01 3.583754e+01 2.278353e+01 2.260291e+01 2.036353e+01 1.594342e+01 1.443367e+01 1.057834e+01 9.519805e+00 2.730952e+00 2.606022e+00 2.732365e+00 2.525812e+00 2.963598e+00 2.150475e+00 2.494255e+00 2.094525e+00 1.888677e+00 1.682054e+00 1.520803e+00 1.343508e+00 1.166001e+00 3.785038e-01 6.327012e-01 8.821347e-01 6.020558e-01 5.835764e-01 5.461077e-01 4.836429e-01 4.911977e-01 4.675854e-01 3.788999e-01 3.522076e-01 2.952699e-01 2.557664e-01 6.406154e-02
<GCONST> 1.049109e+02
<STATE> 3
<MEAN> 39
 -2.826791e+01 -8.213174e+00 2.295478e+00 -7.742178e+00 -9.367846e+00 -2.141862e+00 8.971480e-01 -8.287133e-01 -5.201531e-01 -1.090739e+00 5.815010e-01 -4.966217e-01 -2.509261e+00 1.721770e+00 -5.247095e-01 -5.529273e-01 6.944202e-01 -6.710368e-01 -1.522214e+00 2.720213e-02 3.241003e-01 -4.055427e-01 -3.284028e-01 -2.853438e-01 -1.677493e-01 -1.392632e-01 1.087512e+00 -1.462317e-01 -4.090866e-01 2.611322e-02 2.571309e-01 -1.855619e-01 -5.405202e-01 7.408209e-02 -4.127041e-02 -1.483703e-01 -2.150518e-01 -6.613223e-02 -1.689966e-01
<VARIANCE> 39
 1.454520e+01 1.996458e+01 2.374232e+01 2.958916e+01 2.547206e+01 2.742314e+01 2.306567e+01 2.013572e+01 1.842131e+01 1.744672e+01 1.341966e+01 1.233054e+01 1.792214e+00 2.873321e+00 1.250776e+00 1.841571e+00 1.806038e+00 2.277954e+00 2.245445e+00 2.202719e+00 2.066964e+00 1.785358e+00 1.673991e+00 1.471095e+00 1.268317e+00 1.872299e-01 5.167818e-01 2.969674e-01 3.904901e-01 3.594235e-01 4.417323e-01 4.772171e-01 4.934292e-01 4.152264e-01 4.046561e-01 3.475194e-01 3.384779e-01 2.888742e-01 4.249864e-02
<GCONST> 9.930486e+01
<STATE> 4
<MEAN> 39
 -1.600102e+01 -1.047090e+01 -3.202171e+00 -4.460339e+00 -8.248595e+00 -8.497606e+00 -3.243863e+00 9.984568e-01 -1.011384e+00 -3.040479e+00 -2.042234e+00 -1.449517e+00 -3.701432e+00 4.862945e+00 -6.430742e-01 -1.621127e+00 -2.802256e-01 3.614728e-01 -1.266446e+00 -2.329057e+00 4.383260e-01 -2.214623e-01 -5.038937e-01 -7.336652e-01 -3.765359e-01 2.032666e-01 1.524069e-01 -1.994203e-01 -2.138104e-01 -5.372567e-01 -7.328743e-03 4.000095e-01 -3.214293e-01 8.323913e-02 8.966650e-02 1.587177e-01 1.791508e-01 -1.034805e-03 2.220674e-01
<VARIANCE> 39
 5.381712e+01 2.129049e+01 3.491607e+01 2.981122e+01 3.182329e+01 3.175385e+01 3.666652e+01 2.766942e+01 3.595764e+01 2.298855e+01 2.082204e+01 1.547125e+01 2.692378e+00 4.397535e+00 2.786145e+00 3.429146e+00 3.085757e+00 4.765318e+00 5.156079e+00 5.386429e+00 4.373520e+00 4.626816e+00 3.000023e+00 3.379086e+00 2.270108e+00 4.399258e-01 1.039946e+00 4.029754e-01 4.156656e-01 4.621806e-01 6.769775e-01 6.888629e-01 8.506758e-01 6.664624e-01 5.993009e-01 5.408908e-01 5.025772e-01 4.091183e-01 4.757813e-02
<GCONST> 1.184612e+02
<TRANSP> 5
 0.000000e+00 1.000000e+00 0.000000e+00 0.000000e+00 0.000000e+00
 0.000000e+00 6.386747e-01 3.613254e-01 0.000000e+00 0.000000e+00
 0.000000e+00 0.000000e+00 6.914979e-01 3.085021e-01 0.000000e+00
 0.000000e+00 0.000000e+00 0.000000e+00 6.440934e-01 3.559066e-01
 0.000000e+00 0.000000e+00 0.000000e+00 0.000000e+00 0.000000e+00
<ENDHMM>
~h "dd"
<BEGINHMM>
<NUMSTATES> 5
<STATE> 2
<MEAN> 39
 -9.154337e+00 1.836842e+00 3.010383e+00 1.109591e+00 -6.417216e+00 -7.029033e+00 -7.622545e+00 -5.561880e+00 -5.608678e+00 -5.896254e+00 -6.999381e+00 -4.731608e+00 -6.825211e+00 -1.933336e+00 7.229572e-01 -6.049438e-01 4.194393e-01 1.990164e+00 1.477037e+00 1.002808e+00 -1.531514e-01 1.652806e-01 2.241750e-01 1.363792e-02 -1.043089e-01 -6.333131e-01 -3.599065e-01 -1.163752e+00 -3.623074e-01 -1.156644e+00 -5.633757e-01 9.898193e-03 -6.955565e-02 5.225964e-01 1.906138e-01 4.199985e-01 6.904480e-01 3.940551e-01 3.899925e-01
<VARIANCE> 39
 2.456272e+01 3.631033e+01 2.977609e+01 3.918406e+01 4.173901e+01 3.383987e+01 3.185161e+01 3.223992e+01 3.593402e+01 2.902632e+01 2.559746e+01 2.368839e+01 3.301171e+00 3.806316e+00 7.727124e+00 4.565526e+00 5.906620e+00 5.217128e+00 4.369548e+00 4.363581e+00 4.317929e+00 4.198699e+00 3.477410e+00 3.497010e+00 2.967297e+00 5.051984e-01 5.465117e-01 8.212044e-01 6.070011e-01 8.393801e-01 9.469468e-01 7.930194e-01 9.198314e-01 8.018463e-01 7.932352e-01 8.086951e-01 5.961889e-01 5.474452e-01 6.570329e-02
<GCONST> 1.249955e+02
<STATE> 3
<MEAN> 39
 -1.518731e+01 -3.915277e+00 -7.247312e-01 -2.963258e+00 -4.128818e+00 -2.817214e+00 -4.826830e+00 -3.560457e+00 -3.919137e+00 -3.477427e+00 -3.306863e+00 -2.464125e+00 -6.912615e+00 -2.109358e+00 -1.872383e+00 -1.184867e+00 -2.128448e+00 -1.468099e-01 6.617518e-01 7.302806e-01 9.492672e-01 9.100978e-01 9.389145e-01 1.335105e+00 9.349074e-01 5.035444e-01 3.061835e-01 -9.062038e-02 1.492759e-01 -4.079314e-01 -7.671408e-01 -5.890907e-01 -2.816550e-01 1.967826e-01 6.121379e-02 8.027516e-02 1.142150e-01 1.071092e-01 3.513172e-01
<VARIANCE> 39
 4.174906e+01 5.777861e+01 4.704036e+01 4.465675e+01 3.967807e+01 3.675334e+01 3.200681e+01 2.640220e+01 2.496062e+01 2.184440e+01 1.902831e+01 1.688969e+01 5.798810e+00 5.985277e+00 5.314098e+00 4.028480e+00 4.718887e+00 4.544628e+00 4.208024e+00 4.140600e+00 4.006085e+00 3.805300e+00 3.358131e+00 2.895180e+00 2.314590e+00 5.125089e-01 7.519390e-01 1.148548e+00 7.657595e-01 8.893874e-01 9.115762e-01 8.264796e-01 7.920716e-01 7.357958e-01 6.367327e-01 5.920454e-01 5.488018e-01 4.406973e-01 7.679346e-02
<GCONST> 1.246019e+02
<STATE> 4
<MEAN> 39
 -1.287116e+01 -7.331414e+00 -2.861859e+00 -9.516533e+00 -1.087789e+01 -8.347231e+00 -4.570623e+00 1.289086e-01 -9.095730e-01 1.490347e-02 -6.833215e-01 7.690629e-01 -5.684618e+00 3.693344e-01 -4.916943e-01 -6.173230e-01 -6.891824e-01 -5.012416e-01 -4.249797e-01 3.352902e-01 7.073293e-01 4.602334e-01 3.995215e-01 -4.837325e-04 2.043897e-01 1.838046e-01 1.856938e-01 3.745170e-01 8.011626e-02 5.010935e-01 3.381801e-01 2.157688e-01 -5.793956e-02 -1.733492e-01 -2.295001e-01 -2.384660e-01 -3.761546e-01 -3.423953e-01 -9.292848e-02
<VARIANCE> 39
 3.056999e+01 3.084033e+01 4.158134e+01 4.911784e+01 5.278081e+01 6.053219e+01 6.053353e+01 4.865464e+01 5.586317e+01 4.934734e+01 3.997135e+01 3.575689e+01 5.409984e+00 4.128750e+00 4.615755e+00 3.456925e+00 6.562741e+00 7.007286e+00 6.686558e+00 5.855376e+00 4.841364e+00 5.484142e+00 5.385084e+00 5.207950e+00 4.429273e+00 8.643965e-01 7.270821e-01 1.009253e+00 6.845739e-01 1.290103e+00 1.118086e+00 1.187467e+00 1.142881e+00 9.189925e-01 1.068664e+00 1.086343e+00 9.915404e-01 7.835892e-01 1.334452e-01
<GCONST> 1.365008e+02
<TRANSP> 5
 0.000000e+00 1.000000e+00 0.000000e+00 0.000000e+00 0.000000e+00
 0.000000e+00 5.516512e-01 4.483488e-01 0.000000e+00 0.000000e+00
 0.000000e+00 0.000000e+00 2.891670e-01 1.365371e-01 5.742958e-01
 0.000000e+00 0.000000e+00 0.000000e+00 7.194536e-01 2.805464e-01
 0.000000e+00 0.000000e+00 0.000000e+00 0.000000e+00 0.000000e+00
<ENDHMM>
~h "dh"
<BEGINHMM>
<NUMSTATES> 5
<STATE> 2
<MEAN> 39
 -1.317749e+01 -1.089675e-01 -5.102527e+00 -3.847425e+00 -4.374840e+00 -6.064130e+00 -6.546749e+00 -5.956417e+00 -3.630837e+00 -1.935861e+00 -3.980349e+00 -3.664997e+00 -5.529220e+00 7.193663e-01 -4.906706e-01 -5.621423e-02 -5.149368e-01 -6.792885e-01 -7.124867e-01 -4.629363e-01 1.987229e-01 4.339508e-01 3.938717e-02 3.078005e-02 6.268965e-02 3.861721e-01 5.668244e-01 -6.933728e-01 2.134080e-02 -7.852580e-01 -7.598054e-01 -5.027133e-01 -3.984559e-01 3.724582e-01 2.648874e-01 2.416480e-01 8.245875e-02 1.090671e-01 4.146308e-01
<VARIANCE> 39
 4.789983e+01 2.663206e+01 2.495027e+01 2.871042e+01 2.757567e+01 3.197228e+01 4.073138e+01 3.802924e+01 3.008637e+01 2.953166e+01 2.772874e+01 2.921415e+01 3.836393e+00 6.569999e+00 3.297124e+00 2.605585e+00 4.547146e+00 4.229458e+00 4.657700e+00 4.883760e+00 4.148937e+00 3.502104e+00 2.845549e+00 2.859148e+00 3.005628e+00 9.074343e-01 5.137632e-01 6.457661e-01 5.942881e-01 7.938378e-01 6.640803e-01 8.120916e-01 8.932076e-01 8.421870e-01 7.039447e-01 6.392896e-01 6.600596e-01 6.667412e-01 7.577316e-02
<GCONST> 1.232950e+02
<STATE> 3
<MEAN> 39
 -9.843508e+00 -1.815880e+00 -5.816812e+00 -6.970803e+00 -8.058755e+00 -9.923460e+00 -8.917262e+00 -5.496330e+00 -1.607375e+00 -8.158555e-01 -3.513448e+00 -2.965215e+00 -3.112875e+00 2.464163e+00 -1.815459e+00 4.182301e-01 -1.958995e+00 -2.212206e+00 -1.808368e+00 -1.890978e+00 7.826015e-01 8.287119e-01 5.061525e-01 -1.941086e-03 -9.505735e-02 1.109495e+00 1.303299e-02 -3.381766e-01 2.516575e-01 -1.542679e-01 -1.296162e-01 2.188313e-01 7.175018e-02 3.401350e-01 -1.659608e-01 4.685949e-02 4.781414e-03 -3.502102e-02 -2.491651e-02
<VARIANCE> 39
 2.162661e+01 1.942524e+01 2.181855e+01 2.442938e+01 3.042854e+01 3.043680e+01 3.824229e+01 3.157290e+01 2.881812e+01 2.995274e+01 2.502425e+01 2.692543e+01 1.422834e+00 5.017820e+00 2.926027e+00 3.645665e+00 4.149826e+00 4.338561e+00 5.197805e+00 6.195724e+00 6.101845e+00 4.692291e+00 3.927379e+00 4.347482e+00 4.367114e+00 3.219543e-01 4.700855e-01 3.559823e-01 4.049076e-01 4.404298e-01 4.473271e-01 5.359384e-01 6.310915e-01 6.804515e-01 4.937698e-01 4.597963e-01 5.006092e-01 3.968912e-01 3.923779e-02
<GCONST> 1.163034e+02
<STATE> 4
<MEAN> 39
 -6.141497e+00 -6.333947e+00 -4.755273e+00 -1.082156e+01 -1.200808e+01 -1.263655e+01 -1.221972e+01 -3.470491e+00 -2.879097e-01 3.182585e-01 -3.760729e+00 -3.220188e+00 -1.596537e+00 1.699533e+00 -2.102206e+00 6.435413e-01 -1.806714e+00 -1.825730e+00 -9.188008e-01 -1.051204e+00 1.378598e+00 3.622350e-01 3.942794e-01 -2.134533e-02 -8.563798e-02 7.658732e-01 -6.168228e-01 2.798434e-01 6.060074e-02 4.778900e-01 5.456572e-01 7.255256e-01 6.868927e-01 6.921364e-02 -4.157782e-01 -2.120421e-01 3.798484e-02 6.536364e-03 -3.158526e-01
<VARIANCE> 39
 1.065660e+01 2.133857e+01 3.223344e+01 4.002424e+01 4.587524e+01 4.430305e+01 5.422710e+01 4.972153e+01 4.888589e+01 4.444287e+01 4.358937e+01 4.659919e+01 1.012141e+00 2.515069e+00 2.471881e+00 3.037224e+00 3.518165e+00 3.487965e+00 4.776427e+00 5.600657e+00 4.853009e+00 4.210207e+00 3.554137e+00 4.242743e+00 3.258599e+00 1.795724e-01 5.423010e-01 3.165229e-01 3.932307e-01 5.250353e-01 5.615612e-01 6.060325e-01 7.328945e-01 7.733734e-01 6.092432e-01 5.427578e-01 5.239511e-01 6.217765e-01 3.598155e-02
<GCONST> 1.184833e+02
<TRANSP> 5
 0.000000e+00 1.000000e+00 0.000000e+00 0.000000e+00 0.000000e+00
 0.000000e+00 5.171717e-01 4.828283e-01 0.000000e+00 0.000000e+00
 0.000000e+00 0.000000e+00 1.327269e-01 8.672732e-01 0.000000e+00
 0.000000e+00 0.000000e+00 0.000000e+00 2.475743e-01 7.524257e-01
 0.000000e+00 0.000000e+00 0.000000e+00 0.000000e+00 0.000000e+00
<ENDHMM>
~h "dx"
<BEGINHMM>
<NUMSTATES> 5
<STATE> 2
<MEAN> 39
 -5.423526e+00 -6.730513e+00 9.825271e-01 -2.135691e+00 -1.226764e+01 -9.302138e+00 -8.891400e+00 -3.772151e+00 -3.514325e+00 -4.261424e+00 -4.709615e+00 -3.447103e+00 -3.975823e+00 -9.561704e-01 8.787916e-01 6.874807e-01 4.549606e-01 1.062037e+00 2.748457e-01 5.471978e-01 -7.937109e-01 -4.103413e-01 -2.890739e-01 -1.335787e-01 8.195003e-02 -4.468212e-01 1.082519e-01 -6.631340e-01 -5.212180e-02 -1.143474e+00 -7.507791e-01 -7.789031e-02 -2.797402e-01 6.715584e-01 -1.236341e-01 3.432204e-01 5.138297e-01 1.894774e-01 3.553204e-01
<VARIANCE> 39
 2.044532e+01 4.971301e+01 4.633581e+01 5.416668e+01 6.157285e+01 3.924182e+01 4.105444e+01 4.063416e+01 4.757629e+01 3.522326e+01 3.132939e+01 2.854236e+01 5.047403e+00 1.756918e+00 2.619343e+00 4.197680e+00 3.553660e+00 5.467966e+00 4.376608e+00 4.572042e+00 4.042791e+00 3.929813e+00 3.014126e+00 3.136954e+00 2.534462e+00 2.105218e-01 2.581609e-01 6.611863e-01 5.167869e-01 9.290581e-01 1.170818e+00 8.564113e-01 1.124034e+00 1.063553e+00 8.735058e-01 8.247482e-01 9.579477e-01 5.964668e-01 5.694793e-02
<GCONST> 1.247120e+02
<STATE> 3
<MEAN> 39
 -9.744014e+00 -7.903249e+00 8.613045e-01 -5.819807e+00 -1.156554e+01 -8.279266e+00 -7.265876e+00 -2.956657e+00 -3.481889e+00 -3.250486e+00 -2.706484e+00 -1.730961e+00 -3.841429e+00 7.561965e-02 -7.651280e-01 7.030194e-01 -1.261156e+00 -1.270307e+00 -4.589998e-01 -4.316064e-01 5.279337e-01 -4.460534e-01 2.643369e-01 6.396244e-01 4.110698e-01 4.128172e-01 5.280178e-01 -3.292032e-01 -4.944393e-02 -4.885710e-01 -6.643435e-01 -1.954397e-01 -4.043552e-01 4.555774e-01 -9.051783e-02 1.654746e-01 1.511649e-01 -1.792807e-02 2.434312e-01
<VARIANCE> 39
 5.108531e+01 3.959901e+01 4.527337e+01 4.765738e+01 5.405135e+01 4.603481e+01 4.966833e+01 3.722512e+01 3.974336e+01 3.185452e+01 2.615449e+01 2.295298e+01 4.595153e+00 2.749013e+00 2.997905e+00 4.030900e+00 4.636377e+00 4.485107e+00 3.964329e+00 3.984320e+00 3.931147e+00 3.831735e+00 3.287440e+00 3.087320e+00 2.460908e+00 3.123301e-01 5.202604e-01 6.760610e-01 6.793172e-01 9.076667e-01 1.252200e+00 1.085279e+00 1.099038e+00 1.065899e+00 8.282520e-01 7.475367e-01 7.831826e-01 5.571957e-01 7.450982e-02
<GCONST> 1.264692e+02
<STATE> 4
<MEAN> 39
 -4.539572e+00 -1.107507e+01 3.079277e+00 -7.677052e+00 -1.855059e+01 -1.084981e+01 -1.163248e+01 -7.232409e-01 -4.257249e+00 -2.881728e+00 -1.396939e+00 -1.580525e+00 -2.015566e+00 6.048377e-01 -6.925384e-01 4.500643e-01 -1.290583e+00 -1.468538e+00 -3.319008e-01 -8.263080e-01 1.122503e+00 -5.195852e-01 3.796063e-01 6.043153e-01 1.786911e-01 4.338589e-01 -1.780145e-03 1.854872e-01 -2.677696e-01 1.588162e-02 3.251088e-01 1.422571e-01 1.118252e-01 2.331793e-02 2.701230e-02 1.454838e-02 -1.508034e-01 -1.465265e-01 -3.751381e-02
<VARIANCE> 39
 1.620392e+01 3.335571e+01 5.417147e+01 5.594783e+01 4.621835e+01 4.040808e+01 5.209447e+01 4.774864e+01 5.874974e+01 3.769492e+01 3.656556e+01 2.443838e+01 1.720824e+00 2.310469e+00 2.175858e+00 3.802749e+00 3.998858e+00 4.751853e+00 4.129123e+00 4.720412e+00 4.533422e+00 4.106079e+00 3.436482e+00 3.585385e+00 2.432054e+00 1.622862e-01 1.487767e-01 2.332537e-01 2.606253e-01 4.114574e-01 5.800002e-01 4.516965e-01 5.206211e-01 5.164007e-01 4.165612e-01 4.102220e-01 3.776858e-01 3.000213e-01 2.083663e-02
<GCONST> 1.136871e+02
<TRANSP> 5
 0.000000e+00 1.000000e+00 0.000000e+00 0.000000e+00 0.000000e+00
 0.000000e+00 2.484655e-01 7.515345e-01 0.000000e+00 0.000000e+00
 0.000000e+00 0.000000e+00 3.193229e-01 6.806771e-01 0.000000e+00
 0.000000e+00 0.000000e+00 0.000000e+00 2.867221e-01 7.132779e-01
 0.000000e+00 0.000000e+00 0.000000e+00 0.000000e+00 0.000000e+00
<ENDHMM>
~h "eh"
<BEGINHMM>
<NUMSTATES> 5
<STATE> 2
<MEAN> 39
