~o
<STREAMINFO> 1 39
<VECSIZE> 39<NULLD><MFCC_E_D_A><DIAGC>
~v "varFloor1"
<VARIANCE> 39
 9.857469e-03 5.546750e-03 7.227151e-03 7.634672e-03 7.804320e-03 6.913838e-03 7.343364e-03 6.157733e-03 6.080312e-03 4.222516e-03 4.611216e-03 3.340509e-03 1.125261e-03 4.615124e-04 3.291483e-04 3.045427e-04 4.137188e-04 4.288039e-04 3.993323e-04 4.290919e-04 4.150005e-04 3.785724e-04 3.096795e-04 2.945840e-04 2.399993e-04 4.639273e-05 6.651254e-05 6.107638e-05 5.636400e-05 8.277006e-05 8.862553e-05 9.320126e-05 1.011802e-04 1.035967e-04 9.807252e-05 8.817509e-05 8.367682e-05 7.139950e-05 7.005768e-06
~h "b"
<BEGINHMM>
<NUMSTATES> 5
<STATE> 2
<MEAN> 39
 -6.538827e+00 4.053083e+00 -1.003376e+00 1.196561e-01 -1.895549e+00 -2.251401e+00 -6.866849e+00 -7.466509e+00 -7.957911e+00 -5.167186e+00 -3.772847e+00 -4.496171e+00 -7.226851e+00 -1.173452e+00 -1.797595e-01 2.686965e-01 3.253707e-01 3.154306e-01 -2.828347e-02 4.376149e-01 4.127333e-01 4.727940e-01 4.736443e-02 -1.297863e-01 3.055103e-01 -1.589683e-01 1.724780e-01 -1.125375e+00 -3.921228e-01 -1.087924e+00 -7.466529e-01 -3.571888e-01 -2.211170e-01 4.165311e-01 3.948726e-01 4.297491e-01 3.542081e-01 2.022269e-01 4.505418e-01
<VARIANCE> 39
 2.925674e+01 1.947598e+01 1.736776e+01 2.878909e+01 2.137663e+01 2.953087e+01 3.164228e+01 2.565732e+01 2.612604e+01 2.708249e+01 2.998772e+01 2.296297e+01 3.104118e+00 2.423950e+00 5.057179e+00 2.628904e+00 4.942712e+00 3.040765e+00 2.974161e+00 3.132539e+00 3.433031e+00 3.700852e+00 3.336185e+00 3.039767e+00 2.290092e+00 5.849505e-01 5.494905e-01 5.459091e-01 7.142367e-01 7.034993e-01 7.214450e-01 6.973671e-01 7.999885e-01 7.414476e-01 7.300863e-01 6.901353e-01 6.056318e-01 5.079739e-01 5.540994e-02
<GCONST> 1.173202e+02
<STATE> 3
<MEAN> 39
 -1.090383e+01 -2.765579e+00 -3.653746e+00 -3.759549e+00 -3.398075e+00 -3.460413e+00 -4.813754e+00 -3.706079e+00 -3.850087e+00 -2.773761e+00 -2.230168e+00 -1.965227e+00 -6.168218e+00 7.768053e-01 -2.378535e+00 -5.696785e-01 -2.360138e+00 -1.872335e+00 -1.304356e+00 -7.731280e-01 9.687554e-01 8.002558e-01 6.352684e-01 7.982137e-01 6.492556e-01 1.202618e+00 8.413208e-01 -1.234987e-01 6.269448e-03 -5.740921e-01 -6.477707e-01 -1.909543e-01 -5.822605e-01 -3.907018e-02 -3.358175e-01 -2.338464e-02 1.048656e-01 -1.492719e-01 3.121974e-01
<VARIANCE> 39
 4.192371e+01 2.506545e+01 2.389340e+01 3.573794e+01 2.313231e+01 2.932703e+01 3.025911e+01 2.988931e+01 3.150672e+01 2.516944e+01 2.438573e+01 1.885700e+01 4.817037e+00 5.301559e+00 3.911319e+00 5.858983e+00 5.697651e+00 4.849749e+00 4.327200e+00 4.884997e+00 4.674876e+00 4.828740e+00 4.266284e+00 3.325636e+00 2.722972e+00 5.253707e-01 6.474142e-01 8.608408e-01 8.611408e-01 8.399359e-01 8.710012e-01 8.797500e-01 9.088827e-01 9.561222e-01 9.954828e-01 7.890555e-01 8.064668e-01 5.317841e-01 5.761265e-02
<GCONST> 1.251302e+02
<STATE> 4
<MEAN> 39
 -4.755175e+00 -5.973715e+00 -4.665469e+00 -9.262239e+00 -9.154540e+00 -7.146601e+00 -8.838472e+00 -3.619076e+00 -3.990082e+00 -1.935599e+00 -3.816258e-01 -1.728020e+00 -2.869260e+00 1.659027e+00 -2.035195e+00 -2.665051e-01 -2.700326e+00 -2.501591e+00 -1.021272e+00 -1.431787e+00 8.358568e-01 -4.536611e-03 4.504554e-01 5.997289e-01 1.157721e-01 1.248030e+00 -1.095050e-01 4.570017e-01 1.905187e-01 3.032502e-01 2.533592e-01 4.042042e-01 7.466239e-02 -7.251131e-02 -3.011529e-01 -1.895895e-01 -2.201911e-01 -2.248715e-01 -1.996435e-01
<VARIANCE> 39
 3.453736e+01 2.759941e+01 6.965185e+01 6.838927e+01 4.295023e+01 5.945614e+01 4.815015e+01 4.347594e+01 4.544114e+01 3.637582e+01 3.609957e+01 2.488291e+01 2.238902e+00 5.932517e+00 5.386458e+00 9.383706e+00 7.467126e+00 7.252709e+00 6.439014e+00 7.304173e+00 7.099470e+00 7.514981e+00 5.699666e+00 4.882233e+00 3.587473e+00 4.350617e-01 4.810020e-01 4.652265e-01 4.467804e-01 7.362100e-01 6.036183e-01 6.771024e-01 7.281571e-01 6.915168e-01 7.011802e-01 6.089703e-01 5.605063e-01 4.084594e-01 5.727937e-02
<GCONST> 1.294335e+02
<TRANSP> 5
 0.000000e+00 1.000000e+00 0.000000e+00 0.000000e+00 0.000000e+00
 0.000000e+00 6.436642e-01 3.563358e-01 0.000000e+00 0.000000e+00
 0.000000e+00 0.000000e+00 3.128564e-01 6.871436e-01 0.000000e+00
 0.000000e+00 0.000000e+00 0.000000e+00 2.850155e-01 7.149845e-01
 0.000000e+00 0.000000e+00 0.000000e+00 0.000000e+00 0.000000e+00
<ENDHMM>
~h "d"
<BEGINHMM>
<NUMSTATES> 5
<STATE> 2
<MEAN> 39
 -1.070980e+01 3.210010e+00 1.632067e+00 1.606162e+00 -4.326303e+00 -5.102617e+00 -6.295447e+00 -4.573997e+00 -5.118285e+00 -4.570150e+00 -5.768224e+00 -4.570424e+00 -7.784369e+00 -9.329155e-01 -7.838374e-01 -2.974090e-01 -8.415343e-01 7.397920e-01 5.369340e-01 2.449792e-01 3.017938e-01 3.193344e-01 1.915313e-01 3.740365e-01 4.081800e-01 2.718573e-02 -2.467292e-02 -9.949979e-01 -1.947071e-01 -1.086420e+00 -6.955653e-01 -3.722840e-01 -1.633482e-01 2.881198e-01 1.634165e-01 2.386048e-01 3.857144e-01 3.542237e-01 4.808776e-01
<VARIANCE> 39
 4.128128e+01 2.709347e+01 2.846220e+01 2.886243e+01 2.914178e+01 3.081691e+01 2.948409e+01 2.968030e+01 3.340805e+01 2.539240e+01 2.570050e+01 2.167525e+01 4.177774e+00 3.671772e+00 6.197304e+00 3.218178e+00 5.970165e+00 4.278606e+00 4.070788e+00 3.934153e+00 3.914687e+00 3.643707e+00 2.849651e+00 3.142770e+00 2.592702e+00 7.609907e-01 5.022792e-01 7.673683e-01 5.448519e-01 7.653014e-01 8.196043e-01 7.522920e-01 8.102691e-01 7.494147e-01 7.132434e-01 6.167476e-01 5.915158e-01 4.825612e-01 8.389726e-02
<GCONST> 1.219518e+02
<STATE> 3
<MEAN> 39
 -1.615281e+01 -5.602921e+00 -2.348543e+00 -6.573954e+00 -3.698882e+00 -2.932813e+00 -3.783855e+00 -2.068799e+00 -3.024167e+00 -2.190875e+00 -2.208005e+00 -1.235197e+00 -5.936180e+00 -5.655910e-02 -2.073940e+00 -1.761762e-01 -2.859489e+00 -1.501687e+00 -1.406666e+00 -5.138779e-01 6.003001e-01 4.289694e-01 4.068921e-01 8.122458e-01 8.986149e-01 1.316636e+00 9.122544e-01 2.418121e-01 4.178880e-01 6.184741e-02 -1.015478e+00 -7.774844e-01 -5.799336e-01 -7.020617e-02 -1.782394e-01 -5.261818e-02 -1.819719e-01 -1.584704e-01 2.557008e-01
<VARIANCE> 39
 3.764854e+01 3.431250e+01 3.654289e+01 4.630862e+01 3.295224e+01 3.262825e+01 3.059066e+01 2.874807e+01 2.475697e+01 2.292304e+01 2.026435e+01 1.684031e+01 6.798368e+00 3.472450e+00 3.800450e+00 3.346947e+00 4.044076e+00 3.886939e+00 3.973953e+00 4.371110e+00 4.324243e+00 4.163452e+00 3.316346e+00 3.116815e+00 2.500115e+00 5.034598e-01 5.551270e-01 7.191674e-01 7.924793e-01 9.412194e-01 1.012163e+00 8.898111e-01 8.522933e-01 8.832058e-01 8.762075e-01 7.016141e-01 7.097235e-01 5.309846e-01 9.165186e-02
<GCONST> 1.235267e+02
<STATE> 4
<MEAN> 39
 -1.229154e+01 -5.399063e+00 9.088248e-02 -1.007231e+01 -1.059265e+01 -1.053993e+01 -7.460331e+00 -2.498015e+00 -3.715203e+00 -2.485566e+00 -2.102756e+00 -2.578515e-01 -2.840578e+00 2.373540e+00 -9.766544e-01 1.073160e+00 -9.017051e-01 -2.987531e+00 -2.216163e+00 -1.840841e+00 4.265849e-01 6.718659e-03 9.089920e-02 -6.978452e-02 -9.979909e-02 1.069352e+00 3.282001e-01 2.289218e-01 -4.664184e-02 6.784422e-01 1.289274e-01 4.406371e-01 -9.821044e-03 5.829355e-02 -2.657105e-02 2.356342e-02 -1.851302e-01 -3.681557e-01 -2.621206e-01
<VARIANCE> 39
 3.974930e+01 3.274954e+01 4.428093e+01 3.829573e+01 5.128398e+01 4.132181e+01 4.276754e+01 3.543346e+01 3.778393e+01 2.427309e+01 2.271354e+01 1.935814e+01 2.328330e+00 3.252578e+00 4.052923e+00 4.663836e+00 5.395175e+00 5.325193e+00 4.866042e+00 5.459916e+00 5.681834e+00 5.648785e+00 3.968152e+00 4.158193e+00 3.291133e+00 3.710789e-01 6.168264e-01 6.303962e-01 6.813423e-01 6.965564e-01 9.440376e-01 8.383816e-01 8.108528e-01 7.107788e-01 6.777530e-01 5.514100e-01 5.525677e-01 4.641296e-01 4.050864e-02
<GCONST> 1.242216e+02
<TRANSP> 5
 0.000000e+00 1.000000e+00 0.000000e+00 0.000000e+00 0.000000e+00
 0.000000e+00 5.542969e-01 4.457031e-01 0.000000e+00 0.000000e+00
 0.000000e+00 0.000000e+00 3.406470e-01 6.593531e-01 0.000000e+00
 0.000000e+00 0.000000e+00 0.000000e+00 5.361036e-01 4.638964e-01
 0.000000e+00 0.000000e+00 0.000000e+00 0.000000e+00 0.000000e+00
<ENDHMM>
~h "f"
<BEGINHMM>
<NUMSTATES> 5
<STATE> 2
<MEAN> 39
 -1.918328e+01 -5.081629e+00 -5.671362e+00 -4.144885e+00 -3.365983e+00 -2.767135e+00 -2.168846e+00 -5.250148e-01 -1.918239e+00 -1.392756e+00 -2.333728e+00 -1.103405e+00 -6.179015e+00 -3.296886e+00 -7.321747e-01 -7.198189e-01 5.109279e-01 3.876440e-01 5.202450e-01 5.759485e-01 5.546828e-01 8.116060e-01 3.635543e-01 3.507799e-01 4.900219e-01 -5.626609e-01 5.206755e-01 -2.778518e-01 -9.720752e-02 -5.242183e-01 -5.082799e-01 -2.607732e-01 -3.559760e-01 -1.143739e-01 -1.573920e-01 9.907591e-02 2.022720e-02 -9.353666e-02 2.213625e-01
<VARIANCE> 39
 3.218636e+01 1.665431e+01 1.659558e+01 1.710163e+01 1.594229e+01 1.834761e+01 1.794219e+01 1.779832e+01 1.931409e+01 1.742257e+01 1.492816e+01 1.278669e+01 3.458914e+00 5.883087e+00 2.624320e+00 3.991923e+00 4.455817e+00 3.552084e+00 3.750250e+00 3.625524e+00 3.469442e+00 3.782694e+00 2.799893e+00 2.941630e+00 2.141460e+00 3.926647e-01 7.908128e-01 5.613958e-01 5.399795e-01 6.921905e-01 6.164492e-01 5.845776e-01 6.065227e-01 6.185907e-01 6.121496e-01 5.093632e-01 4.806959e-01 3.942961e-01 4.531171e-02
<GCONST> 1.116482e+02
<STATE> 3
<MEAN> 39
 -2.388086e+01 -8.255221e+00 -8.858056e+00 -5.639274e+00 -5.093050e+00 -3.480355e+00 -2.981075e+00 -3.833492e-01 -1.003095e+00 -1.819448e-01 -1.413964e+00 -4.196590e-01 -6.144895e+00 2.341891e-01 -1.592275e-01 -1.742886e-01 -1.192011e-01 -5.557594e-02 -5.104605e-02 -6.638414e-02 -9.557070e-02 2.116787e-02 1.016063e-01 6.385336e-02 -1.082660e-02 6.815983e-02 7.883412e-01 1.774980e-01 1.488767e-01 -1.093967e-01 -4.226050e-03 -6.065647e-02 -1.064571e-01 -8.555839e-02 -1.234432e-01 -7.319760e-02 -4.428741e-02 -7.828596e-02 1.149488e-01
<VARIANCE> 39
 8.532798e+00 1.091248e+01 1.171103e+01 1.183612e+01 1.255834e+01 1.312367e+01 1.356989e+01 1.298303e+01 1.325239e+01 1.251757e+01 1.114235e+01 1.007140e+01 2.326060e+00 1.935191e+00 9.533861e-01 1.177743e+00 1.193264e+00 1.289789e+00 1.360773e+00 1.383137e+00 1.442350e+00 1.448997e+00 1.365525e+00 1.244027e+00 1.110579e+00 1.252434e-01 4.881141e-01 2.385578e-01 2.859050e-01 3.416952e-01 3.341632e-01 3.549127e-01 3.796049e-01 3.619298e-01 3.750342e-01 3.246890e-01 3.149723e-01 2.660480e-01 3.123519e-02
<GCONST> 8.658463e+01
<STATE> 4
<MEAN> 39
 -1.513792e+01 -6.503795e+00 -7.852844e+00 -7.122513e+00 -5.186132e+00 -3.661881e+00 -3.198224e+00 -1.470474e+00 -1.682117e+00 -3.236217e-01 -1.501687e+00 -1.249304e+00 -5.039112e+00 5.247742e+00 3.656205e-01 -1.507030e-01 -1.805563e+00 -1.194132e+00 -6.155721e-01 -1.355076e+00 -5.646253e-01 -8.596000e-01 -4.715539e-01 -8.207428e-02 -4.552604e-01 1.006940e+00 4.007017e-01 -2.813829e-01 -1.638377e-01 -4.181210e-01 -3.972937e-01 -1.093399e-01 -4.466943e-01 8.352546e-02 -1.423770e-01 -8.535390e-02 5.982713e-02 -2.562707e-02 1.743969e-01
<VARIANCE> 39
 6.397484e+01 1.837284e+01 2.608733e+01 2.742610e+01 2.444504e+01 2.409165e+01 2.210656e+01 2.017953e+01 1.941039e+01 1.731106e+01 1.667656e+01 1.279219e+01 3.733276e+00 4.153163e+00 3.732072e+00 4.880112e+00 5.562408e+00 5.123624e+00 5.273774e+00 5.171935e+00 4.263920e+00 3.991026e+00 3.229978e+00 3.785220e+00 2.510397e+00 3.794911e-01 1.232361e+00 4.982267e-01 4.650192e-01 6.489045e-01 6.587325e-01 6.451563e-01 7.070163e-01 6.611235e-01 6.085313e-01 5.488608e-01 5.014802e-01 3.835499e-01 5.741613e-02
<GCONST> 1.176622e+02
<TRANSP> 5
 0.000000e+00 1.000000e+00 0.000000e+00 0.000000e+00 0.000000e+00
 0.000000e+00 5.164471e-01 4.835529e-01 0.000000e+00 0.000000e+00
 0.000000e+00 0.000000e+00 8.311379e-01 1.688621e-01 0.000000e+00
 0.000000e+00 0.000000e+00 0.000000e+00 6.099380e-01 3.900620e-01
 0.000000e+00 0.000000e+00 0.000000e+00 0.000000e+00 0.000000e+00
<ENDHMM>
~h "g"
<BEGINHMM>
<NUMSTATES> 5
<STATE> 2
<MEAN> 39
 -1.131467e+01 2.386312e+00 4.787956e-01 1.006932e+00 -4.641774e+00 -5.847845e+00 -5.876485e+00 -4.481970e+00 -7.748362e+00 -4.093525e+00 -3.393937e+00 -4.400577e+00 -8.098147e+00 -9.675840e-01 -1.015947e+00 -6.971753e-01 -4.271227e-01 9.739249e-01 8.639414e-01 1.252586e-01 1.006931e-02 8.142416e-01 5.737092e-01 -2.658006e-01 3.695574e-01 -1.315567e-02 1.509527e-01 -1.219365e+00 -4.077069e-01 -1.031559e+00 -4.836190e-01 -2.575581e-01 -2.209890e-01 4.102959e-01 1.004317e-01 4.264841e-01 2.686381e-01 2.785314e-01 4.924317e-01
<VARIANCE> 39
 3.743974e+01 2.795755e+01 3.720549e+01 2.856501e+01 3.734718e+01 4.000703e+01 3.433137e+01 3.856037e+01 3.898680e+01 3.201561e+01 3.355073e+01 2.416980e+01 3.852534e+00 3.070294e+00 7.735153e+00 5.166719e+00 5.496099e+00 5.457726e+00 4.597840e+00 4.256741e+00 5.371826e+00 4.308089e+00 4.429144e+00 3.479128e+00 2.619376e+00 8.405164e-01 5.418957e-01 9.815065e-01 7.942004e-01 7.673651e-01 8.667966e-01 8.419490e-01 9.140468e-01 8.797505e-01 7.703492e-01 7.924212e-01 6.561612e-01 4.971681e-01 8.301919e-02
<GCONST> 1.273620e+02
<STATE> 3
<MEAN> 39
 -1.541061e+01 -7.836730e+00 -5.164993e+00 -4.985572e+00 -2.651077e+00 -3.249658e+00 -4.634626e+00 -1.611558e+00 -3.932592e+00 -9.623934e-02 -2.403527e+00 -1.431377e+00 -6.323775e+00 4.183150e-01 -2.349098e+00 -9.648601e-01 -2.571344e+00 -7.317655e-01 -5.610713e-01 -7.788600e-01 2.585858e-01 3.133372e-01 1.022207e+00 1.769838e-01 6.198979e-01 1.198290e+00 7.871935e-01 5.258131e-01 5.264655e-01 -1.460987e-01 -8.544440e-01 -6.290210e-01 -3.971380e-01 -1.207307e-01 -4.110612e-01 -1.730985e-01 1.435243e-01 -1.469624e-01 2.182457e-01
<VARIANCE> 39
 4.691250e+01 4.952623e+01 6.190041e+01 5.109315e+01 4.691496e+01 4.616636e+01 4.400328e+01 3.342885e+01 3.748850e+01 2.936610e+01 2.629833e+01 2.011450e+01 6.837239e+00 3.160166e+00 5.731436e+00 6.795047e+00 4.872624e+00 5.053109e+00 4.338110e+00 4.209440e+00 4.652208e+00 4.267162e+00 4.006763e+00 3.072030e+00 2.379098e+00 5.385416e-01 5.376104e-01 1.279390e+00 9.101226e-01 1.143600e+00 1.029551e+00 8.780752e-01 8.438147e-01 1.006143e+00 8.588312e-01 8.450192e-01 8.706895e-01 5.307618e-01 1.023281e-01
<GCONST> 1.303554e+02
<STATE> 4
<MEAN> 39
 -1.077706e+01 -6.918827e+00 -1.701780e+00 -9.276759e+00 -9.229306e+00 -8.253797e+00 -8.456408e+00 -3.293884e+00 -6.780839e+00 5.518854e-02 -1.669777e+00 -1.170615e+00 -3.178591e+00 2.158105e+00 1.963512e-01 1.281172e+00 -8.939558e-01 -2.461172e+00 -1.652743e+00 -1.389483e+00 1.350362e-01 -6.691366e-01 -2.842426e-01 6.926497e-01 -1.011657e-01 9.589496e-01 2.017354e-01 1.242102e-01 -3.619087e-02 3.830768e-01 -7.851195e-02 1.111435e-01 8.861784e-02 3.018218e-01 1.019644e-01 -2.006723e-01 1.029769e-01 -1.505072e-01 -1.585378e-01
<VARIANCE> 39
 4.270424e+01 3.917372e+01 1.033505e+02 4.960569e+01 8.078111e+01 5.621249e+01 4.567163e+01 4.685312e+01 4.726545e+01 4.416225e+01 4.410799e+01 2.324373e+01 2.161535e+00 2.248427e+00 4.322292e+00 4.264485e+00 5.401735e+00 4.849440e+00 4.490600e+00 5.010583e+00 5.507470e+00 5.542112e+00 5.585563e+00 5.439499e+00 3.008154e+00 2.654778e-01 4.277614e-01 1.211684e+00 1.107267e+00 8.172447e-01 9.333179e-01 8.297084e-01 8.438340e-01 9.324114e-01 8.822590e-01 9.556275e-01 6.834540e-01 4.734412e-01 4.008227e-02
<GCONST> 1.300208e+02
<TRANSP> 5
 0.000000e+00 1.000000e+00 0.000000e+00 0.000000e+00 0.000000e+00
 0.000000e+00 5.296457e-01 4.703543e-01 0.000000e+00 0.000000e+00
 0.000000e+00 0.000000e+00 4.674589e-01 5.325411e-01 0.000000e+00
 0.000000e+00 0.000000e+00 0.000000e+00 6.334551e-01 3.665449e-01
 0.000000e+00 0.000000e+00 0.000000e+00 0.000000e+00 0.000000e+00
<ENDHMM>
~h "k"
<BEGINHMM>
<NUMSTATES> 5
<STATE> 2
<MEAN> 39
 -1.887304e+01 -2.136012e+00 -4.792179e+00 1.004022e-01 -2.126305e+00 -2.083364e+00 -2.798742e+00 -4.621554e-01 -2.814102e+00 -6.912203e-01 -1.048203e+00 -7.674115e-01 -9.804068e+00 -1.128461e+00 -1.286203e+00 -9.434580e-01 -3.641925e-01 4.943093e-01 8.300437e-01 3.235900e-01 2.743293e-01 8.965675e-01 5.950111e-01 -7.479628e-03 3.520261e-01 -1.070513e-01 7.043834e-01 -8.214607e-01 -1.675323e-01 -9.618044e-01 -5.409469e-01 -6.386234e-01 -2.759839e-01 1.183974e-01 -2.780831e-01 1.140942e-01 -6.561759e-02 -1.058728e-01 6.900514e-01
<VARIANCE> 39
 1.169390e+01 1.370005e+01 1.583377e+01 1.404525e+01 1.884774e+01 2.259122e+01 2.288288e+01 2.630220e+01 2.532721e+01 1.968180e+01 1.710775e+01 1.434437e+01 1.736288e+00 5.197093e+00 5.776668e+00 5.019150e+00 5.536894e+00 5.875296e+00 6.011704e+00 4.999576e+00 5.463089e+00 5.313840e+00 3.559854e+00 3.348948e+00 2.505790e+00 1.533401e+00 6.045220e-01 7.097420e-01 7.077044e-01 7.054456e-01 7.779532e-01 8.182800e-01 8.206284e-01 8.677584e-01 7.798508e-01 6.499876e-01 6.142752e-01 4.273875e-01 9.844975e-02
<GCONST> 1.193045e+02
<STATE> 3
<MEAN> 39
 -1.638777e+01 -1.248536e+01 -9.386222e+00 -6.317321e+00 -2.971386e+00 -4.362247e+00 -4.422934e+00 8.415707e-01 -3.282240e+00 1.419487e+00 -1.720034e+00 -6.033707e-01 -5.605048e+00 2.721185e-01 -1.533701e+00 -8.735595e-01 -2.131900e+00 -5.242741e-01 -8.124377e-01 -2.753866e-01 2.432888e-01 2.472237e-01 7.296996e-01 -1.333959e-01 1.456310e-01 1.177962e+00 1.588709e-02 1.029995e+00 6.731269e-01 2.297051e-01 -2.222232e-01 -1.507457e-01 1.311544e-01 -1.588350e-01 -7.274199e-02 -2.419099e-01 5.119813e-02 -8.452269e-02 -6.762568e-02
<VARIANCE> 39
 2.912435e+01 4.011354e+01 6.157569e+01 5.390972e+01 5.132920e+01 4.357307e+01 4.596746e+01 3.895602e+01 3.489525e+01 2.835127e+01 2.237164e+01 1.851764e+01 5.512307e+00 4.031186e+00 4.593082e+00 4.902622e+00 4.490026e+00 4.730509e+00 4.399261e+00 4.131775e+00 4.126120e+00 4.184554e+00 3.093755e+00 2.643451e+00 2.118282e+00 6.332778e-01 8.755693e-01 9.760920e-01 9.113382e-01 1.195526e+00 1.027086e+00 9.015473e-01 9.101796e-01 8.989174e-01 8.849131e-01 6.801653e-01 5.882059e-01 4.896558e-01 1.953062e-01
<GCONST> 1.286555e+02
<STATE> 4
<MEAN> 39
 -1.609982e+01 -8.643510e+00 -6.225597e+00 -8.690147e+00 -4.873636e+00 -5.033534e+00 -2.575622e+00 -5.542390e-01 -2.385967e+00 1.493828e+00 -1.933684e+00 -8.295015e-01 -4.412017e+00 1.186230e+00 8.923237e-01 9.100354e-01 8.298772e-02 -8.128516e-01 -4.346115e-01 1.191026e-02 -2.946592e-01 -3.000242e-01 -8.270831e-01 -7.939956e-02 -3.688198e-01 2.827930e-01 4.756656e-01 -1.110191e-02 -1.142737e-03 1.196370e-01 -2.112396e-01 -1.223525e-02 -2.809260e-01 -7.636398e-05 -2.039956e-01 -2.214797e-01 5.289411e-02 -1.056097e-01 5.395378e-04
<VARIANCE> 39
 2.802920e+01 2.550088e+01 6.202921e+01 3.877050e+01 5.014694e+01 4.565041e+01 4.828929e+01 4.002984e+01 3.515253e+01 3.064958e+01 2.648698e+01 1.971900e+01 2.291694e+00 5.584711e+00 3.193627e+00 2.878680e+00 3.565545e+00 4.007945e+00 3.959299e+00 4.496514e+00 3.913203e+00 4.436096e+00 3.280952e+00 3.341489e+00 2.356943e+00 3.460250e-01 5.309541e-01 8.012075e-01 6.663957e-01 8.495513e-01 6.858191e-01 7.756257e-01 8.434023e-01 7.873150e-01 8.143928e-01 7.238822e-01 6.036751e-01 4.514617e-01 1.070394e-01
<GCONST> 1.234021e+02
<TRANSP> 5
 0.000000e+00 1.000000e+00 0.000000e+00 0.000000e+00 0.000000e+00
 0.000000e+00 6.566072e-01 3.433928e-01 0.000000e+00 0.000000e+00
 0.000000e+00 0.000000e+00 5.792097e-01 4.207903e-01 0.000000e+00
 0.000000e+00 0.000000e+00 0.000000e+00 7.270031e-01 2.729969e-01
 0.000000e+00 0.000000e+00 0.000000e+00 0.000000e+00 0.000000e+00
<ENDHMM>
~h "l"
<BEGINHMM>
<NUMSTATES> 5
<STATE> 2
<MEAN> 39
 -2.799542e+00 -3.125154e+00 -8.706844e+00 -1.944051e+01 -8.257766e+00 -1.380111e+00 -9.144457e+00 -8.256490e+00 -5.327315e+00 -2.335457e-01 -9.202849e-01 -3.389641e+00 -1.959478e+00 1.270296e+00 3.522722e-01 -5.411785e-01 -2.119819e+00 -1.952769e-01 9.946030e-01 -5.090132e-01 -7.088035e-01 -5.928129e-01 5.591996e-02 5.791345e-01 1.297050e-01 3.832401e-01 -4.863198e-01 -3.758398e-01 4.179886e-02 4.734337e-01 6.661961e-02 -1.953034e-01 1.240956e-01 5.524215e-01 3.235440e-01 -1.954344e-03 -4.828874e-02 5.634882e-02 -7.044912e-02
<VARIANCE> 39
 1.443307e+01 4.618332e+01 4.326575e+01 7.516257e+01 5.799464e+01 6.639367e+01 7.315723e+01 6.644669e+01 5.808345e+01 5.484214e+01 6.544170e+01 3.771438e+01 2.473718e+00 2.855509e+00 3.195420e+00 2.589944e+00 4.963960e+00 4.171710e+00 4.738846e+00 5.576744e+00 5.016506e+00 4.494171e+00 4.165273e+00 3.798142e+00 3.237494e+00 3.835783e-01 5.267991e-01 5.107978e-01 4.027707e-01 8.185505e-01 8.031648e-01 7.090775e-01 8.137693e-01 8.590162e-01 9.581206e-01 8.943170e-01 6.666659e-01 5.738495e-01 3.331725e-02
<GCONST> 1.274952e+02
<STATE> 3
<MEAN> 39
 -1.160962e+00 -2.502189e+00 -9.899607e+00 -2.436029e+01 -9.540546e+00 1.879856e+00 -7.359967e+00 -7.098431e+00 -6.107799e+00 -1.375522e+00 9.749706e-01 -1.669088e+00 -1.405172e+00 -5.659224e-02 -4.410453e-01 -1.854766e-01 1.088218e-01 2.142424e-01 -3.646762e-02 -2.270399e-01 2.913093e-01 4.129691e-01 2.505406e-01 -6.668381e-02 -2.378202e-01 6.588206e-02 -2.423478e-01 -3.635827e-01 3.533464e-02 5.671162e-01 1.259179e-01 -2.629273e-01 -8.285280e-02 2.385031e-01 3.674744e-01 1.627523e-01 -2.164474e-01 -2.269157e-01 -3.040504e-02
<VARIANCE> 39
 1.026407e+01 3.738759e+01 4.135015e+01 6.699971e+01 6.124490e+01 6.071525e+01 7.087772e+01 6.604549e+01 4.928698e+01 5.160628e+01 5.717037e+01 3.468658e+01 1.535830e+00 5.492597e-01 3.308192e+00 1.396920e+00 2.959054e+00 2.495815e+00 2.495813e+00 2.939581e+00 2.780206e+00 3.794001e+00 4.007273e+00 2.481261e+00 2.589700e+00 1.350731e-01 2.051430e-01 3.276226e-01 2.749611e-01 5.203134e-01 4.722769e-01 5.422761e-01 5.289716e-01 6.371937e-01 6.221307e-01 6.278369e-01 5.594409e-01 4.258513e-01 2.225086e-02
<GCONST> 1.133414e+02
<STATE> 4
<MEAN> 39
 -3.214077e+00 -7.645182e+00 -1.017856e+01 -1.864711e+01 -6.900060e+00 -2.093750e+00 -1.100729e+01 -4.729825e+00 -7.952897e-01 1.631183e+00 -2.325212e+00 -5.689799e+00 -1.191347e+00 -8.384317e-01 -1.347670e+00 5.740892e-01 2.026274e+00 -2.162935e-01 -1.448247e+00 1.928328e-03 1.875875e+00 1.285503e+00 -3.945774e-01 -1.208410e+00 -2.556043e-01 -5.688311e-02 -2.200513e-01 1.975937e-01 3.777138e-01 1.924020e-01 -3.065251e-01 -1.462264e-01 4.056216e-01 2.010728e-01 -4.590878e-01 -4.770581e-01 1.136102e-01 4.448266e-01 -9.313302e-02
<VARIANCE> 39
 1.258566e+01 4.231474e+01 4.367174e+01 6.120425e+01 5.248136e+01 7.425315e+01 7.457249e+01 6.524833e+01 7.084949e+01 5.934813e+01 7.006390e+01 4.743992e+01 2.770577e+00 1.996855e+00 3.026434e+00 2.852725e+00 5.161940e+00 4.972812e+00 4.615455e+00 4.686477e+00 4.705770e+00 5.716199e+00 4.574380e+00 3.850631e+00 4.120000e+00 4.215664e-01 3.132087e-01 4.278094e-01 3.482948e-01 6.445919e-01 6.500369e-01 6.671683e-01 6.666377e-01 7.735466e-01 1.072396e+00 8.519539e-01 7.599227e-01 5.991413e-01 2.645882e-02
<GCONST> 1.264443e+02
<TRANSP> 5
 0.000000e+00 1.000000e+00 0.000000e+00 0.000000e+00 0.000000e+00
 0.000000e+00 4.916539e-01 5.083461e-01 0.000000e+00 0.000000e+00
 0.000000e+00 0.000000e+00 7.074773e-01 2.925228e-01 0.000000e+00
 0.000000e+00 0.000000e+00 0.000000e+00 5.371230e-01 4.628770e-01
 0.000000e+00 0.000000e+00 0.000000e+00 0.000000e+00 0.000000e+00
<ENDHMM>
~h "m"
<BEGINHMM>
<NUMSTATES> 5
<STATE> 2
<MEAN> 39
 -3.389514e+00 -4.150983e+00 -4.635856e+00 -3.836753e+00 -6.757838e+00 -7.017107e+00 -7.966187e+00 -8.677077e+00 -1.145758e+01 -2.966931e+00 -7.329758e-01 -6.587587e+00 -3.700055e+00 -3.154160e-03 1.069536e+00 1.008653e+00 1.792558e+00 3.362935e-01 -9.123354e-01 1.085120e-01 -1.790141e+00 -2.224043e+00 1.966030e-01 3.002907e-01 -7.675034e-01 -1.949748e-01 -2.231032e-01 -3.806075e-01 -8.545007e-02 -5.344163e-01 -2.254237e-01 2.303734e-01 9.983500e-03 5.350638e-01 6.151176e-01 -2.996689e-02 -2.024160e-01 2.059319e-01 1.077191e-01
<VARIANCE> 39
 1.051350e+01 2.773363e+01 2.704103e+01 4.701217e+01 5.106534e+01 6.429967e+01 6.142017e+01 6.026432e+01 5.812797e+01 5.363008e+01 7.297411e+01 4.285099e+01 2.113543e+00 2.611377e+00 2.700009e+00 3.105173e+00 3.959524e+00 4.193287e+00 3.826212e+00 4.773021e+00 4.760603e+00 5.385065e+00 4.376944e+00 4.775168e+00 3.293211e+00 3.750794e-01 3.213089e-01 3.084221e-01 4.856455e-01 5.872523e-01 5.710078e-01 5.603506e-01 6.336933e-01 7.016464e-01 8.632309e-01 6.780636e-01 7.604071e-01 5.341509e-01 2.649337e-02
<GCONST> 1.223664e+02
<STATE> 3
<MEAN> 39
 -3.874969e+00 -3.539545e+00 -2.888934e+00 -2.747274e+00 -7.288355e+00 -7.715110e+00 -7.800407e+00 -1.009885e+01 -1.267142e+01 -2.306645e+00 -1.437729e+00 -7.370841e+00 -3.752471e+00 -5.150107e-02 8.776458e-02 5.301944e-03 -1.024183e-01 -8.488264e-02 1.012158e-01 4.064948e-02 6.339052e-02 2.088062e-01 -1.578483e-01 -2.221519e-01 8.844089e-02 1.492733e-02 -4.773109e-02 -3.122672e-01 -2.981275e-01 -6.617776e-01 -1.428846e-01 2.809277e-01 -8.148457e-03 6.241455e-01 7.296515e-01 -9.449551e-02 -1.068777e-01 2.849772e-01 6.946667e-02
<VARIANCE> 39
 7.204583e+00 2.416854e+01 2.363730e+01 4.816511e+01 5.643778e+01 7.356757e+01 6.841355e+01 6.295724e+01 5.755219e+01 5.745006e+01 8.183443e+01 4.833994e+01 1.440875e+00 5.898968e-01 1.415406e+00 1.078352e+00 1.706597e+00 1.625487e+00 1.761406e+00 1.927490e+00 2.146967e+00 2.517673e+00 1.996895e+00 2.115748e+00 1.812252e+00 1.084472e-01 2.248699e-01 2.783480e-01 3.676299e-01 4.933459e-01 5.507314e-01 4.970194e-01 5.642580e-01 6.513650e-01 8.031363e-01 6.157129e-01 6.902571e-01 5.344889e-01 2.117800e-02
<GCONST> 1.086337e+02
<STATE> 4
<MEAN> 39
 -4.328774e+00 -4.157366e+00 -4.897474e+00 -5.496610e+00 -7.375145e+00 -6.232305e+00 -7.451875e+00 -7.828447e+00 -9.356894e+00 -3.441435e+00 -2.440143e+00 -5.741873e+00 -3.657228e+00 -4.420385e-01 -1.126068e+00 -7.226904e-01 -2.220866e+00 -5.792006e-01 7.967803e-01 -5.167377e-02 2.204757e+00 2.378524e+00 -3.415773e-01 -3.941702e-01 9.023248e-01 2.278585e-01 -2.357660e-01 -2.933097e-01 -1.440725e-02 -3.376387e-01 -1.232539e-01 1.334698e-01 5.229515e-02 4.399478e-01 2.482018e-01 1.027002e-01 6.558523e-02 1.526733e-01 5.372705e-02
<VARIANCE> 39
 1.490565e+01 3.257124e+01 3.094497e+01 5.333627e+01 4.938564e+01 5.879033e+01 5.858329e+01 5.643379e+01 6.544417e+01 4.767021e+01 6.228806e+01 3.903080e+01 3.422707e+00 3.119496e+00 3.240952e+00 4.119811e+00 5.308424e+00 5.908707e+00 4.371335e+00 4.857593e+00 5.015291e+00 5.644864e+00 4.606450e+00 5.239393e+00 3.791957e+00 4.192151e-01 3.833881e-01 4.351929e-01 5.116019e-01 7.290294e-01 6.820357e-01 5.549808e-01 6.540300e-01 7.510865e-01 9.934124e-01 6.345245e-01 6.661372e-01 5.221228e-01 3.336161e-02
<GCONST> 1.262643e+02
<TRANSP> 5
 0.000000e+00 1.000000e+00 0.000000e+00 0.000000e+00 0.000000e+00
 0.000000e+00 3.944692e-01 6.055307e-01 0.000000e+00 0.000000e+00
 0.000000e+00 0.000000e+00 6.757991e-01 3.242009e-01 0.000000e+00
 0.000000e+00 0.000000e+00 0.000000e+00 5.066924e-01 4.933076e-01
 0.000000e+00 0.000000e+00 0.000000e+00 0.000000e+00 0.000000e+00
<ENDHMM>
~h "n"
<BEGINHMM>
<NUMSTATES> 5
<STATE> 2
<MEAN> 39
 -4.143475e+00 -3.585916e+00 -2.114737e+00 -5.094023e+00 -1.195505e+01 -8.125360e+00 -4.489959e+00 -8.195340e+00 -9.092805e+00 -1.391390e+00 -5.824231e+00 -4.787556e+00 -3.887556e+00 4.264600e-02 1.292446e+00 1.288133e-01 1.036959e+00 1.183484e-01 -7.635642e-02 8.238811e-01 -1.772949e+00 -8.071742e-01 4.906790e-01 -3.775322e-01 -1.584545e-01 -2.927583e-01 -1.834968e-01 -2.131345e-01 -7.105478e-03 -3.533400e-01 5.921420e-02 1.487962e-01 -2.241321e-01 5.338145e-01 2.973067e-01 -2.332386e-01 1.186088e-01 1.050710e-01 4.749009e-02
<VARIANCE> 39
 8.091012e+00 2.609386e+01 2.856744e+01 4.706245e+01 5.056097e+01 4.901907e+01 5.262036e+01 7.175190e+01 5.735361e+01 5.288372e+01 5.194432e+01 4.775722e+01 1.730122e+00 7.155473e-01 1.930571e+00 2.504273e+00 2.683589e+00 3.057855e+00 3.140558e+00 3.469595e+00 5.745054e+00 4.188241e+00 3.143438e+00 2.717331e+00 2.318382e+00 9.589325e-02 1.615874e-01 2.705751e-01 3.647914e-01 4.304551e-01 5.328172e-01 5.287253e-01 5.153937e-01 7.855248e-01 6.267209e-01 5.160932e-01 4.652864e-01 4.199328e-01 1.263183e-02
<GCONST> 1.119379e+02
<STATE> 3
<MEAN> 39
 -3.967110e+00 -1.385581e+00 -2.240906e+00 -3.890749e+00 -1.214479e+01 -8.333720e+00 -3.512198e+00 -1.089418e+01 -1.058946e+01 -7.074806e-01 -6.504525e+00 -5.140150e+00 -4.173676e+00 -7.053557e-01 4.929263e-01 2.018601e-01 2.186788e-04 8.059050e-01 2.842220e-01 -2.663277e-01 4.694929e-01 1.701837e-01 -6.108673e-01 1.542716e-01 1.738781e-01 -2.306990e-01 -5.589094e-01 -7.054290e-01 -3.499008e-02 -6.914886e-01 2.144755e-01 3.077383e-01 -4.460980e-01 1.209063e+00 6.914436e-01 -3.180044e-01 3.285496e-01 2.203575e-01 7.898407e-02
<VARIANCE> 39
 8.343276e+00 2.948444e+01 2.550515e+01 4.617523e+01 5.447834e+01 4.860280e+01 5.760322e+01 6.850060e+01 5.392379e+01 5.593256e+01 5.881297e+01 5.061353e+01 1.867156e+00 1.448151e+00 2.873950e+00 2.188316e+00 2.987522e+00 3.427451e+00 2.916763e+00 3.310704e+00 4.940932e+00 3.791800e+00 3.008070e+00 2.698462e+00 2.560127e+00 1.743218e-01 4.233872e-01 5.294710e-01 6.950921e-01 7.530155e-01 1.047344e+00 8.539204e-01 9.384061e-01 1.078987e+00 9.971617e-01 8.811492e-01 7.691574e-01 7.067173e-01 3.325653e-02
<GCONST> 1.216867e+02
<STATE> 4
<MEAN> 39
 -8.135883e+00 -2.780344e+00 -1.775845e+00 -5.623023e+00 -8.926212e+00 -6.909046e+00 -5.445770e+00 -5.135538e+00 -7.230887e+00 -3.454664e+00 -4.965269e+00 -3.773806e+00 -5.099390e+00 -1.577925e+00 -8.259027e-01 -2.351815e-01 -9.560905e-01 7.604918e-01 7.682623e-01 -3.046262e-01 1.852695e+00 1.253182e+00 -3.716598e-01 6.281199e-01 5.123146e-01 -8.589382e-02 -1.245481e-01 -3.241333e-01 -1.954614e-01 -2.535120e-01 -1.770584e-01 8.220678e-02 1.000929e-01 1.805615e-01 1.940796e-01 2.199286e-01 1.244913e-01 7.270373e-02 1.219608e-01
<VARIANCE> 39
 2.901072e+01 4.455220e+01 3.443570e+01 5.411332e+01 5.734626e+01 4.381173e+01 4.924789e+01 6.058631e+01 5.615546e+01 4.534280e+01 4.016526e+01 3.550062e+01 5.212055e+00 4.786508e+00 3.884706e+00 4.006918e+00 5.104609e+00 6.122369e+00 4.600824e+00 5.283674e+00 6.226427e+00 5.449556e+00 4.454897e+00 4.124794e+00 3.676490e+00 4.860544e-01 5.934036e-01 6.909682e-01 5.325126e-01 7.413685e-01 7.844478e-01 7.223394e-01 7.662083e-01 9.883401e-01 8.664181e-01 6.828448e-01 5.914018e-01 5.348941e-01 5.830480e-02
<GCONST> 1.297323e+02
<TRANSP> 5
 0.000000e+00 1.000000e+00 0.000000e+00 0.000000e+00 0.000000e+00
 0.000000e+00 6.325725e-01 3.674275e-01 0.000000e+00 0.000000e+00
 0.000000e+00 0.000000e+00 3.840550e-01 6.159450e-01 0.000000e+00
 0.000000e+00 0.000000e+00 0.000000e+00 4.953500e-01 5.046500e-01
 0.000000e+00 0.000000e+00 0.000000e+00 0.000000e+00 0.000000e+00
<ENDHMM>
~h "p"
<BEGINHMM>
<NUMSTATES> 5
<STATE> 2
<MEAN> 39
 -1.836669e+01 -5.002589e-01 -4.363546e+00 -4.115490e-01 -2.244155e+00 -7.682416e-01 -2.395708e+00 -1.398806e+00 -1.993441e+00 -7.916214e-01 -9.962158e-01 -6.560367e-01 -9.970625e+00 -1.032301e+00 -8.087932e-01 -4.832109e-01 -2.246399e-01 2.082666e-02 2.621614e-01 6.663169e-01 6.399357e-01 7.287862e-01 4.380043e-01 2.518352e-01 3.516532e-01 -1.058924e-01 6.742214e-01 -5.430979e-01 -8.753829e-03 -7.518597e-01 -3.179710e-01 -4.004873e-01 -2.909794e-01 8.702542e-03 -2.686287e-02 -1.066723e-02 3.491417e-02 -5.314135e-02 5.976155e-01
<VARIANCE> 39
 1.201696e+01 1.026697e+01 9.675390e+00 9.403064e+00 9.118714e+00 1.103101e+01 1.359825e+01 1.623967e+01 1.715632e+01 1.506347e+01 1.331140e+01 1.201623e+01 1.161046e+00 5.527395e+00 2.727955e+00 2.023651e+00 3.463177e+00 2.216980e+00 2.975017e+00 2.842677e+00 2.725837e+00 2.918471e+00 2.344039e+00 2.138894e+00 1.803304e+00 1.376436e+00 7.228981e-01 6.323114e-01 5.244408e-01 5.737994e-01 5.312157e-01 5.281742e-01 5.552366e-01 6.058998e-01 5.714971e-01 4.879884e-01 4.663310e-01 3.490802e-01 7.559353e-02
<GCONST> 1.039582e+02
<STATE> 3
<MEAN> 39
 -1.654208e+01 -7.189876e+00 -5.607077e+00 -6.114026e+00 -3.425550e+00 -2.409080e+00 -1.774994e+00 -6.986444e-02 1.503519e-01 4.877076e-01 2.745361e-02 1.912731e-01 -6.014872e+00 9.889347e-01 -1.479012e+00 -2.857041e-01 -1.726918e+00 -2.640891e-01 -3.537528e-01 1.284934e-02 2.276351e-01 2.046731e-01 4.232127e-02 1.614947e-02 -1.885488e-02 1.155653e+00 4.320067e-01 4.659100e-01 -6.790957e-03 -8.846390e-02 -1.542840e-01 -3.805780e-02 -2.813001e-01 -2.742585e-01 -4.905857e-01 -2.882815e-01 -2.403614e-01 -2.389770e-01 -3.991994e-02
<VARIANCE> 39
 1.660633e+01 1.954509e+01 2.298969e+01 2.399795e+01 2.137586e+01 2.159154e+01 2.270742e+01 2.224519e+01 2.233102e+01 1.832119e+01 1.634066e+01 1.382806e+01 3.456952e+00 4.159602e+00 2.359764e+00 3.090970e+00 3.321112e+00 2.983176e+00 3.068098e+00 3.093425e+00 2.960097e+00 3.111679e+00 2.345516e+00 2.151228e+00 1.749534e+00 6.053874e-01 6.072313e-01 5.959728e-01 5.693977e-01 7.081457e-01 7.322757e-01 6.605651e-01 6.953070e-01 7.156385e-01 7.105097e-01 5.608917e-01 5.692429e-01 4.181127e-01 1.131052e-01
<GCONST> 1.127756e+02
<STATE> 4
<MEAN> 39
 -1.206456e+01 -7.518669e+00 -7.439421e+00 -8.865296e+00 -3.912778e+00 -2.287852e+00 -1.705445e+00 -5.496954e-01 -1.629999e+00 -1.174473e+00 -1.732551e+00 -1.453317e+00 -4.692409e+00 2.572655e+00 4.299353e-01 -2.902158e-01 -1.883851e+00 -1.336255e+00 -4.469428e-01 -1.078047e+00 -5.875108e-01 -1.196787e+00 -8.572850e-01 -5.250488e-01 -5.608833e-01 8.860301e-01 2.140243e-01 3.167189e-01 4.873314e-03 -8.388915e-02 -3.674441e-01 -3.262788e-02 -3.610517e-01 -7.893754e-02 -1.725759e-01 -3.137624e-02 1.074278e-01 4.747530e-03 -1.600947e-02
<VARIANCE> 39
 3.261022e+01 2.579862e+01 4.228003e+01 4.035453e+01 3.218218e+01 3.526111e+01 3.521653e+01 3.411148e+01 3.202609e+01 2.634334e+01 2.531565e+01 1.761494e+01 2.295657e+00 4.731484e+00 3.849981e+00 4.719862e+00 5.165374e+00 5.417945e+00 4.558839e+00 5.025713e+00 5.092962e+00 4.348329e+00 3.373842e+00 3.896713e+00 2.373501e+00 5.119098e-01 4.573211e-01 5.832888e-01 4.691609e-01 6.202194e-01 6.359061e-01 6.286501e-01 6.940275e-01 7.361795e-01 7.059089e-01 6.235657e-01 5.566624e-01 4.356897e-01 8.536733e-02
<GCONST> 1.215922e+02
<TRANSP> 5
 0.000000e+00 1.000000e+00 0.000000e+00 0.000000e+00 0.000000e+00
 0.000000e+00 7.621742e-01 2.378258e-01 0.000000e+00 0.000000e+00
 0.000000e+00 0.000000e+00 5.137251e-01 4.862749e-01 0.000000e+00
 0.000000e+00 0.000000e+00 0.000000e+00 5.922424e-01 4.077576e-01
 0.000000e+00 0.000000e+00 0.000000e+00 0.000000e+00 0.000000e+00
<ENDHMM>
~h "r"
<BEGINHMM>
<NUMSTATES> 5
<STATE> 2
<MEAN> 39
 2.785571e+00 -9.273768e+00 -1.589732e+01 -7.274809e+00 -3.711372e+00 -8.958223e+00 -1.679374e+01 -1.555118e+00 -1.622049e+00 -2.880602e+00 -8.640457e-01 1.229631e-02 -1.878972e+00 1.192476e+00 -6.923854e-01 -5.951753e-01 2.215440e-01 -3.241513e-02 -9.018000e-01 -1.744416e+00 6.310055e-01 6.444348e-01 -8.522648e-02 -6.769400e-02 1.330884e-01 3.404719e-01 -7.014114e-01 -2.450784e-01 6.584263e-01 9.563878e-02 -5.015587e-01 -4.019378e-02 6.116793e-01 3.795771e-01 -5.099495e-02 -1.829835e-02 4.163620e-02 -9.360124e-02 -6.699853e-02
<VARIANCE> 39
 1.329988e+01 3.492365e+01 5.339780e+01 3.966389e+01 4.852843e+01 6.997081e+01 7.695954e+01 8.938945e+01 7.569821e+01 4.071817e+01 3.735054e+01 3.011653e+01 2.373257e+00 3.726851e+00 2.542000e+00 3.530475e+00 3.220165e+00 4.166544e+00 4.401041e+00 5.269025e+00 5.454422e+00 4.257412e+00 3.565562e+00 2.867126e+00 2.265719e+00 3.051696e-01 5.301846e-01 3.429809e-01 4.448442e-01 4.027331e-01 5.169650e-01 6.541188e-01 9.091543e-01 8.244700e-01 6.277034e-01 5.720679e-01 4.566231e-01 4.323952e-01 2.337658e-02
<GCONST> 1.215177e+02
<STATE> 3
<MEAN> 39
 2.272511e+00 -1.436359e+01 -1.384287e+01 -5.428703e+00 -7.007328e+00 -1.356942e+01 -1.877916e+01 5.900328e+00 1.002351e+00 -3.710075e+00 -9.408550e-01 -4.598212e-01 -9.488454e-01 -6.186063e-01 -6.649396e-01 1.797333e+00 4.446688e-01 -1.628618e+00 -9.041681e-01 9.079495e-01 1.131229e+00 -4.356277e-01 -5.626609e-01 8.047851e-02 -3.497836e-02 3.110926e-03 -4.965515e-01 3.121183e-01 6.201279e-01 -2.272951e-01 -2.843395e-01 4.349743e-01 8.653357e-01 -4.227846e-01 -5.388950e-01 3.342331e-02 1.342563e-01 -1.027920e-01 -1.138119e-01
<VARIANCE> 39
 8.848228e+00 2.326605e+01 5.656201e+01 4.034342e+01 5.983708e+01 8.032242e+01 1.019179e+02 8.290952e+01 8.811391e+01 4.796209e+01 4.243052e+01 3.006214e+01 1.110851e+00 7.375900e-01 1.833174e+00 2.961352e+00 2.549017e+00 3.447093e+00 3.501763e+00 4.272829e+00 5.144598e+00 3.699414e+00 3.080325e+00 2.880784e+00 2.246581e+00 1.393581e-01 3.047768e-01 2.119040e-01 3.004709e-01 3.771784e-01 5.226540e-01 5.292792e-01 7.216181e-01 6.545624e-01 5.715042e-01 5.036318e-01 4.057188e-01 3.888766e-01 1.625994e-02
<GCONST> 1.139327e+02
<STATE> 4
<MEAN> 39
 -1.047655e+00 -1.337420e+01 -8.176278e+00 -5.452573e+00 -1.103772e+01 -1.438267e+01 -1.288103e+01 5.021441e+00 -2.649611e+00 -3.621598e+00 -1.266214e+00 -9.980225e-01 -1.841991e+00 -1.743289e+00 1.046799e+00 2.596313e+00 2.355550e-02 -1.058345e+00 7.739851e-01 2.130740e+00 -1.121297e+00 -1.244884e+00 -1.265435e-02 6.764031e-02 -3.907827e-01 -4.818840e-01 -3.667834e-01 4.049270e-01 -5.763910e-02 -3.363498e-01 3.899465e-01 6.991385e-01 2.043483e-01 -4.556222e-01 -1.028906e-01 2.049714e-01 1.438188e-02 -1.543750e-01 -8.900345e-02
<VARIANCE> 39
 1.504124e+01 3.602115e+01 6.218041e+01 5.549414e+01 6.847816e+01 8.561664e+01 1.022609e+02 8.206676e+01 9.281989e+01 5.847914e+01 5.183636e+01 3.441626e+01 3.496130e+00 2.374998e+00 3.596003e+00 3.355750e+00 5.203564e+00 5.922910e+00 4.799038e+00 5.766040e+00 6.266380e+00 5.116310e+00 4.020869e+00 3.849106e+00 3.115796e+00 4.727784e-01 3.953924e-01 4.647501e-01 4.452942e-01 7.031545e-01 7.178392e-01 7.732853e-01 1.004521e+00 1.082268e+00 8.198777e-01 7.030464e-01 6.728258e-01 5.268683e-01 3.874545e-02
<GCONST> 1.296668e+02
<TRANSP> 5
 0.000000e+00 1.000000e+00 0.000000e+00 0.000000e+00 0.000000e+00
 0.000000e+00 5.678170e-01 4.321830e-01 0.000000e+00 0.000000e+00
 0.000000e+00 0.000000e+00 5.330552e-01 4.669448e-01 0.000000e+00
 0.000000e+00 0.000000e+00 0.000000e+00 4.529436e-01 5.470564e-01
 0.000000e+00 0.000000e+00 0.000000e+00 0.000000e+00 0.000000e+00
<ENDHMM>
~h "s"
<BEGINHMM>
<NUMSTATES> 5
<STATE> 2
<MEAN> 39
 -2.435820e+01 7.635173e-01 -5.322371e+00 -7.826985e+00 -1.065544e+00 -5.384184e+00 -1.903014e+00 8.265176e-01 -1.829252e+00 -1.572739e+00 -2.107795e+00 -5.103933e-01 -3.445235e+00 -4.230086e+00 9.683653e-01 -8.321596e-01 -1.687746e-02 1.612561e+00 1.152310e+00 1.119835e+00 9.628732e-01 3.724883e-01 3.334784e-01 8.935153e-01 6.043708e-01 1.898579e-01 8.366452e-01 -4.645124e-01 -7.888554e-02 -7.829629e-02 -4.972941e-01 -1.161122e-01 -3.745056e-01 -1.472828e-01 -7.928750e-02 8.737204e-02 -9.970406e-02 -1.274289e-01 7.951858e-02
<VARIANCE> 39
 4.101050e+01 2.352562e+01 3.747411e+01 3.275597e+01 3.415639e+01 3.499282e+01 3.164552e+01 2.980239e+01 2.464683e+01 2.367239e+01 1.872410e+01 1.539317e+01 1.993055e+00 4.595593e+00 2.975405e+00 3.421375e+00 4.086309e+00 3.621005e+00 4.126378e+00 3.930965e+00 3.552829e+00 3.559631e+00 3.450400e+00 2.978387e+00 2.254784e+00 2.231685e-01 7.941830e-01 5.235921e-01 5.741974e-01 6.552129e-01 6.167930e-01 7.156901e-01 7.088972e-01 6.722659e-01 5.430571e-01 5.481931e-01 5.100394e-01 4.442053e-01 4.618711e-02
<GCONST> 1.166408e+02
<STATE> 3
<MEAN> 39
 -2.997960e+01 1.805223e+00 -8.666598e+00 -7.206561e+00 3.854355e-01 -3.771589e+00 -6.808829e-01 1.772915e+00 -1.254902e+00 -3.853931e-01 -8.603641e-01 3.767355e-01 -2.682086e+00 -3.749903e-02 -8.850121e-02 -7.733624e-04 -7.345024e-02 -4.948296e-02 -2.414506e-03 -3.975506e-02 1.503859e-02 5.869178e-02 3.658836e-02 7.510577e-05 -1.218129e-04 -2.269349e-02 6.087091e-01 -1.886312e-01 2.362057e-01 -3.135594e-02 -2.205930e-01 -1.649094e-01 -1.709823e-01 -1.353846e-01 -2.366915e-02 -6.445603e-02 -1.103086e-01 -9.088798e-02 -9.628420e-02
<VARIANCE> 39
 7.085066e+00 1.859492e+01 3.000660e+01 3.708513e+01 3.191098e+01 2.711557e+01 2.382192e+01 2.073677e+01 1.598186e+01 1.475646e+01 1.320788e+01 1.108946e+01 1.809754e+00 7.759030e-01 1.102028e+00 1.134115e+00 1.229274e+00 1.343391e+00 1.488621e+00 1.378023e+00 1.400200e+00 1.344469e+00 1.261969e+00 1.141913e+00 1.025537e+00 7.417152e-02 3.456545e-01 2.121304e-01 2.506056e-01 2.968912e-01 3.071359e-01 3.450871e-01 3.331507e-01 3.282738e-01 3.062444e-01 2.907405e-01 2.647160e-01 2.282972e-01 1.712905e-02
<GCONST> 8.823215e+01
<STATE> 4
<MEAN> 39
 -2.382136e+01 -1.490802e+00 -5.144982e+00 -8.376796e+00 -1.941595e+00 -5.223847e+00 -3.301564e+00 7.726283e-01 -8.849566e-01 -7.089179e-01 -1.690791e+00 -6.190075e-01 -4.042181e+00 3.561049e+00 -1.078632e+00 8.116833e-01 1.437529e-01 -1.452915e+00 -5.403666e-01 -1.185950e+00 -8.874931e-01 -2.260306e-01 -4.477295e-02 -3.129864e-01 -4.847209e-01 -4.253691e-01 5.106039e-01 -1.845075e-01 -9.252339e-02 -9.424555e-04 -2.909191e-01 1.691985e-02 -1.627643e-01 -8.042831e-02 -1.303905e-01 3.082114e-02 2.950175e-02 -5.896811e-02 5.009549e-02
<VARIANCE> 39
 5.171542e+01 2.763109e+01 3.647140e+01 3.185419e+01 3.950679e+01 4.150710e+01 3.739409e+01 3.034831e+01 2.507041e+01 2.271842e+01 1.929257e+01 1.696296e+01 4.016108e+00 5.415795e+00 2.976742e+00 3.763668e+00 4.904371e+00 4.637877e+00 5.253446e+00 5.108024e+00 3.642233e+00 3.418028e+00 2.817303e+00 2.940953e+00 2.258707e+00 7.367004e-01 9.740870e-01 5.398104e-01 5.782884e-01 6.823488e-01 7.118948e-01 7.797537e-01 8.630370e-01 6.926032e-01 5.731269e-01 5.029853e-01 5.099123e-01 4.022187e-01 1.017102e-01
<GCONST> 1.218375e+02
<TRANSP> 5
 0.000000e+00 1.000000e+00 0.000000e+00 0.000000e+00 0.000000e+00
 0.000000e+00 6.467955e-01 3.532046e-01 0.000000e+00 0.000000e+00
 0.000000e+00 0.000000e+00 8.224763e-01 1.775237e-01 0.000000e+00
 0.000000e+00 0.000000e+00 0.000000e+00 7.104261e-01 2.895739e-01
 0.000000e+00 0.000000e+00 0.000000e+00 0.000000e+00 0.000000e+00
<ENDHMM>
~h "t"
<BEGINHMM>
<NUMSTATES> 5
<STATE> 2
<MEAN> 39
 -1.957882e+01 -8.744725e-01 -4.255098e+00 -8.886025e-01 -2.378086e+00 -9.910638e-01 -2.421073e+00 -1.284210e+00 -2.138858e+00 -1.042782e+00 -1.267970e+00 -8.633816e-01 -9.769414e+00 -7.539257e-01 -1.429425e+00 -5.822315e-01 -9.846635e-01 9.103045e-02 4.462811e-01 4.452044e-01 5.926871e-01 5.858446e-01 4.994828e-01 6.018116e-01 4.581722e-01 2.092441e-01 2.775190e-01 -3.687771e-01 1.214887e-01 -8.746100e-01 -4.237326e-01 -5.354793e-01 -2.180813e-01 3.931341e-02 -7.766030e-02 -3.337806e-02 -2.433751e-02 3.276618e-02 6.334098e-01
<VARIANCE> 39
 1.483157e+01 1.267694e+01 1.514250e+01 1.543401e+01 1.333183e+01 1.457614e+01 1.677172e+01 1.723189e+01 1.755693e+01 1.632475e+01 1.481342e+01 1.264518e+01 2.471697e+00 4.066113e+00 3.656767e+00 3.321542e+00 5.364856e+00 3.331555e+00 3.474000e+00 3.192771e+00 3.239425e+00 3.197117e+00 2.599233e+00 2.297318e+00 1.957375e+00 1.434104e+00 4.912629e-01 6.580163e-01 5.671898e-01 7.197487e-01 5.627598e-01 5.320957e-01 5.534303e-01 5.615584e-01 5.347586e-01 4.796115e-01 4.385326e-01 3.617936e-01 1.025612e-01
<GCONST> 1.095669e+02
<STATE> 3
<MEAN> 39
 -2.013910e+01 -8.112690e+00 -5.311806e+00 -1.001935e+01 -3.737503e+00 -2.470364e+00 -2.591367e+00 6.222085e-02 -1.116841e+00 5.193788e-02 3.691479e-01 4.630600e-01 -4.774362e+00 -4.780469e-01 -5.348651e-01 -7.543119e-02 -2.035050e+00 -6.330874e-01 -1.112211e+00 1.852113e-01 4.810068e-01 9.738536e-02 1.145641e-01 2.237754e-01 3.624960e-01 1.298531e+00 4.388348e-01 6.010135e-01 2.962008e-01 5.973414e-01 -2.211260e-01 -3.012210e-01 -6.472218e-02 -1.450490e-01 -2.670078e-01 -2.304317e-01 -3.523932e-01 -2.233261e-01 -1.688557e-01
<VARIANCE> 39
 2.549589e+01 3.687620e+01 3.511531e+01 3.555147e+01 3.127196e+01 3.074046e+01 2.950403e+01 2.546539e+01 2.319505e+01 2.138834e+01 1.908263e+01 1.585343e+01 4.390452e+00 3.588374e+00 3.282705e+00 3.009189e+00 3.629952e+00 2.965677e+00 3.236908e+00 3.316545e+00 2.954739e+00 3.090802e+00 2.500729e+00 2.184082e+00 1.951811e+00 7.034737e-01 6.296764e-01 6.831720e-01 7.796082e-01 9.490586e-01 8.042734e-01 7.644956e-01 7.324937e-01 6.886526e-01 6.814401e-01 6.007286e-01 5.501736e-01 4.568759e-01 1.687601e-01
<GCONST> 1.187172e+02
<STATE> 4
<MEAN> 39
 -1.907871e+01 -5.773982e+00 -3.239383e+00 -9.090202e+00 -5.557352e+00 -6.143072e+00 -1.342519e+00 6.330673e-01 -2.416987e+00 -1.190393e+00 -1.791281e+00 -6.900794e-02 -3.945875e+00 2.754731e+00 -2.550472e-01 7.871630e-01 4.268219e-01 -1.224661e+00 -8.536162e-01 -9.260240e-01 -4.856528e-01 -7.772245e-01 -5.762344e-01 -8.200416e-01 -7.404556e-01 2.043250e-01 7.130890e-01 -1.211040e-01 1.762756e-02 5.596108e-02 -2.645418e-01 1.514204e-01 -4.789572e-01 -1.994682e-01 -1.920413e-01 -3.808282e-02 4.013468e-02 -2.057514e-01 -4.112109e-02
<VARIANCE> 39
 4.187829e+01 2.519507e+01 3.080283e+01 2.569236e+01 2.629080e+01 2.767443e+01 3.458850e+01 3.226283e+01 2.767201e+01 2.476469e+01 2.321378e+01 1.836777e+01 1.831980e+00 4.812780e+00 2.806363e+00 4.121829e+00 3.802237e+00 4.315011e+00 4.458473e+00 5.187483e+00 3.876328e+00 3.773579e+00 3.103621e+00 3.220800e+00 2.428766e+00 3.507008e-01 7.228898e-01 4.822910e-01 5.408797e-01 8.307336e-01 5.952080e-01 7.008840e-01 7.640604e-01 7.090846e-01 6.091453e-01 5.796626e-01 5.914574e-01 4.638028e-01 1.202372e-01
<GCONST> 1.190994e+02
<TRANSP> 5
 0.000000e+00 1.000000e+00 0.000000e+00 0.000000e+00 0.000000e+00
 0.000000e+00 6.407269e-01 3.592730e-01 0.000000e+00 0.000000e+00
 0.000000e+00 0.000000e+00 5.617923e-01 4.382078e-01 0.000000e+00
 0.000000e+00 0.000000e+00 0.000000e+00 7.390879e-01 2.609121e-01
 0.000000e+00 0.000000e+00 0.000000e+00 0.000000e+00 0.000000e+00
<ENDHMM>
~h "v"
<BEGINHMM>
<NUMSTATES> 5
<STATE> 2
<MEAN> 39
 -6.522872e+00 -2.759876e+00 -6.292463e+00 -5.794801e+00 -5.143697e+00 -5.737349e+00 -9.228714e+00 -6.751943e+00 -5.430376e+00 -1.647047e+00 -1.638776e+00 -3.609522e+00 -4.727352e+00 -2.398894e+00 1.704794e+00 6.311752e-01 1.685992e+00 1.410985e+00 9.075492e-01 9.626753e-01 -3.295040e-01 -4.468448e-01 -8.258924e-01 -5.634440e-01 2.126908e-01 -8.916858e-01 -1.299130e-01 -6.370546e-01 5.850346e-02 -4.191645e-01 -4.265627e-01 -2.960346e-02 1.466863e-01 6.031337e-01 3.253776e-01 1.354806e-01 -6.880125e-02 -2.044846e-02 1.920452e-01
<VARIANCE> 39
 2.211873e+01 1.950097e+01 2.224224e+01 2.529451e+01 1.892192e+01 3.397614e+01 2.785264e+01 2.690730e+01 2.499636e+01 2.751135e+01 3.329130e+01 2.092666e+01 2.306625e+00 3.406033e+00 2.599159e+00 2.438183e+00 3.130977e+00 2.640642e+00 3.791008e+00 3.590989e+00 4.318760e+00 3.177485e+00 2.914866e+00 3.014060e+00 2.258615e+00 2.170077e-01 3.734348e-01 4.112397e-01 3.757013e-01 4.538084e-01 4.248100e-01 5.068811e-01 5.740519e-01 5.752227e-01 5.500534e-01 5.066520e-01 4.635077e-01 4.050679e-01 3.478726e-02
<GCONST> 1.103569e+02
<STATE> 3
<MEAN> 39
 -1.405648e+01 -1.841187e+00 -4.399238e+00 -3.017244e+00 -3.001718e+00 -3.310489e+00 -5.323968e+00 -4.345842e+00 -5.070846e+00 -3.161888e+00 -3.436819e+00 -2.963120e+00 -6.317033e+00 -1.206876e+00 -4.670163e-01 -1.061543e-01 -4.531373e-03 -1.499700e-02 7.475680e-02 5.689527e-01 6.594377e-01 4.618860e-01 6.885672e-02 2.700849e-02 2.946712e-01 -5.915423e-02 1.029104e+00 -6.372311e-01 -3.307945e-01 -8.177426e-01 -6.504117e-01 -4.366101e-01 -3.856150e-01 1.365899e-01 1.952286e-01 3.402515e-01 2.419300e-01 5.802995e-03 3.891915e-01
<VARIANCE> 39
 4.378540e+01 2.131680e+01 2.131187e+01 2.457550e+01 1.933515e+01 2.394551e+01 2.718358e+01 2.643332e+01 2.487740e+01 2.329378e+01 2.223047e+01 1.802360e+01 2.862363e+00 5.410708e+00 2.086661e+00 2.006045e+00 2.844113e+00 2.163856e+00 2.791217e+00 2.649143e+00 2.659773e+00 2.329010e+00 2.225011e+00 2.146695e+00 1.683147e+00 3.811094e-01 6.653455e-01 6.673343e-01 5.648978e-01 6.613135e-01 5.518101e-01 6.914754e-01 6.762213e-01 8.707883e-01 6.910629e-01 5.950933e-01 5.375095e-01 4.355323e-01 5.134754e-02
<GCONST> 1.121809e+02
<STATE> 4
<MEAN> 39
 -1.138728e+01 -4.417126e+00 -6.698877e+00 -6.459285e+00 -5.907204e+00 -5.661148e+00 -6.142781e+00 -3.583869e+00 -3.488693e+00 -1.498880e+00 -1.868865e+00 -2.334275e+00 -5.029850e+00 1.309489e+00 -1.062010e+00 -3.831088e-01 -1.248722e+00 -1.029141e+00 -6.144407e-01 -4.481035e-01 5.836388e-01 4.457999e-01 4.383780e-01 3.592008e-01 1.330070e-01 5.760573e-01 4.079159e-01 -1.769264e-01 9.335788e-02 -2.038646e-01 -1.811587e-01 -7.710886e-03 -2.033948e-01 1.116308e-01 -3.100194e-02 2.515978e-02 -2.208064e-02 -6.658220e-02 1.172981e-01
<VARIANCE> 39
 6.056768e+01 2.356198e+01 3.291103e+01 3.699393e+01 3.143568e+01 3.745258e+01 3.572704e+01 3.174561e+01 3.235309e+01 2.531028e+01 2.585712e+01 2.104646e+01 4.415552e+00 6.783306e+00 3.572054e+00 3.728811e+00 5.009033e+00 4.222630e+00 4.847262e+00 4.768384e+00 4.695127e+00 4.061518e+00 3.227355e+00 2.975298e+00 2.508270e+00 6.632913e-01 6.913579e-01 5.468584e-01 4.280230e-01 6.471123e-01 6.011847e-01 6.656126e-01 6.261333e-01 6.719452e-01 5.682850e-01 5.355840e-01 4.821138e-01 3.886113e-01 6.772935e-02
<GCONST> 1.214625e+02
<TRANSP> 5
 0.000000e+00 1.000000e+00 0.000000e+00 0.000000e+00 0.000000e+00
 0.000000e+00 4.604213e-01 5.395787e-01 0.000000e+00 0.000000e+00
 0.000000e+00 0.000000e+00 5.236859e-01 4.763141e-01 0.000000e+00
 0.000000e+00 0.000000e+00 0.000000e+00 3.880334e-01 6.119666e-01
 0.000000e+00 0.000000e+00 0.000000e+00 0.000000e+00 0.000000e+00
<ENDHMM>
~h "w"
<BEGINHMM>
<NUMSTATES> 5
<STATE> 2
<MEAN> 39
 -1.957980e+00 7.446017e-01 -8.132688e+00 -1.302596e+01 -1.142783e+01 -2.784717e+00 -4.627187e+00 -3.423199e+00 -7.834631e+00 -3.328674e+00 -2.086948e+00 -3.308736e+00 -4.494806e+00 2.560228e+00 4.251706e-01 -1.845486e-01 -2.441156e+00 -1.897523e+00 2.671402e-01 -3.822789e-01 -1.854786e-01 -1.113648e+00 -4.780576e-01 3.282323e-01 -1.753324e-01 9.896656e-01 -5.471734e-01 -7.218542e-01 -9.783292e-02 6.540053e-02 2.025438e-01 8.245023e-02 -2.331879e-01 1.480662e-01 2.990160e-01 3.485333e-01 2.035006e-01 5.969796e-02 9.920437e-03
<VARIANCE> 39
 2.630106e+01 3.501513e+01 2.808091e+01 4.838060e+01 4.706499e+01 3.965437e+01 3.978230e+01 4.086003e+01 4.340158e+01 3.278133e+01 4.048327e+01 2.510025e+01 5.008006e+00 4.167538e+00 4.243540e+00 3.110815e+00 4.928799e+00 4.436831e+00 4.451849e+00 5.664680e+00 4.901438e+00 4.745455e+00 4.824306e+00 4.605118e+00 2.875196e+00 8.092951e-01 5.976806e-01 6.210382e-01 5.365876e-01 8.423975e-01 9.427865e-01 8.393508e-01 8.198151e-01 7.872587e-01 8.306135e-01 8.116305e-01 6.692418e-01 5.311547e-01 6.749158e-02
<GCONST> 1.272682e+02
<STATE> 3
<MEAN> 39
 1.737380e+00 -1.243045e+00 -9.158397e+00 -2.031887e+01 -1.608839e+01 9.431897e-02 -4.894154e+00 -1.888739e+00 -8.984952e+00 -4.174208e+00 1.046852e-01 -2.759011e+00 -1.965142e+00 7.992694e-02 -1.534935e+00 -7.238387e-01 -7.617295e-01 5.841676e-01 1.003757e+00 -8.066307e-01 -3.498938e-01 -1.149300e-01 7.181011e-01 1.048166e+00 3.371614e-01 4.482692e-01 -4.578546e-01 -4.292854e-01 7.957731e-03 7.187684e-01 6.221231e-01 -2.553976e-01 -3.505444e-01 -9.508064e-02 4.461498e-01 4.580956e-01 -2.197707e-02 -1.685932e-01 -1.024356e-01
<VARIANCE> 39
 6.356766e+00 2.921379e+01 3.113542e+01 4.682483e+01 4.981174e+01 5.843132e+01 5.119882e+01 5.763665e+01 5.594005e+01 4.656799e+01 5.544820e+01 3.595893e+01 1.627867e+00 6.344541e-01 2.779706e+00 1.771621e+00 2.712876e+00 4.117620e+00 3.796762e+00 4.381160e+00 3.715075e+00 3.297145e+00 4.407356e+00 3.726306e+00 2.677655e+00 1.454960e-01 3.141013e-01 2.800215e-01 3.322184e-01 6.584697e-01 5.712649e-01 7.975942e-01 6.768134e-01 7.215822e-01 9.164054e-01 7.245862e-01 6.990304e-01 6.114485e-01 3.877195e-02
<GCONST> 1.168649e+02
<STATE> 4
<MEAN> 39
 3.319857e-02 -9.609822e+00 -1.157870e+01 -1.747364e+01 -9.399479e+00 5.071442e-02 -1.234381e+01 -4.951724e+00 -6.969737e+00 3.299223e+00 3.311740e+00 -4.373708e+00 -7.811595e-01 -8.392565e-01 -2.115017e+00 4.420250e-01 1.783212e+00 8.091827e-01 -1.964867e+00 -1.884678e+00 9.810266e-01 2.482370e+00 1.286300e+00 -9.195911e-01 -1.252673e+00 2.216932e-01 -2.625217e-01 4.490545e-01 5.292400e-01 4.299332e-01 -4.631416e-01 -6.695271e-01 6.099445e-01 6.260744e-01 2.494386e-01 -7.881730e-01 -7.861434e-01 8.823357e-02 -1.741810e-01
<VARIANCE> 39
 9.235463e+00 2.635709e+01 3.665002e+01 5.836065e+01 5.508057e+01 7.983882e+01 7.579375e+01 6.492480e+01 7.181380e+01 6.673983e+01 9.822683e+01 4.489500e+01 1.303387e+00 5.066838e-01 1.430066e+00 2.196492e+00 2.395086e+00 3.677552e+00 3.991490e+00 4.513506e+00 4.897481e+00 3.346051e+00 5.093718e+00 4.226143e+00 3.041528e+00 5.262425e-02 2.180275e-01 2.779130e-01 3.125990e-01 6.503986e-01 7.410647e-01 8.785540e-01 9.345649e-01 7.310185e-01 1.098656e+00 9.211773e-01 9.370422e-01 7.815145e-01 2.117895e-02
<GCONST> 1.190657e+02
<TRANSP> 5
 0.000000e+00 1.000000e+00 0.000000e+00 0.000000e+00 0.000000e+00
 0.000000e+00 6.504211e-01 3.495789e-01 0.000000e+00 0.000000e+00
 0.000000e+00 0.000000e+00 6.771770e-01 3.228230e-01 0.000000e+00
 0.000000e+00 0.000000e+00 0.000000e+00 5.734270e-01 4.265729e-01
 0.000000e+00 0.000000e+00 0.000000e+00 0.000000e+00 0.000000e+00
<ENDHMM>
~h "y"
<BEGINHMM>
<NUMSTATES> 5
<STATE> 2
<MEAN> 39
 -1.051035e+01 -3.179611e+00 1.179099e+01 -9.919838e+00 -1.453998e+01 -6.860465e+00 -9.189870e+00 -5.576797e+00 -1.138509e+01 -4.962054e+00 -2.913393e+00 -3.258502e+00 -3.601723e+00 9.633847e-01 -2.151463e-01 2.161205e+00 -6.707020e-01 -1.795798e+00 -2.981850e-02 -1.105761e+00 4.855923e-02 -1.342680e+00 -6.678300e-01 2.864897e-01 -3.131311e-01 3.776722e-01 -1.433332e-01 -2.275432e-01 -8.087317e-01 1.837646e-01 2.516936e-01 -7.617178e-02 1.556670e-01 3.005795e-01 3.437712e-01 2.415240e-01 1.247178e-01 8.329400e-02 -1.558369e-02
<VARIANCE> 39
 2.200992e+01 3.380239e+01 3.535123e+01 8.644417e+01 4.062810e+01 4.818930e+01 3.968729e+01 5.177972e+01 3.986304e+01 4.614099e+01 5.409288e+01 2.633445e+01 2.245461e+00 4.915910e+00 2.666357e+00 3.468929e+00 4.748480e+00 4.901643e+00 5.521130e+00 5.112643e+00 3.827838e+00 4.463935e+00 5.047511e+00 3.602382e+00 2.488962e+00 2.217387e-01 4.345134e-01 4.103387e-01 4.800583e-01 7.047840e-01 7.400911e-01 8.057907e-01 7.127668e-01 6.730474e-01 5.889280e-01 5.808073e-01 4.631709e-01 3.514001e-01 2.520790e-02
<GCONST> 1.219302e+02
<STATE> 3
<MEAN> 39
 -9.572491e+00 -5.307478e+00 1.383209e+01 -1.086023e+01 -1.882491e+01 -7.026036e+00 -9.693362e+00 -5.121009e+00 -1.332710e+01 -4.083577e+00 -1.914864e+00 -3.843589e+00 -2.664286e+00 4.311174e-01 -6.931466e-01 -5.319855e-01 4.757881e-01 -7.166292e-01 -8.937145e-01 1.692915e-01 6.011059e-01 -2.565830e-01 1.059503e-01 5.250427e-01 8.476879e-02 1.845817e-01 3.432773e-02 -5.496610e-02 -5.763683e-01 2.020665e-01 3.518750e-01 -2.598126e-01 4.226221e-03 1.954004e-01 2.692097e-01 7.907442e-03 -3.512707e-02 9.767209e-02 -3.253818e-02
<VARIANCE> 39
 1.193495e+01 2.595253e+01 3.323339e+01 9.442310e+01 3.743538e+01 4.916487e+01 4.040995e+01 5.353714e+01 4.191159e+01 6.755979e+01 6.928485e+01 3.428650e+01 1.376550e+00 6.847322e-01 9.751598e-01 1.331019e+00 1.299161e+00 1.433565e+00 2.236772e+00 2.475759e+00 2.060163e+00 1.605829e+00 1.729868e+00 1.337494e+00 1.080301e+00 5.513936e-02 1.649793e-01 1.464273e-01 3.226282e-01 2.828555e-01 4.561059e-01 3.682383e-01 3.812674e-01 3.209273e-01 4.171735e-01 4.465418e-01 2.898794e-01 2.340519e-01 8.463575e-03
<GCONST> 9.898777e+01
<STATE> 4
<MEAN> 39
 -6.124772e+00 -9.622689e+00 6.884224e+00 -6.018901e+00 -1.919689e+01 -1.368445e+01 -9.943856e+00 1.592423e+00 -1.157856e+01 -5.973513e+00 1.105414e+00 -1.736159e+00 -1.975275e+00 9.178421e-01 -5.554067e-01 -2.584515e+00 5.128974e-01 1.470462e+00 -1.061900e+00 -1.427138e+00 1.143902e+00 1.683626e+00 -3.745263e-02 -5.579094e-01 2.793741e-01 1.087462e-01 -5.025176e-02 3.304873e-01 -3.155724e-01 -3.863323e-01 6.336915e-01 7.715018e-01 -2.385188e-01 -6.446638e-01 4.236013e-01 4.266669e-01 -3.544357e-01 -2.829782e-01 -7.164145e-02
<VARIANCE> 39
 1.145073e+01 2.280955e+01 4.261754e+01 6.608734e+01 3.579612e+01 5.219831e+01 6.414777e+01 4.972765e+01 6.030015e+01 7.011447e+01 5.852628e+01 3.143433e+01 1.338969e+00 4.754903e-01 8.351327e-01 1.809657e+00 1.682372e+00 2.044926e+00 2.571151e+00 3.124384e+00 2.862012e+00 2.607402e+00 2.786885e+00 2.071129e+00 1.740685e+00 4.942656e-02 1.281773e-01 1.376795e-01 3.394450e-01 3.116021e-01 4.317280e-01 4.805582e-01 6.013281e-01 5.051114e-01 5.559810e-01 5.596246e-01 3.698221e-01 3.052760e-01 5.656925e-03
<GCONST> 1.036720e+02
<TRANSP> 5
 0.000000e+00 1.000000e+00 0.000000e+00 0.000000e+00 0.000000e+00
 0.000000e+00 6.189248e-01 3.810752e-01 0.000000e+00 0.000000e+00
 0.000000e+00 0.000000e+00 7.461704e-01 2.538296e-01 0.000000e+00
 0.000000e+00 0.000000e+00 0.000000e+00 5.775190e-01 4.224810e-01
 0.000000e+00 0.000000e+00 0.000000e+00 0.000000e+00 0.000000e+00
<ENDHMM>
~h "z"
<BEGINHMM>
<NUMSTATES> 5
<STATE> 2
<MEAN> 39
 -1.932246e+01 4.281902e+00 -2.484409e+00 -7.629641e+00 -2.668216e+00 -9.112829e+00 -7.559621e+00 -3.561772e+00 -3.673529e+00 -3.159946e+00 -4.134879e+00 -1.687829e+00 -3.667419e+00 -4.252376e+00 1.257409e+00 -7.083814e-01 1.318863e-01 2.246300e+00 1.601018e+00 1.645351e+00 1.286309e+00 6.309295e-01 2.541443e-01 6.170193e-01 3.917008e-01 -6.651764e-02 4.445480e-01 -8.505440e-01 -9.233870e-02 -5.622541e-02 -4.678675e-01 1.530719e-01 5.576703e-02 2.387513e-01 3.323712e-02 1.891231e-01 1.433054e-01 1.775094e-02 1.137219e-01
<VARIANCE> 39
 3.907043e+01 2.538535e+01 4.019910e+01 3.740765e+01 4.418126e+01 4.932898e+01 4.254195e+01 3.532423e+01 3.129053e+01 3.205201e+01 2.050453e+01 1.981140e+01 1.662086e+00 2.859856e+00 4.186997e+00 3.037933e+00 4.660748e+00 3.447232e+00 4.512412e+00 3.861806e+00 3.665288e+00 3.438194e+00 3.112508e+00 2.705648e+00 2.577684e+00 1.835112e-01 8.305621e-01 4.957130e-01 5.308580e-01 6.757134e-01 6.931773e-01 8.443921e-01 7.391511e-01 7.328669e-01 5.732773e-01 5.721419e-01 4.636806e-01 4.666823e-01 1.763189e-02
<GCONST> 1.177199e+02
<STATE> 3
<MEAN> 39
 -2.850157e+01 1.853667e+00 -6.407413e+00 -8.056935e+00 6.046673e-01 -4.229578e+00 -1.826034e+00 1.353221e+00 -1.179142e+00 -9.143342e-01 -1.392474e+00 -1.578125e-01 -3.352808e+00 -4.415997e-02 -6.994084e-01 -2.478680e-01 -1.289870e-01 -1.751853e-01 7.007249e-02 1.414447e-01 2.449786e-01 2.442936e-01 1.863353e-01 1.611177e-01 8.600810e-02 -6.277922e-02 1.072266e+00 -2.157687e-01 2.538622e-01 2.158512e-02 -4.519747e-01 -3.627553e-01 -4.556270e-01 -3.811299e-01 -1.481434e-01 -9.839972e-02 -1.820692e-01 -1.314084e-01 -1.032050e-01
<VARIANCE> 39
 1.248182e+01 2.524562e+01 3.973549e+01 3.790032e+01 3.177479e+01 3.340528e+01 3.540944e+01 2.506163e+01 2.063097e+01 1.837464e+01 1.570641e+01 1.325253e+01 1.854699e+00 2.830577e+00 1.569191e+00 1.854999e+00 1.732561e+00 2.041951e+00 2.599811e+00 2.444284e+00 2.144457e+00 1.952492e+00 1.733112e+00 1.547479e+00 1.305011e+00 1.378081e-01 5.886371e-01 3.362924e-01 3.784326e-01 4.723607e-01 5.046502e-01 5.847948e-01 5.616883e-01 4.779706e-01 4.276384e-01 3.868019e-01 3.581222e-01 3.007518e-01 3.061099e-02
<GCONST> 1.029304e+02
<STATE> 4
<MEAN> 39
 -1.953076e+01 -2.180591e+00 -4.401111e+00 -8.017460e+00 -3.496023e+00 -6.752540e+00 -5.643895e+00 -1.015095e+00 -1.170015e+00 -9.695143e-01 -2.374002e+00 -1.134189e+00 -4.827972e+00 3.086818e+00 -1.268234e+00 7.130281e-02 2.192659e-01 -1.337479e+00 -3.509648e-01 -7.561625e-01 -6.986788e-01 -2.888155e-01 4.348731e-02 -2.283859e-01 -2.614242e-01 -3.415162e-01 1.956859e-01 1.933756e-02 -9.882037e-02 -1.237517e-02 -8.560642e-02 1.024775e-01 2.170575e-02 7.340727e-03 -1.578694e-01 -1.505372e-02 2.243937e-02 -3.238174e-02 6.873230e-02
<VARIANCE> 39
 5.187617e+01 3.641289e+01 3.689972e+01 3.673479e+01 4.753967e+01 5.777503e+01 5.009870e+01 3.880187e+01 3.464074e+01 3.265253e+01 2.604985e+01 2.212913e+01 4.898071e+00 4.889744e+00 3.734762e+00 3.506724e+00 5.110693e+00 5.082195e+00 5.736568e+00 5.612772e+00 4.329890e+00 3.988050e+00 3.379854e+00 3.062242e+00 2.589307e+00 7.270590e-01 9.761239e-01 6.421415e-01 5.232476e-01 7.376749e-01 8.366702e-01 9.771277e-01 9.584490e-01 7.879775e-01 7.039906e-01 6.271226e-01 5.488957e-01 4.541911e-01 7.928158e-02
<GCONST> 1.269645e+02
<TRANSP> 5
 0.000000e+00 1.000000e+00 0.000000e+00 0.000000e+00 0.000000e+00
 0.000000e+00 6.639584e-01 3.360416e-01 0.000000e+00 0.000000e+00
 0.000000e+00 0.000000e+00 7.585694e-01 2.414306e-01 0.000000e+00
 0.000000e+00 0.000000e+00 0.000000e+00 6.670420e-01 3.329580e-01
 0.000000e+00 0.000000e+00 0.000000e+00 0.000000e+00 0.000000e+00
<ENDHMM>
~h "sil"
<BEGINHMM>
<NUMSTATES> 5
<STATE> 2
<MEAN> 39
 -1.628375e+01 -5.315224e+00 -6.982449e+00 -4.371686e+00 -3.758446e+00 -2.313483e+00 -1.682060e+00 4.265852e-02 -1.915568e+00 -1.685399e+00 -2.098081e+00 -4.200476e-01 -9.293880e+00 -2.744181e-01 -2.085753e-02 -3.399749e-01 2.407907e-01 1.953440e-01 2.867291e-01 2.027052e-01 1.419182e-01 1.419894e-01 1.169428e-01 1.157303e-01 1.540069e-01 -2.924008e-01 -2.254869e-02 1.632537e-01 1.733258e-02 1.854189e-03 -1.004383e-01 -5.035729e-02 -4.952952e-02 -6.244125e-02 -5.446097e-02 9.937784e-03 1.333581e-02 -3.303916e-02 3.146981e-02
<VARIANCE> 39
 2.009940e+01 2.343367e+01 2.785694e+01 3.154995e+01 2.964568e+01 3.047765e+01 3.206439e+01 2.925298e+01 2.950406e+01 2.817023e+01 2.490471e+01 1.927922e+01 2.399274e+00 1.665458e+00 1.648640e+00 2.064335e+00 2.311742e+00 2.389722e+00 2.517181e+00 2.645645e+00 2.720613e+00 2.602935e+00 2.473836e+00 2.377038e+00 1.876472e+00 1.710939e-01 2.411392e-01 2.746126e-01 3.172074e-01 4.054588e-01 4.306005e-01 4.239998e-01 4.619722e-01 4.189132e-01 4.149615e-01 3.750930e-01 3.263728e-01 2.755394e-01 2.180870e-02
<GCONST> 1.037629e+02
<STATE> 3
<MEAN> 39
 -1.803337e+01 -3.732310e+00 -7.134820e+00 -3.330106e+00 -3.660653e+00 -1.896158e+00 -1.641787e+00 -1.940225e-01 -1.767262e+00 -1.146583e+00 -1.447324e+00 -2.602127e-01 -1.003427e+01 -9.593631e-02 1.677578e-01 2.601116e-02 9.189502e-02 1.559042e-02 6.475282e-02 6.362230e-03 -3.100499e-02 -9.577178e-03 5.067799e-02 4.325643e-02 -1.138616e-02 -4.678554e-02 5.288563e-02 -6.752566e-03 3.564382e-02 -3.820373e-02 -2.558283e-02 -2.620104e-02 -2.058028e-02 -1.571071e-02 -2.035763e-02 -1.365968e-02 -1.250667e-02 -1.671292e-02 3.844924e-02
<VARIANCE> 39
 1.503257e+01 1.845782e+01 1.567153e+01 1.883167e+01 1.675905e+01 2.028289e+01 1.902596e+01 1.882052e+01 1.904741e+01 1.941859e+01 1.732774e+01 1.374224e+01 1.018318e+00 6.815472e-01 9.742666e-01 1.134858e+00 1.330714e+00 1.344433e+00 1.495906e+00 1.611696e+00 1.643214e+00 1.673091e+00 1.625180e+00 1.488739e+00 1.268884e+00 4.982099e-02 1.408544e-01 1.831005e-01 2.127763e-01 2.529327e-01 2.656933e-01 2.911023e-01 3.208350e-01 3.275667e-01 3.333716e-01 3.219295e-01 2.964870e-01 2.542855e-01 1.256372e-02
<GCONST> 8.583012e+01
<STATE> 4
<MEAN> 39
 -1.749954e+01 -2.319777e+00 -6.506226e+00 -2.941516e+00 -3.709676e+00 -1.240224e+00 -1.456276e+00 -4.735875e-01 -2.181041e+00 -7.734139e-01 -1.460503e+00 -7.787158e-01 -9.934889e+00 1.317249e+00 3.121495e-02 4.416262e-01 -6.835458e-01 -5.694259e-01 -3.672988e-01 -3.774149e-01 -2.826362e-01 -4.641132e-01 -2.850985e-01 -2.395097e-01 -2.730941e-01 6.317158e-01 3.266788e-01 -2.079266e-01 4.652995e-03 -3.649835e-01 -2.621497e-01 -1.311593e-01 -1.952541e-01 -6.615871e-02 -9.783807e-02 -6.396442e-02 1.059320e-02 -8.601763e-03 2.405149e-01
<VARIANCE> 39
 1.545353e+01 1.749835e+01 2.255334e+01 2.145064e+01 2.160635e+01 2.220861e+01 2.154951e+01 2.189045e+01 2.138970e+01 1.951403e+01 1.794419e+01 1.496248e+01 1.245481e+00 4.573852e+00 2.902111e+00 2.594943e+00 3.228841e+00 3.150970e+00 2.741859e+00 2.920818e+00 2.706709e+00 2.722365e+00 2.359117e+00 2.153760e+00 1.770024e+00 5.960250e-01 4.916721e-01 3.917576e-01 3.435902e-01 5.281145e-01 4.818703e-01 4.172867e-01 4.583575e-01 4.220895e-01 4.210051e-01 3.811176e-01 3.410025e-01 2.815529e-01 7.233839e-02
<GCONST> 1.058510e+02
<TRANSP> 5
 0.000000e+00 1.000000e+00 0.000000e+00 0.000000e+00 0.000000e+00
 0.000000e+00 5.667820e-02 9.433218e-01 0.000000e+00 0.000000e+00
 0.000000e+00 0.000000e+00 9.303179e-01 6.968203e-02 0.000000e+00
 0.000000e+00 0.000000e+00 0.000000e+00 2.110827e-01 7.889174e-01
 0.000000e+00 0.000000e+00 0.000000e+00 0.000000e+00 0.000000e+00
<ENDHMM>
~h "aa"
<BEGINHMM>
<NUMSTATES> 5
<STATE> 2
<MEAN> 39
 -1.083934e+00 -1.399697e+01 -1.366183e+01 -1.485031e+01 -7.158312e+00 -1.413451e+00 -7.470556e+00 4.893288e-01 -1.850675e+00 -1.638492e+00 -1.744800e+00 -5.139675e+00 -1.032942e+00 1.098881e+00 -1.157496e+00 -1.360537e+00 -1.052462e+00 5.275179e-01 1.005041e+00 -2.180142e-01 4.562769e-01 1.142833e-01 -1.715019e-01 3.274131e-01 -2.777559e-01 5.192885e-01 -5.545163e-01 3.502449e-01 2.947484e-01 3.868490e-01 1.845825e-01 -1.093916e-01 1.591303e-01 -1.190035e-01 -5.467221e-02 -7.483046e-03 2.679230e-02 1.480122e-01 -1.610880e-01
<VARIANCE> 39
 1.326371e+01 3.385757e+01 3.688801e+01 6.318927e+01 6.496809e+01 9.201062e+01 8.016858e+01 7.222472e+01 7.274979e+01 5.037994e+01 6.227829e+01 3.676591e+01 1.928850e+00 2.323577e+00 2.123726e+00 2.697856e+00 3.382902e+00 3.868940e+00 4.225212e+00 4.549879e+00 4.664266e+00 3.802426e+00 3.257762e+00 2.878244e+00 2.719355e+00 2.539434e-01 4.017368e-01 3.176420e-01 3.576035e-01 5.367703e-01 5.858039e-01 6.526150e-01 7.572196e-01 7.434981e-01 6.598170e-01 5.417113e-01 5.388769e-01 4.290472e-01 2.977481e-02
<GCONST> 1.211053e+02
<STATE> 3
<MEAN> 39
 -4.102431e-01 -1.503250e+01 -1.656369e+01 -1.610963e+01 -3.952912e+00 1.131689e+00 -6.759006e+00 1.421101e-02 -1.550561e+00 -2.685306e+00 -9.392179e-01 -5.095944e+00 -2.154685e-01 4.217001e-02 -8.341231e-03 -1.460613e-01 3.263412e-01 2.101405e-01 -4.179149e-01 -3.423835e-01 1.797941e-01 2.462835e-01 -2.343316e-03 -1.692365e-01 4.859814e-03 -1.743623e-02 -3.302522e-02 1.366966e-01 1.726889e-01 1.361218e-01 -1.653537e-01 -2.657473e-01 -8.719085e-02 2.852636e-02 1.425803e-02 4.677011e-02 -7.289925e-02 2.794152e-02 -5.402684e-02
<VARIANCE> 39
 1.221681e+01 3.193741e+01 3.301862e+01 6.150338e+01 6.095344e+01 9.707901e+01 9.729315e+01 8.837997e+01 8.216150e+01 4.920910e+01 5.752723e+01 4.042648e+01 9.184268e-01 2.175765e-01 6.087318e-01 7.616753e-01 1.115992e+00 1.357429e+00 1.753923e+00 1.753119e+00 1.569317e+00 1.424037e+00 1.309572e+00 1.221256e+00 1.149479e+00 1.603664e-02 4.436452e-02 1.078970e-01 1.223656e-01 1.626181e-01 1.995115e-01 2.247486e-01 2.615079e-01 2.489621e-01 2.470387e-01 2.221706e-01 2.089767e-01 1.916966e-01 4.025324e-03
<GCONST> 8.877087e+01
<STATE> 4
<MEAN> 39
 -1.254773e+00 -1.288140e+01 -1.388919e+01 -1.365775e+01 -5.536982e+00 -3.059167e+00 -8.399893e+00 1.448179e-01 -8.176847e-01 -1.511642e+00 -3.175902e+00 -5.539552e+00 -1.302303e+00 -4.590665e-01 1.574859e+00 1.356661e+00 1.591525e+00 -5.145906e-01 -1.602426e+00 -3.709252e-01 -1.590658e-01 -4.569491e-01 2.346143e-01 -2.984047e-01 4.082200e-01 -5.983541e-01 -2.927159e-01 3.837972e-01 3.644113e-01 3.604278e-01 2.001019e-02 5.468510e-02 1.804975e-01 -3.753577e-01 -2.997218e-01 -4.489231e-02 2.039847e-02 1.436420e-01 -1.568663e-01
<VARIANCE> 39
 1.424345e+01 3.769927e+01 4.157473e+01 5.971982e+01 5.445720e+01 9.106120e+01 9.142822e+01 8.203477e+01 7.197543e+01 5.479813e+01 6.363889e+01 4.213192e+01 2.361931e+00 1.530373e+00 3.055547e+00 2.515555e+00 3.779510e+00 3.954412e+00 3.918750e+00 4.293933e+00 4.721780e+00 4.301793e+00 3.540201e+00 3.396688e+00 2.921456e+00 3.226354e-01 2.325416e-01 4.228511e-01 3.363540e-01 5.573525e-01 5.776577e-01 7.064841e-01 6.719161e-01 7.379123e-01 6.231273e-01 5.770047e-01 5.496317e-01 4.569630e-01 2.845044e-02
<GCONST> 1.221213e+02
<TRANSP> 5
 0.000000e+00 1.000000e+00 0.000000e+00 0.000000e+00 0.000000e+00
 0.000000e+00 6.980115e-01 3.019885e-01 0.000000e+00 0.000000e+00
 0.000000e+00 0.000000e+00 8.446069e-01 1.553931e-01 0.000000e+00
 0.000000e+00 0.000000e+00 0.000000e+00 5.723533e-01 4.276467e-01
 0.000000e+00 0.000000e+00 0.000000e+00 0.000000e+00 0.000000e+00
<ENDHMM>
~h "ae"
<BEGINHMM>
<NUMSTATES> 5
<STATE> 2
<MEAN> 39
 -5.544914e+00 -1.355309e+01 -4.740452e+00 -1.255153e+01 -1.423176e+01 -8.877607e+00 -4.222356e+00 3.651119e+00 -2.003499e+00 -2.184239e+00 -4.900521e+00 -3.877397e+00 -1.154794e+00 4.670343e-01 -1.508512e+00 -1.956753e-01 -6.741483e-01 -5.908244e-01 2.632431e-01 4.107130e-01 1.027174e+00 2.138532e-01 -4.255695e-01 -3.027558e-01 -2.255121e-01 4.237126e-01 -4.543336e-01 4.190302e-01 -1.932806e-02 3.066044e-01 4.768803e-01 3.041838e-01 1.443903e-01 -3.188915e-01 -8.148239e-02 7.228345e-03 1.202041e-01 7.662630e-02 -1.808448e-01
<VARIANCE> 39
 1.415774e+01 3.394155e+01 4.687597e+01 4.300557e+01 5.091841e+01 5.490495e+01 7.427756e+01 6.428215e+01 7.462055e+01 4.603775e+01 4.699212e+01 3.753190e+01 1.867996e+00 1.705253e+00 1.891371e+00 2.160926e+00 2.294732e+00 3.011699e+00 2.891353e+00 3.761105e+00 3.153232e+00 3.056474e+00 2.342477e+00 2.354740e+00 2.256884e+00 1.862881e-01 3.625486e-01 3.537654e-01 3.268834e-01 4.388627e-01 4.751535e-01 5.202919e-01 6.318138e-01 5.906276e-01 5.996553e-01 4.650546e-01 4.926704e-01 4.030081e-01 2.690205e-02
<GCONST> 1.145898e+02
<STATE> 3
<MEAN> 39
 -5.565963e+00 -1.643366e+01 -6.807114e+00 -1.256903e+01 -1.255489e+01 -6.496932e+00 -1.787573e+00 3.997956e+00 -1.642680e+00 -4.365259e+00 -5.823405e+00 -4.200687e+00 -4.758332e-01 4.988038e-02 -2.722778e-02 -1.641758e-01 1.174754e-01 1.855437e-01 3.057484e-02 -1.473967e-02 -2.822287e-02 -1.431661e-02 -7.395855e-02 -9.174038e-02 -4.259033e-02 -2.305321e-02 4.382112e-02 2.535420e-01 9.532845e-03 1.006920e-01 4.264184e-02 -1.057569e-01 -1.729420e-01 -1.663359e-01 -3.587347e-02 1.274450e-01 6.419573e-02 -4.368215e-04 -6.345687e-02
<VARIANCE> 39
 1.253514e+01 3.274461e+01 4.373528e+01 3.570642e+01 5.547499e+01 5.641519e+01 6.342177e+01 6.557323e+01 8.548338e+01 4.243894e+01 4.153329e+01 4.401077e+01 1.180588e+00 2.771245e-01 6.072333e-01 8.774732e-01 8.318772e-01 1.214880e+00 1.258912e+00 1.531974e+00 1.398060e+00 1.234698e+00 1.221607e+00 1.097635e+00 9.822035e-01 2.088131e-02 5.465924e-02 1.281898e-01 1.393812e-01 1.714875e-01 2.131885e-01 2.048144e-01 2.551767e-01 2.889869e-01 2.371179e-01 2.095390e-01 2.064729e-01 1.886871e-01 6.194427e-03
<GCONST> 8.724539e+01
<STATE> 4
<MEAN> 39
 -4.487591e+00 -1.285873e+01 -7.252608e+00 -1.062484e+01 -1.162480e+01 -8.994115e+00 -5.141643e+00 2.912114e+00 -1.379255e+00 -2.318655e+00 -5.299074e+00 -4.397925e+00 -1.568140e+00 -5.613120e-01 2.147161e+00 4.984355e-01 1.358944e+00 7.681596e-01 -4.409554e-02 -3.940867e-01 -1.313495e+00 -5.626718e-01 4.090979e-01 4.899518e-01 2.295138e-01 -7.134730e-01 -5.404384e-01 3.864685e-01 1.700085e-01 2.796421e-01 2.952793e-01 2.969193e-01 2.104524e-01 -3.081902e-01 -1.633615e-01 -1.466470e-02 1.166618e-01 1.206089e-01 -1.547693e-01
<VARIANCE> 39
 1.340275e+01 3.875425e+01 4.473405e+01 4.267144e+01 4.693363e+01 6.024244e+01 7.985439e+01 7.310586e+01 7.801211e+01 5.541735e+01 5.245451e+01 4.412842e+01 2.474095e+00 3.008742e+00 3.159650e+00 2.789971e+00 3.094556e+00 3.984425e+00 4.413721e+00 4.859122e+00 5.457149e+00 4.628810e+00 3.535057e+00 3.509954e+00 3.265166e+00 2.995166e-01 4.597613e-01 5.257777e-01 4.479518e-01 5.160323e-01 5.931631e-01 7.310420e-01 7.632383e-01 9.760719e-01 8.008565e-01 6.532397e-01 6.342088e-01 4.953418e-01 3.842699e-02
<GCONST> 1.246297e+02
<TRANSP> 5
 0.000000e+00 1.000000e+00 0.000000e+00 0.000000e+00 0.000000e+00
 0.000000e+00 5.947887e-01 4.052113e-01 0.000000e+00 0.000000e+00
 0.000000e+00 0.000000e+00 8.257822e-01 1.742178e-01 0.000000e+00
 0.000000e+00 0.000000e+00 0.000000e+00 6.922289e-01 3.077712e-01
 0.000000e+00 0.000000e+00 0.000000e+00 0.000000e+00 0.000000e+00
<ENDHMM>
~h "ah"
<BEGINHMM>
<NUMSTATES> 5
<STATE> 2
<MEAN> 39
 -3.085669e+00 -1.202669e+01 -9.883276e+00 -1.626240e+01 -1.018290e+01 -3.829806e+00 -1.117225e+01 -1.338581e+00 4.278731e-02 2.005141e+00 -2.724724e+00 -6.223377e+00 -3.921650e-01 8.451468e-01 -1.720674e+00 -3.391031e-01 -6.150426e-01 -4.547345e-01 8.977194e-02 -5.815485e-01 7.868304e-01 1.161670e+00 2.749363e-01 -6.412458e-01 -8.821758e-01 4.112938e-01 -6.504096e-01 5.317434e-01 1.695932e-01 3.955425e-01 3.512050e-01 1.079758e-01 6.330873e-01 -6.669595e-05 -3.257454e-01 -3.128456e-01 1.375067e-02 3.553388e-01 -2.127877e-01
<VARIANCE> 39
 1.130905e+01 2.419122e+01 3.513939e+01 4.663838e+01 5.493166e+01 8.906448e+01 6.907796e+01 6.509583e+01 6.093409e+01 6.372181e+01 9.498169e+01 4.697952e+01 9.213932e-01 3.432974e+00 1.979880e+00 2.756467e+00 7.141685e+00 4.769294e+00 7.141273e+00 5.058973e+00 4.697780e+00 3.689060e+00 4.219141e+00 4.605093e+00 3.482312e+00 2.057196e-01 5.402975e-01 3.747891e-01 4.116441e-01 5.895377e-01 8.461494e-01 9.815920e-01 8.233059e-01 8.479776e-01 7.054642e-01 6.996726e-01 9.358515e-01 6.157106e-01 2.240868e-02
<GCONST> 1.251006e+02
<STATE> 3
<MEAN> 39
 -3.362105e+00 -1.376585e+01 -1.117169e+01 -1.736581e+01 -7.813172e+00 -1.985524e+00 -9.490403e+00 3.187613e-01 7.790115e-01 1.408344e-01 -4.172580e+00 -6.306596e+00 -2.060423e-01 2.052572e-02 2.482159e-02 2.668827e-01 3.775114e-01 -8.597279e-02 -4.726863e-01 -1.003679e-01 3.202680e-02 -4.329002e-02 -4.498732e-02 -1.507330e-01 9.114362e-02 -9.477115e-02 -3.129230e-02 4.724851e-01 2.407839e-01 2.094815e-01 -4.656848e-02 -1.427557e-01 2.714743e-02 -2.907252e-01 -3.591216e-01 -6.485858e-02 1.418859e-01 2.155607e-01 -1.302766e-01
<VARIANCE> 39
 1.128291e+01 2.505250e+01 2.646017e+01 4.771850e+01 5.728437e+01 8.587793e+01 7.005491e+01 6.618438e+01 6.500779e+01 6.865852e+01 8.620422e+01 5.389194e+01 1.078790e+00 4.324689e-01 8.038251e-01 1.299539e+00 2.247217e+00 2.154208e+00 3.469464e+00 2.255486e+00 2.186771e+00 1.982900e+00 2.110757e+00 2.422256e+00 1.863103e+00 4.186654e-02 9.785654e-02 2.425409e-01 1.770181e-01 3.188533e-01 3.375751e-01 3.800837e-01 4.883292e-01 4.998903e-01 4.494069e-01 4.139398e-01 3.744179e-01 3.787628e-01 1.501436e-02
<GCONST> 1.038032e+02
<STATE> 4
<MEAN> 39
 -2.904032e+00 -1.029560e+01 -7.493367e+00 -1.206426e+01 -1.003574e+01 -6.738608e+00 -1.152124e+01 -2.343333e+00 -1.522147e+00 6.733013e-01 -2.763757e+00 -4.757167e+00 -1.703437e+00 -9.428399e-01 2.583184e+00 1.505445e+00 2.577255e+00 7.952080e-01 -5.251350e-01 5.250136e-01 -1.427594e+00 -1.426008e+00 -1.077691e+00 -1.353391e-01 7.687474e-01 -1.028013e+00 -5.159834e-01 3.855257e-01 5.421730e-02 1.320530e-01 3.270265e-01 4.135534e-01 4.219986e-01 -8.708180e-02 -1.988994e-01 -1.717449e-01 -4.144012e-02 -7.829319e-03 -1.373063e-01
<VARIANCE> 39
 1.609011e+01 3.942821e+01 3.487709e+01 7.227525e+01 5.438861e+01 7.474677e+01 6.105373e+01 6.642396e+01 5.621183e+01 5.924797e+01 7.468738e+01 4.523999e+01 3.397300e+00 3.223670e+00 3.244344e+00 2.456149e+00 4.980499e+00 5.905055e+00 5.735848e+00 5.640084e+00 5.716713e+00 5.028143e+00 5.192674e+00 5.716610e+00 4.244419e+00 3.997448e-01 3.320172e-01 7.209427e-01 4.471173e-01 1.150082e+00 8.141991e-01 9.359385e-01 8.209594e-01 1.129314e+00 8.958434e-01 9.261124e-01 9.052103e-01 6.977313e-01 7.296018e-02
<GCONST> 1.317148e+02
<TRANSP> 5
 0.000000e+00 1.000000e+00 0.000000e+00 0.000000e+00 0.000000e+00
 0.000000e+00 4.194441e-01 5.805559e-01 0.000000e+00 0.000000e+00
 0.000000e+00 0.000000e+00 7.299250e-01 2.700751e-01 0.000000e+00
 0.000000e+00 0.000000e+00 0.000000e+00 6.053335e-01 3.946665e-01
 0.000000e+00 0.000000e+00 0.000000e+00 0.000000e+00 0.000000e+00
<ENDHMM>
~h "ao"
<BEGINHMM>
<NUMSTATES> 5
<STATE> 2
<MEAN> 39
 1.010116e+00 -5.768394e+00 -1.258330e+01 -2.015181e+01 -1.358602e+01 -5.982566e-01 -6.059436e+00 -9.904363e-03 -6.111147e+00 -2.380903e+00 6.741599e-01 -3.310015e+00 -1.129282e+00 1.214014e+00 -3.689398e-01 -7.927448e-01 -1.815412e+00 -8.212329e-01 8.426619e-01 6.756447e-02 3.097304e-01 -3.897831e-01 -1.399693e-01 5.768319e-01 1.367950e-01 5.288609e-01 -7.030609e-01 -1.796568e-01 4.017014e-02 6.335496e-01 6.486170e-01 -5.039076e-02 7.323980e-02 -3.700294e-02 1.673912e-01 4.311285e-02 -3.172478e-02 1.853243e-01 -1.703147e-01
<VARIANCE> 39
 1.370986e+01 5.571632e+01 3.664491e+01 5.959879e+01 7.969658e+01 6.203820e+01 7.268173e+01 6.911441e+01 6.839018e+01 6.463863e+01 7.072686e+01 3.947093e+01 1.382353e+00 2.951839e+00 2.330441e+00 2.647777e+00 4.006582e+00 6.002656e+00 4.071455e+00 4.539865e+00 4.427307e+00 4.013587e+00 3.942407e+00 3.198608e+00 3.022142e+00 2.163202e-01 4.741799e-01 4.837922e-01 3.871028e-01 5.843869e-01 7.283062e-01 5.593734e-01 7.431679e-01 7.409171e-01 7.698355e-01 6.451899e-01 6.287310e-01 4.712756e-01 2.564712e-02
<GCONST> 1.236381e+02
<STATE> 3
<MEAN> 39
 7.151196e-01 -8.459049e+00 -1.493316e+01 -2.236233e+01 -1.065859e+01 3.164472e+00 -3.946412e+00 -1.053217e+00 -4.689229e+00 -3.053638e+00 1.137883e+00 -2.853347e+00 -2.956611e-01 1.063590e-02 -2.212557e-01 -2.902616e-01 2.106900e-01 4.612789e-01 -3.500665e-02 -1.898016e-01 -8.731145e-02 5.837182e-02 1.004018e-01 1.086738e-01 1.177774e-01 4.028435e-03 -2.723872e-02 -1.184857e-02 3.434155e-02 2.573334e-01 9.100352e-02 -2.132715e-01 -1.923760e-01 -1.014278e-02 4.203038e-02 7.743873e-02 -2.321917e-02 -3.589505e-02 -4.050514e-02
<VARIANCE> 39
 1.282024e+01 5.244756e+01 3.911354e+01 6.031670e+01 1.060875e+02 7.944994e+01 7.583765e+01 7.294282e+01 7.188010e+01 6.570614e+01 6.917811e+01 4.384841e+01 9.182300e-01 1.882961e-01 8.731365e-01 8.564151e-01 1.321766e+00 1.612490e+00 1.519753e+00 1.995918e+00 1.500340e+00 1.519805e+00 1.516130e+00 1.511699e+00 1.403040e+00 1.815210e-02 3.638143e-02 1.045646e-01 1.301767e-01 1.763272e-01 2.514099e-01 2.316871e-01 2.833498e-01 2.540739e-01 2.760016e-01 2.564962e-01 2.415489e-01 2.424899e-01 3.481070e-03
<GCONST> 9.192738e+01
<STATE> 4
<MEAN> 39
 5.487630e-01 -9.473200e+00 -1.555660e+01 -1.732619e+01 -8.337680e+00 -1.203763e+00 -7.688126e+00 -3.820554e-01 -5.613911e+00 -9.092976e-01 2.280754e+00 -2.690893e+00 -9.511689e-01 -4.026325e-01 6.945760e-04 1.723558e-01 2.138384e+00 1.124200e+00 -1.471638e+00 -1.373579e+00 1.584904e-03 5.267990e-01 3.984114e-01 -3.548171e-01 3.129495e-02 -3.613712e-01 -2.422384e-01 2.123414e-01 3.366742e-01 2.711342e-01 -6.949400e-02 -1.456537e-01 -1.292658e-02 -1.543992e-03 2.179346e-01 -1.028172e-01 -3.353804e-01 -4.965314e-02 -1.084232e-01
<VARIANCE> 39
 1.526421e+01 3.596486e+01 3.908650e+01 6.120551e+01 6.935999e+01 6.931661e+01 8.400156e+01 8.521205e+01 8.693909e+01 8.420931e+01 9.074875e+01 5.198998e+01 1.843399e+00 1.288728e+00 3.879762e+00 3.444764e+00 2.888124e+00 4.642257e+00 3.566122e+00 5.063306e+00 4.005354e+00 4.905272e+00 4.492282e+00 4.209564e+00 3.738364e+00 2.661147e-01 2.186453e-01 3.073180e-01 2.988348e-01 4.806393e-01 5.766457e-01 6.829189e-01 7.658802e-01 6.985378e-01 7.939637e-01 8.471504e-01 7.847435e-01 6.832146e-01 2.203699e-02
<GCONST> 1.243035e+02
<TRANSP> 5
 0.000000e+00 1.000000e+00 0.000000e+00 0.000000e+00 0.000000e+00
 0.000000e+00 7.037016e-01 2.962984e-01 0.000000e+00 0.000000e+00
 0.000000e+00 0.000000e+00 8.498396e-01 1.501604e-01 0.000000e+00
 0.000000e+00 0.000000e+00 0.000000e+00 6.461327e-01 3.538673e-01
 0.000000e+00 0.000000e+00 0.000000e+00 0.000000e+00 0.000000e+00
<ENDHMM>
~h "aw"
<BEGINHMM>
<NUMSTATES> 5
<STATE> 2
<MEAN> 39
 -4.280363e+00 -1.680434e+01 -1.037180e+01 -1.303980e+01 -7.848875e+00 -3.882649e+00 -3.953942e+00 5.300794e-01 -9.108213e-01 -4.098657e+00 -6.601875e+00 -5.503720e+00 -5.108865e-01 4.527108e-01 -1.191249e+00 -7.766253e-01 -9.054043e-01 3.916361e-01 1.055379e+00 -2.438699e-01 1.638799e-01 3.679337e-01 -1.480082e-01 -1.144841e-01 -4.330131e-01 4.027332e-01 -4.233022e-01 3.995695e-01 6.357077e-02 2.776642e-01 2.701496e-01 1.451756e-01 9.944846e-02 -2.329329e-01 -1.392310e-01 7.077637e-02 2.026925e-01 1.926693e-01 -2.077904e-01
<VARIANCE> 39
 1.384491e+01 2.798567e+01 4.036214e+01 4.048673e+01 7.144110e+01 7.079440e+01 6.647536e+01 7.052645e+01 8.023180e+01 5.093516e+01 4.221668e+01 4.372927e+01 9.264816e-01 1.072563e+00 1.765982e+00 1.514418e+00 2.292067e+00 3.204812e+00 2.503027e+00 3.452779e+00 3.562516e+00 2.612682e+00 2.263124e+00 2.245497e+00 2.052947e+00 1.290153e-01 3.344425e-01 2.639425e-01 2.801679e-01 3.641765e-01 5.220544e-01 4.639601e-01 5.715424e-01 5.901289e-01 5.193197e-01 4.450939e-01 3.958695e-01 3.955295e-01 2.207343e-02
<GCONST> 1.111628e+02
<STATE> 3
<MEAN> 39
 -2.504043e+00 -1.654031e+01 -1.389487e+01 -1.432832e+01 -5.183616e+00 4.647746e-01 -4.498545e+00 -1.850785e+00 -5.517226e-01 -2.815300e+00 -4.016456e+00 -6.656266e+00 -3.544466e-01 3.388142e-01 4.635618e-01 -3.890536e-01 -5.293954e-01 4.718916e-02 5.426975e-01 -1.869511e-01 -3.465787e-01 -3.418384e-01 2.580883e-01 6.120888e-01 1.893169e-02 -1.852297e-02 8.575122e-03 2.179125e-01 8.060231e-02 6.154977e-02 -1.483198e-01 -1.831419e-01 1.784099e-02 2.853541e-02 -1.100777e-01 9.608277e-03 6.091189e-02 9.469111e-02 -5.223896e-02
<VARIANCE> 39
 1.400998e+01 3.366223e+01 3.713619e+01 4.832946e+01 6.578876e+01 8.321312e+01 7.820221e+01 6.671021e+01 7.264451e+01 4.802535e+01 5.903586e+01 4.528203e+01 1.026460e+00 2.437151e-01 7.555124e-01 7.060284e-01 1.100511e+00 1.554872e+00 1.477288e+00 1.536129e+00 1.519167e+00 1.387563e+00 1.340265e+00 1.399852e+00 1.527225e+00 1.697615e-02 4.760595e-02 1.187396e-01 1.212171e-01 1.904490e-01 2.068351e-01 2.327737e-01 2.540865e-01 2.477720e-01 2.449054e-01 2.223668e-01 2.149852e-01 2.240167e-01 7.001027e-03
<GCONST> 8.995861e+01
<STATE> 4
<MEAN> 39
 -6.818733e-01 -1.012825e+01 -1.455618e+01 -1.790576e+01 -6.949736e+00 1.472695e+00 -5.110926e+00 -3.688406e+00 -4.162785e+00 -1.555009e+00 -5.430996e-01 -4.930927e+00 -1.072731e+00 -4.347360e-01 1.801792e+00 9.620932e-01 1.240282e+00 -3.929232e-01 -1.242698e+00 -1.547361e-02 -3.532785e-01 -1.129475e+00 1.300400e-01 2.890614e-01 4.566180e-01 -5.128875e-01 -4.823660e-01 6.245226e-02 3.897889e-01 7.246028e-01 2.723064e-01 -3.606574e-01 -1.461460e-02 -9.827065e-02 -6.082226e-02 -5.532480e-02 -2.160004e-01 3.185567e-03 -1.220355e-01
<VARIANCE> 39
 1.337214e+01 4.149193e+01 3.049614e+01 5.021669e+01 6.287131e+01 7.917091e+01 7.597358e+01 6.350990e+01 6.418372e+01 5.627182e+01 7.067684e+01 4.307119e+01 2.550595e+00 2.415918e+00 2.288130e+00 2.985669e+00 4.638931e+00 4.297062e+00 3.832277e+00 3.790487e+00 4.651798e+00 4.540988e+00 3.887092e+00 4.060546e+00 3.241555e+00 2.068467e-01 3.176602e-01 3.673588e-01 3.955740e-01 5.404674e-01 5.693692e-01 5.845770e-01 6.067237e-01 7.242503e-01 7.059188e-01 5.951894e-01 5.715023e-01 4.815046e-01 2.606982e-02
<GCONST> 1.219373e+02
<TRANSP> 5
 0.000000e+00 1.000000e+00 0.000000e+00 0.000000e+00 0.000000e+00
 0.000000e+00 6.714841e-01 3.285159e-01 0.000000e+00 0.000000e+00
 0.000000e+00 0.000000e+00 8.511757e-01 1.488243e-01 0.000000e+00
 0.000000e+00 0.000000e+00 0.000000e+00 7.261528e-01 2.738472e-01
 0.000000e+00 0.000000e+00 0.000000e+00 0.000000e+00 0.000000e+00
<ENDHMM>
~h "ax"
<BEGINHMM>
<NUMSTATES> 5
<STATE> 2
<MEAN> 39
 -4.413444e+00 -1.039196e+01 -4.293042e+00 -1.287634e+01 -1.178788e+01 -8.906858e+00 -1.099401e+01 -2.175321e-01 -1.957152e+00 -4.728352e-01 -3.599393e+00 -3.695336e+00 -1.858039e+00 9.444831e-01 -3.092287e-01 -8.792415e-02 -3.506716e-01 -2.207902e-01 -7.631048e-03 -5.434275e-01 -6.945326e-02 -4.111877e-02 1.976926e-01 -1.335908e-01 -2.559564e-01 1.306667e-01 -6.695736e-01 6.588475e-01 -2.258941e-02 5.458261e-01 5.118173e-01 2.985236e-01 5.233731e-01 -3.268992e-01 -2.444714e-01 -7.940766e-02 9.439476e-02 8.845308e-02 -2.471826e-01
<VARIANCE> 39
 1.719771e+01 3.320071e+01 5.669569e+01 5.652523e+01 5.562879e+01 7.253716e+01 7.097246e+01 6.222707e+01 6.237085e+01 5.534241e+01 6.221687e+01 4.165572e+01 1.831986e+00 3.029368e+00 2.408266e+00 2.466009e+00 3.322539e+00 3.757157e+00 3.447256e+00 3.742502e+00 3.950868e+00 3.589282e+00 2.935560e+00 3.137906e+00 2.402631e+00 2.378663e-01 6.227850e-01 4.570249e-01 4.497721e-01 6.627283e-01 7.003183e-01 8.021771e-01 9.088867e-01 8.627506e-01 7.836165e-01 6.784753e-01 6.713756e-01 5.341161e-01 4.370970e-02
<GCONST> 1.236151e+02
<STATE> 3
<MEAN> 39
 -3.973894e+00 -8.725145e+00 -3.453901e+00 -1.147878e+01 -1.148977e+01 -8.962898e+00 -1.161270e+01 -1.896417e+00 -3.572314e+00 -4.780928e-01 -2.577536e+00 -3.422429e+00 -2.262308e+00 -5.573876e-01 1.851215e+00 4.696805e-02 1.363796e+00 1.087412e+00 3.409018e-01 9.477871e-01 -1.050218e+00 -7.504966e-01 -3.664103e-01 -1.242420e-01 6.194246e-02 -5.794128e-01 -8.968723e-01 6.610901e-01 -3.027206e-02 5.525897e-01 5.794416e-01 3.786659e-01 6.454504e-01 -1.619005e-01 -9.348927e-02 -1.636017e-01 -4.105714e-02 7.917427e-02 -2.673418e-01
<VARIANCE> 39
 1.902562e+01 2.988892e+01 5.822625e+01 5.613401e+01 5.303751e+01 7.563857e+01 6.612923e+01 6.372559e+01 6.385983e+01 5.528110e+01 6.313543e+01 3.964398e+01 1.595775e+00 2.206248e+00 2.565715e+00 2.744179e+00 4.035435e+00 4.072329e+00 3.820709e+00 4.100252e+00 4.238189e+00 4.149851e+00 3.641048e+00 3.420744e+00 2.953681e+00 2.585527e-01 6.440461e-01 4.442676e-01 5.479105e-01 6.733334e-01 7.395959e-01 9.473367e-01 8.729683e-01 1.008354e+00 8.895468e-01 7.693448e-01 7.821358e-01 5.892131e-01 4.497977e-02
<GCONST> 1.256437e+02
<STATE> 4
<MEAN> 39
 -6.497758e+00 -3.286375e+00 -3.384592e+00 -7.254456e+00 -8.178761e+00 -8.115817e+00 -8.122024e+00 -4.083282e+00 -4.800273e+00 -2.169616e+00 -3.537988e+00 -3.179967e+00 -4.094331e+00 -1.847947e+00 2.012300e+00 4.831955e-02 1.731642e+00 1.677752e+00 1.080452e+00 1.420169e+00 -7.188912e-01 -5.443206e-01 -4.024292e-01 -1.970364e-01 3.849654e-02 -8.883060e-01 -5.340605e-01 -3.051522e-01 -1.234370e-01 -1.849930e-01 1.870620e-02 2.040045e-01 1.455793e-01 2.836916e-01 1.847847e-01 1.406222e-01 1.159460e-01 9.449723e-02 1.754061e-02
<VARIANCE> 39
 2.720606e+01 3.481794e+01 5.086823e+01 5.565050e+01 5.463375e+01 6.217049e+01 5.134939e+01 5.357938e+01 5.907762e+01 5.033138e+01 4.731001e+01 3.386566e+01 4.203957e+00 4.667967e+00 3.591279e+00 3.542175e+00 5.260111e+00 4.905556e+00 5.432590e+00 5.234312e+00 5.654798e+00 5.095174e+00 4.304860e+00 4.156348e+00 3.517205e+00 5.594082e-01 5.371200e-01 5.870659e-01 4.729241e-01 6.351060e-01 6.541573e-01 7.344583e-01 6.735559e-01 7.866028e-01 7.500958e-01 6.752745e-01 6.037930e-01 4.908630e-01 5.442639e-02
<GCONST> 1.284138e+02
<TRANSP> 5
 0.000000e+00 1.000000e+00 0.000000e+00 0.000000e+00 0.000000e+00
 0.000000e+00 5.346122e-01 4.653877e-01 0.000000e+00 0.000000e+00
 0.000000e+00 0.000000e+00 2.577028e-01 7.422972e-01 0.000000e+00
 0.000000e+00 0.000000e+00 0.000000e+00 3.295374e-01 6.704625e-01
 0.000000e+00 0.000000e+00 0.000000e+00 0.000000e+00 0.000000e+00
<ENDHMM>
~h "ay"
<BEGINHMM>
<NUMSTATES> 5
<STATE> 2
<MEAN> 39
 -2.007241e+00 -1.536179e+01 -1.377373e+01 -1.696722e+01 -5.902257e+00 1.474239e+00 -5.590614e+00 -2.325639e+00 -9.362629e-01 -6.455472e-01 -3.619723e+00 -7.130258e+00 -3.639193e-01 5.711849e-01 -1.688929e+00 -5.689249e-01 -6.813652e-01 4.579218e-01 8.632485e-01 -2.829130e-01 1.322857e-01 5.681368e-01 -1.933151e-01 -5.040270e-01 -7.034541e-01 4.511678e-01 -6.924917e-01 3.986732e-01 4.242865e-01 6.653126e-01 1.299132e-01 -3.349824e-01 9.641365e-02 7.661330e-02 -1.321476e-02 -1.466504e-01 -9.769397e-03 3.421311e-01 -2.227329e-01
<VARIANCE> 39
 1.165597e+01 2.800084e+01 3.100980e+01 5.042475e+01 5.489556e+01 8.002361e+01 6.673244e+01 6.040817e+01 6.159200e+01 5.036312e+01 7.222292e+01 4.157259e+01 1.024301e+00 2.587963e+00 1.819459e+00 2.396109e+00 3.668268e+00 3.204435e+00 3.704937e+00 3.464825e+00 3.633520e+00 3.000765e+00 2.556489e+00 2.900697e+00 2.942384e+00 2.143554e-01 6.028883e-01 2.989108e-01 3.370669e-01 5.670890e-01 5.689796e-01 5.949708e-01 6.331180e-01 7.269261e-01 5.793862e-01 4.803120e-01 6.602448e-01 4.436738e-01 3.015909e-02
<GCONST> 1.177165e+02
<STATE> 3
<MEAN> 39
 -3.358849e+00 -1.760672e+01 -1.268152e+01 -1.409860e+01 -5.018748e+00 -5.533628e-01 -5.425251e+00 -3.727736e-01 4.534776e-01 -3.194358e+00 -5.765506e+00 -6.714130e+00 -2.620464e-01 -1.688977e-01 2.461228e-02 6.180847e-01 4.168734e-01 -6.092169e-01 -8.232790e-01 5.257885e-02 6.281496e-01 -5.737154e-03 -2.702012e-01 -1.544637e-01 2.647986e-01 -6.049475e-02 1.521369e-02 1.819037e-01 1.137391e-01 -1.968983e-02 -1.822072e-01 -1.198893e-01 -4.684016e-03 -3.103153e-03 -1.220456e-01 7.281195e-02 1.236394e-01 6.835125e-02 -3.064256e-02
<VARIANCE> 39
 1.043884e+01 2.953440e+01 3.545106e+01 3.963946e+01 6.407814e+01 8.383945e+01 7.676576e+01 7.127175e+01 6.850157e+01 4.960286e+01 5.070562e+01 5.087952e+01 8.849388e-01 1.913885e-01 5.729221e-01 8.493667e-01 9.152074e-01 1.625749e+00 1.541568e+00 1.591243e+00 1.622714e+00 1.280636e+00 1.108055e+00 1.242944e+00 1.129175e+00 1.188787e-02 3.302816e-02 8.625372e-02 9.872752e-02 1.312743e-01 1.868948e-01 1.899494e-01 2.234470e-01 2.598646e-01 2.138827e-01 1.875973e-01 2.037292e-01 1.904506e-01 2.639488e-03
<GCONST> 8.458508e+01
<STATE> 4
<MEAN> 39
 -4.939178e+00 -1.303610e+01 -2.890501e+00 -1.199685e+01 -1.488036e+01 -9.194147e+00 -5.339699e+00 3.045065e+00 -3.788222e+00 -2.829061e+00 -3.763524e+00 -3.313910e+00 -1.482060e+00 -2.229589e-01 2.027563e+00 9.534665e-01 8.652292e-01 -8.500485e-02 -5.086361e-01 -3.494296e-01 -1.309631e+00 -1.049664e+00 3.979638e-01 6.474373e-01 2.053342e-01 -5.182986e-01 -1.947765e-01 3.458424e-01 -3.216960e-01 2.842689e-01 6.873754e-01 3.821486e-01 5.678406e-02 -4.570604e-01 -2.260145e-02 -4.689704e-02 -1.146392e-01 -1.152882e-01 -1.232632e-01
<VARIANCE> 39
 1.413413e+01 3.757703e+01 5.359840e+01 4.759584e+01 5.146916e+01 6.220530e+01 6.897686e+01 6.826952e+01 7.453313e+01 4.633272e+01 5.265317e+01 3.414477e+01 1.953030e+00 1.296005e+00 2.117465e+00 2.786096e+00 3.758488e+00 5.774661e+00 3.781410e+00 4.121200e+00 4.217593e+00 3.970114e+00 3.254713e+00 3.197640e+00 2.980730e+00 1.934025e-01 3.337307e-01 3.113464e-01 3.774757e-01 5.550616e-01 5.548926e-01 6.081830e-01 7.268787e-01 7.697942e-01 6.768252e-01 5.584140e-01 5.712974e-01 4.267245e-01 2.080675e-02
<GCONST> 1.193526e+02
<TRANSP> 5
 0.000000e+00 1.000000e+00 0.000000e+00 0.000000e+00 0.000000e+00
 0.000000e+00 6.954293e-01 3.045706e-01 0.000000e+00 0.000000e+00
 0.000000e+00 0.000000e+00 8.981076e-01 1.018923e-01 0.000000e+00
 0.000000e+00 0.000000e+00 0.000000e+00 7.698390e-01 2.301610e-01
 0.000000e+00 0.000000e+00 0.000000e+00 0.000000e+00 0.000000e+00
<ENDHMM>
~h "ch"
<BEGINHMM>
<NUMSTATES> 5
<STATE> 2
<MEAN> 39
 -2.883562e+01 -6.308955e+00 7.950736e-01 -1.075246e+01 -4.382028e+00 1.041966e+00 -2.590910e+00 -3.415586e-01 2.782810e-01 -9.451064e-01 5.866787e-01 -1.985532e-01 -3.180907e+00 -1.789163e+00 7.378055e-01 1.015141e+00 -9.629570e-02 -6.612648e-01 -1.101807e-01 8.735858e-01 1.444981e-01 1.162652e-01 4.944122e-02 2.425297e-01 3.537204e-02 8.661398e-01 8.865955e-01 1.601131e-01 -6.896116e-02 6.311825e-01 -1.774840e-01 -4.581767e-01 -2.183667e-02 -1.013378e-01 -2.978554e-01 -1.391885e-01 -2.374138e-01 -1.061649e-01 -2.887325e-01
<VARIANCE> 39
 2.014625e+01 3.387888e+01 3.288529e+01 3.045835e+01 3.543384e+01 2.291099e+01 2.212486e+01 1.988952e+01 1.607795e+01 1.452296e+01 1.093072e+01 9.712991e+00 2.613201e+00 2.627759e+00 2.549692e+00 2.497155e+00 2.517265e+00 2.145835e+00 2.476167e+00 2.074196e+00 1.889912e+00 1.619855e+00 1.531305e+00 1.323733e+00 1.173510e+00 3.191029e-01 5.594299e-01 7.673219e-01 5.851958e-01 5.882610e-01 5.385953e-01 4.681054e-01 4.801681e-01 4.451574e-01 3.750070e-01 3.434706e-01 2.877538e-01 2.515581e-01 5.793117e-02
<GCONST> 1.036042e+02
<STATE> 3
<MEAN> 39
 -2.841824e+01 -8.079744e+00 2.251886e+00 -7.966457e+00 -9.150316e+00 -1.885399e+00 7.287023e-01 -8.469959e-01 -4.004130e-01 -1.037003e+00 4.610282e-01 -4.716013e-01 -2.507180e+00 1.622510e+00 -5.208505e-01 -5.076111e-01 6.673571e-01 -6.830723e-01 -1.432145e+00 8.105589e-02 2.725578e-01 -3.803808e-01 -2.714343e-01 -2.567830e-01 -1.706491e-01 -1.393833e-01 1.071991e+00 -1.417590e-01 -3.844077e-01 5.606973e-02 2.344582e-01 -2.036274e-01 -5.073177e-01 7.454094e-02 -6.411659e-02 -1.513019e-01 -1.930027e-01 -6.425363e-02 -1.745472e-01
<VARIANCE> 39
 1.423987e+01 2.043360e+01 2.442846e+01 2.888163e+01 2.664010e+01 2.677797e+01 2.338672e+01 2.004456e+01 1.863560e+01 1.733173e+01 1.337808e+01 1.242418e+01 1.845817e+00 2.485898e+00 1.221224e+00 1.774771e+00 1.758092e+00 2.210556e+00 2.201450e+00 2.180193e+00 2.001224e+00 1.708630e+00 1.585503e+00 1.413152e+00 1.229210e+00 1.729725e-01 5.264345e-01 2.816264e-01 3.822765e-01 3.457191e-01 4.320149e-01 4.585215e-01 4.792007e-01 4.035782e-01 3.893107e-01 3.397278e-01 3.283554e-01 2.862257e-01 3.909320e-02
<GCONST> 9.840736e+01
<STATE> 4
<MEAN> 39
 -1.592221e+01 -1.017895e+01 -2.576906e+00 -4.877810e+00 -8.715170e+00 -8.314753e+00 -3.181187e+00 7.835534e-01 -1.492118e+00 -3.020438e+00 -1.856236e+00 -1.565567e+00 -3.654959e+00 4.754301e+00 -6.829857e-01 -1.560868e+00 -2.572820e-01 2.579266e-01 -1.313389e+00 -2.212622e+00 4.734965e-01 -2.953133e-01 -5.118285e-01 -6.998180e-01 -3.659214e-01 1.799242e-01 1.088775e-01 -1.899819e-01 -2.364649e-01 -5.116895e-01 4.633177e-02 3.933330e-01 -3.058162e-01 9.930731e-02 1.095277e-01 1.520409e-01 1.572161e-01 -1.121091e-03 2.060799e-01
<VARIANCE> 39
 5.856137e+01 2.313030e+01 3.801247e+01 3.270364e+01 3.423849e+01 3.452632e+01 4.022525e+01 2.928291e+01 3.876082e+01 2.414949e+01 2.248468e+01 1.637998e+01 3.124596e+00 4.515823e+00 2.846280e+00 3.573229e+00 3.395089e+00 4.904777e+00 5.259007e+00 5.569941e+00 4.368400e+00 4.593434e+00 3.065328e+00 3.435061e+00 2.301173e+00 4.779415e-01 1.144114e+00 4.053755e-01 4.219805e-01 4.731007e-01 7.050140e-01 7.313158e-01 8.928457e-01 6.594573e-01 6.118340e-01 5.595672e-01 5.222344e-01 4.060194e-01 5.077960e-02
<GCONST> 1.203408e+02
<TRANSP> 5
 0.000000e+00 1.000000e+00 0.000000e+00 0.000000e+00 0.000000e+00
 0.000000e+00 6.008322e-01 3.991678e-01 0.000000e+00 0.000000e+00
 0.000000e+00 0.000000e+00 6.788547e-01 3.211453e-01 0.000000e+00
 0.000000e+00 0.000000e+00 0.000000e+00 6.792024e-01 3.207976e-01
 0.000000e+00 0.000000e+00 0.000000e+00 0.000000e+00 0.000000e+00
<ENDHMM>
~h "dd"
<BEGINHMM>
<NUMSTATES> 5
<STATE> 2
<MEAN> 39
 -1.075883e+01 2.281713e+00 2.377336e+00 1.163557e+00 -4.960046e+00 -5.514560e+00 -6.894598e+00 -5.268165e+00 -5.451313e+00 -5.300650e+00 -6.224831e+00 -4.489982e+00 -7.427622e+00 -2.008805e+00 -1.375772e-01 -8.200815e-01 -1.865067e-01 1.542388e+00 1.463942e+00 1.025455e+00 1.613580e-01 3.438584e-01 4.345783e-01 3.717979e-01 1.807792e-01 -4.207461e-01 -2.124989e-01 -1.150198e+00 -3.146878e-01 -1.117037e+00 -7.003270e-01 -1.863766e-01 -9.178199e-02 4.737538e-01 2.260064e-01 3.521847e-01 5.877766e-01 3.824190e-01 4.360500e-01
<VARIANCE> 39
 3.286302e+01 3.151891e+01 3.037707e+01 3.478810e+01 3.616578e+01 3.411746e+01 3.084390e+01 3.042702e+01 3.291218e+01 2.789601e+01 2.533539e+01 2.221828e+01 3.656953e+00 4.051435e+00 7.633438e+00 4.334528e+00 5.593588e+00 5.065804e+00 4.120580e+00 3.948770e+00 4.225433e+00 4.056995e+00 3.339869e+00 3.412196e+00 2.774944e+00 5.361561e-01 6.349001e-01 8.127359e-01 6.404409e-01 8.824738e-01 8.790366e-01 7.967925e-01 8.483412e-01 7.759943e-01 7.405995e-01 7.771231e-01 6.312842e-01 5.370731e-01 6.828499e-02
<GCONST> 1.243767e+02
<STATE> 3
<MEAN> 39
 -1.570837e+01 -5.600678e+00 -1.886826e+00 -4.426033e+00 -4.852758e+00 -2.976054e+00 -4.150156e+00 -2.672043e+00 -3.050399e+00 -2.600051e+00 -2.583747e+00 -1.874813e+00 -6.672216e+00 -1.719685e+00 -1.684313e+00 -9.728260e-01 -2.062567e+00 -3.449889e-01 3.557849e-01 5.616740e-01 8.325657e-01 8.001846e-01 7.955040e-01 1.119952e+00 8.395213e-01 5.917754e-01 4.031963e-01 1.346592e-01 2.318207e-01 -2.113168e-01 -6.210903e-01 -5.279425e-01 -3.285635e-01 7.708908e-02 -5.637207e-02 -1.318198e-02 -1.658996e-02 -3.699890e-03 2.791758e-01
<VARIANCE> 39
 4.461166e+01 5.385685e+01 4.840029e+01 4.694392e+01 4.404528e+01 4.024257e+01 3.634819e+01 3.049976e+01 2.819588e+01 2.630254e+01 2.200325e+01 1.900367e+01 5.866796e+00 6.977355e+00 5.149077e+00 4.009550e+00 5.144940e+00 4.844847e+00 4.460068e+00 4.277565e+00 4.151651e+00 4.030703e+00 3.543592e+00 3.349537e+00 2.636731e+00 5.585588e-01 8.040100e-01 1.186868e+00 7.629275e-01 9.614584e-01 1.031448e+00 9.351349e-01 8.457998e-01 8.260351e-01 7.083106e-01 6.871572e-01 6.578134e-01 4.820097e-01 8.310063e-02
<GCONST> 1.278004e+02
<STATE> 4
<MEAN> 39
 -1.111146e+01 -7.988867e+00 -1.234755e+00 -1.002077e+01 -1.207489e+01 -9.943982e+00 -6.216557e+00 -7.330704e-01 -2.567670e+00 -1.447202e+00 -1.263926e+00 6.516838e-01 -4.380982e+00 9.520038e-01 -6.417136e-01 -3.925558e-01 -9.633935e-01 -1.219699e+00 -9.052566e-01 -2.168727e-01 7.772930e-01 3.133424e-01 5.124394e-01 3.421380e-02 2.204061e-01 4.679092e-01 9.128405e-02 4.428319e-01 -3.684258e-02 6.287986e-01 4.517441e-01 3.546661e-01 4.136073e-02 -5.997991e-02 -1.085348e-01 -1.227918e-01 -3.381366e-01 -3.774398e-01 -1.915220e-01
<VARIANCE> 39
 2.983267e+01 3.295663e+01 4.645353e+01 5.220956e+01 5.040282e+01 5.291970e+01 6.112169e+01 4.727693e+01 5.043161e+01 3.745829e+01 3.322032e+01 2.491689e+01 3.736222e+00 3.953359e+00 4.464261e+00 3.792956e+00 6.394896e+00 6.057714e+00 5.475126e+00 6.311183e+00 4.792021e+00 4.922070e+00 4.738416e+00 4.540872e+00 3.524627e+00 7.160177e-01 4.658337e-01 8.554573e-01 6.543717e-01 9.787048e-01 8.025602e-01 8.623796e-01 9.199206e-01 7.750878e-01 8.609529e-01 8.177081e-01 7.640092e-01 5.484712e-01 7.114711e-02
<GCONST> 1.304228e+02
<TRANSP> 5
 0.000000e+00 1.000000e+00 0.000000e+00 0.000000e+00 0.000000e+00
 0.000000e+00 5.560113e-01 4.439887e-01 0.000000e+00 0.000000e+00
 0.000000e+00 0.000000e+00 2.653402e-01 1.793105e-01 5.553493e-01
 0.000000e+00 0.000000e+00 0.000000e+00 5.402621e-01 4.597379e-01
 0.000000e+00 0.000000e+00 0.000000e+00 0.000000e+00 0.000000e+00
<ENDHMM>
~h "dh"
<BEGINHMM>
<NUMSTATES> 5
<STATE> 2
<MEAN> 39
 -1.469061e+01 -4.833286e-01 -5.594647e+00 -3.861139e+00 -4.234116e+00 -5.415745e+00 -5.668544e+00 -4.878266e+00 -3.068011e+00 -1.615431e+00 -3.356614e+00 -2.965573e+00 -5.958716e+00 7.997289e-01 -5.221725e-01 -5.164332e-02 -5.436704e-01 -7.011969e-01 -6.953560e-01 -4.335914e-01 1.642658e-01 3.911947e-01 1.752503e-03 -2.706898e-04 5.675612e-02 3.556691e-01 5.823841e-01 -5.563375e-01 2.957117e-02 -6.842627e-01 -6.704454e-01 -5.091648e-01 -3.880385e-01 2.683337e-01 2.003657e-01 1.805634e-01 2.330622e-02 5.894186e-02 4.191898e-01
<VARIANCE> 39
 5.174917e+01 2.622514e+01 2.474113e+01 2.731951e+01 2.562777e+01 3.098652e+01 3.918331e+01 3.714812e+01 2.733145e+01 2.611337e+01 2.562015e+01 2.724638e+01 5.074959e+00 5.927218e+00 3.254470e+00 2.579318e+00 4.198229e+00 3.874045e+00 4.333321e+00 4.411460e+00 3.842475e+00 3.334857e+00 2.681119e+00 2.621807e+00 2.756302e+00 9.137896e-01 4.974270e-01 7.153179e-01 5.961671e-01 8.037986e-01 6.721077e-01 7.725084e-01 8.357585e-01 8.170582e-01 6.858038e-01 6.061625e-01 6.257021e-01 6.143764e-01 8.663882e-02
<GCONST> 1.220952e+02
<STATE> 3
<MEAN> 39
 -9.795518e+00 -1.792046e+00 -5.711876e+00 -6.927477e+00 -8.284845e+00 -1.012127e+01 -8.932104e+00 -5.310432e+00 -1.536190e+00 -1.018878e+00 -3.600464e+00 -2.919359e+00 -3.089381e+00 2.496620e+00 -1.792715e+00 4.650593e-01 -1.933963e+00 -2.201971e+00 -1.834512e+00 -1.883472e+00 7.642987e-01 7.969176e-01 4.987642e-01 -5.336643e-02 -9.885824e-02 1.098014e+00 1.057855e-02 -3.409621e-01 2.470638e-01 -1.522295e-01 -9.979485e-02 2.443126e-01 6.877436e-02 3.160253e-01 -1.867843e-01 7.111581e-02 1.648960e-02 -4.386526e-02 -3.058507e-02
<VARIANCE> 39
 2.098088e+01 1.929512e+01 2.164262e+01 2.506876e+01 3.179400e+01 3.030844e+01 3.799510e+01 3.176996e+01 2.954029e+01 3.032552e+01 2.514574e+01 2.689797e+01 1.568378e+00 5.032297e+00 2.925035e+00 3.707366e+00 4.249506e+00 4.384364e+00 5.200848e+00 6.217921e+00 6.100799e+00 4.809827e+00 3.932067e+00 4.393020e+00 4.341022e+00 3.272842e-01 4.332309e-01 3.679269e-01 3.914611e-01 4.662421e-01 4.634586e-01 5.221019e-01 6.198561e-01 6.935419e-01 5.014681e-01 4.664831e-01 4.936640e-01 4.055238e-01 4.444475e-02
<GCONST> 1.167131e+02
<STATE> 4
<MEAN> 39
 -6.328531e+00 -6.242188e+00 -3.904145e+00 -1.055646e+01 -1.274850e+01 -1.286894e+01 -1.176957e+01 -3.394652e+00 -1.058451e+00 -1.023880e-01 -3.760489e+00 -2.789558e+00 -1.617370e+00 1.639794e+00 -1.971970e+00 7.035380e-01 -1.715476e+00 -1.715799e+00 -8.588282e-01 -1.007063e+00 1.218464e+00 2.302151e-01 4.369107e-01 -1.225456e-02 -1.145556e-01 7.161987e-01 -6.120957e-01 2.752686e-01 2.825701e-04 4.548961e-01 6.006816e-01 7.260705e-01 6.329989e-01 6.054784e-02 -3.508767e-01 -1.704957e-01 5.639984e-02 -3.650898e-02 -3.103997e-01
<VARIANCE> 39
 1.054722e+01 2.201885e+01 4.301212e+01 4.165169e+01 4.994071e+01 4.376837e+01 5.345741e+01 5.097527e+01 5.596385e+01 4.504691e+01 4.422788e+01 4.476346e+01 1.046789e+00 2.581091e+00 2.593653e+00 3.084351e+00 3.472319e+00 3.550807e+00 4.539281e+00 5.546857e+00 4.799030e+00 4.209528e+00 3.472094e+00 4.124508e+00 3.189839e+00 2.109930e-01 5.284601e-01 3.414831e-01 4.276190e-01 5.493377e-01 6.079508e-01 6.233730e-01 7.255355e-01 7.930862e-01 6.557203e-01 5.478685e-01 5.233248e-01 5.987287e-01 4.007401e-02
<GCONST> 1.196368e+02
<TRANSP> 5
 0.000000e+00 1.000000e+00 0.000000e+00 0.000000e+00 0.000000e+00
 0.000000e+00 5.831312e-01 4.168688e-01 0.000000e+00 0.000000e+00
 0.000000e+00 0.000000e+00 1.098023e-01 8.901977e-01 0.000000e+00
 0.000000e+00 0.000000e+00 0.000000e+00 2.892791e-01 7.107209e-01
 0.000000e+00 0.000000e+00 0.000000e+00 0.000000e+00 0.000000e+00
<ENDHMM>
~h "dx"
<BEGINHMM>
<NUMSTATES> 5
<STATE> 2
<MEAN> 39
